//2022-02-23 11:57:56.968957
#ifndef QPAIR_NET_PARAMS_H
#define QPAIR_NET_PARAMS_H

#include <stdint.h>
#include <stdbool.h>

#define GESN 12
#define LEN_LABLE 3
struct Conv1d_Params {
	int batch_size;
	int input_width;
	int in_channels;
	int out_channels;
	int kernel_size;
	int stride_size;
	int padding_front;
	int padding_back;
	int output_width;
	double out_scale;
	};
#define TRUE_LABEL "9 8 4 "
const double downScalar_1 = 0.018021791029491592;
const elem_t z3_1 = -5;
const elem_t z4_1 = -5;
const elem_t QConv_BN_1[1][3][6][16]=
{{{{-18,-4,127,-9,-86,0,-42,4,55,-4,-13,-22,-82,-29,49,-10},{-2,-1,11,10,-11,23,-5,-34,109,20,9,-18,58,-15,-23,53},{31,-19,42,6,-128,-10,-4,-3,8,-13,-16,-11,41,33,-43,-62},{13,-2,42,-5,42,0,11,6,16,-2,-16,-4,14,-35,-16,-19},{6,15,45,-13,-9,6,-14,7,-11,-13,2,15,8,17,9,-15},{11,0,-40,-11,32,-17,1,8,13,-5,7,2,4,8,-13,-10}},{{10,-9,126,-10,-115,13,-12,-4,7,-9,6,-13,-30,-24,40,14},{-38,4,-24,15,-75,23,3,-18,111,20,-7,-43,55,-14,-56,8},{26,-23,55,9,-89,10,21,-6,27,-13,-21,-3,35,21,2,-50},{-2,-8,-50,-9,-38,-27,16,-14,-15,-11,-7,12,-5,-3,11,6},{14,-2,-52,-10,-6,-22,4,6,-14,-11,-21,21,-26,-14,-4,26},{9,9,-24,-5,-29,-14,20,11,11,11,21,13,-14,19,16,-11}},{{-20,-34,107,-5,-103,13,-2,6,60,29,9,2,-77,-52,21,-4},{-44,32,9,20,15,3,35,-19,124,15,-8,-48,94,-9,-70,6},{35,-22,32,1,-72,-5,40,-5,29,0,-20,-2,23,3,-20,-52},{9,1,2,-1,27,-15,-16,-18,-11,-6,-14,1,2,9,12,12},{4,10,-23,-14,9,-15,-3,-14,24,-12,14,-17,-6,30,-27,13},{4,18,36,-4,32,15,20,12,12,7,1,18,-28,-31,26,-22}}}};
const acc_t QConv_BN_bias_1[364][1][48][16] = 

{{{{1293,-180,-904,-731,1612,-951,-1830,357,-3053,-1086,69,1096,-1338,818,1448,53},{1253,-220,-944,-771,1572,-991,-1870,317,-3093,-1126,29,1056,-1378,778,1408,13},{1247,-226,-950,-777,1566,-997,-1876,311,-3099,-1132,23,1050,-1384,772,1402,7},{1295,-178,-902,-729,1614,-949,-1828,359,-3051,-1084,71,1098,-1336,820,1450,55},{1341,-132,-856,-683,1660,-903,-1782,405,-3005,-1038,117,1144,-1290,866,1496,101},{1364,-109,-833,-660,1683,-880,-1759,428,-2982,-1015,140,1167,-1267,889,1519,124},{1356,-117,-841,-668,1675,-888,-1767,420,-2990,-1023,132,1159,-1275,881,1511,116},{1360,-113,-837,-664,1679,-884,-1763,424,-2986,-1019,136,1163,-1271,885,1515,120},{1383,-90,-814,-641,1702,-861,-1740,447,-2963,-996,159,1186,-1248,908,1538,143},{1412,-61,-785,-612,1731,-832,-1711,476,-2934,-967,188,1215,-1219,937,1567,172},{1433,-40,-764,-591,1752,-811,-1690,497,-2913,-946,209,1236,-1198,958,1588,193},{1453,-20,-744,-571,1772,-791,-1670,517,-2893,-926,229,1256,-1178,978,1608,213},{1485,12,-712,-539,1804,-759,-1638,549,-2861,-894,261,1288,-1146,1010,1640,245},{1523,50,-674,-501,1842,-721,-1600,587,-2823,-856,299,1326,-1108,1048,1678,283},{1558,85,-639,-466,1877,-686,-1565,622,-2788,-821,334,1361,-1073,1083,1713,318},{1589,116,-608,-435,1908,-655,-1534,653,-2757,-790,365,1392,-1042,1114,1744,349},{1612,139,-585,-412,1931,-632,-1511,676,-2734,-767,388,1415,-1019,1137,1767,372},{1615,142,-582,-409,1934,-629,-1508,679,-2731,-764,391,1418,-1016,1140,1770,375},{1617,144,-580,-407,1936,-627,-1506,681,-2729,-762,393,1420,-1014,1142,1772,377},{1656,183,-541,-368,1975,-588,-1467,720,-2690,-723,432,1459,-975,1181,1811,416},{1706,233,-491,-318,2025,-538,-1417,770,-2640,-673,482,1509,-925,1231,1861,466},{1720,247,-477,-304,2039,-524,-1403,784,-2626,-659,496,1523,-911,1245,1875,480},{1728,255,-469,-296,2047,-516,-1395,792,-2618,-651,504,1531,-903,1253,1883,488},{1801,328,-396,-223,2120,-443,-1322,865,-2545,-578,577,1604,-830,1326,1956,561},{1898,425,-299,-126,2217,-346,-1225,962,-2448,-481,674,1701,-733,1423,2053,658},{1955,482,-242,-69,2274,-289,-1168,1019,-2391,-424,731,1758,-676,1480,2110,715},{1886,413,-311,-138,2205,-358,-1237,950,-2460,-493,662,1689,-745,1411,2041,646},{1809,336,-388,-215,2128,-435,-1314,873,-2537,-570,585,1612,-822,1334,1964,569},{1774,301,-423,-250,2093,-470,-1349,838,-2572,-605,550,1577,-857,1299,1929,534},{1795,322,-402,-229,2114,-449,-1328,859,-2551,-584,571,1598,-836,1320,1950,555},{1803,330,-394,-221,2122,-441,-1320,867,-2543,-576,579,1606,-828,1328,1958,563},{1734,261,-463,-290,2053,-510,-1389,798,-2612,-645,510,1537,-897,1259,1889,494},{1668,195,-529,-356,1987,-576,-1455,732,-2678,-711,444,1471,-963,1193,1823,428},{1647,174,-550,-377,1966,-597,-1476,711,-2699,-732,423,1450,-984,1172,1802,407},{1685,212,-512,-339,2004,-559,-1438,749,-2661,-694,461,1488,-946,1210,1840,445},{1741,268,-456,-283,2060,-503,-1382,805,-2605,-638,517,1544,-890,1266,1896,501},{1799,326,-398,-225,2118,-445,-1324,863,-2547,-580,575,1602,-832,1324,1954,559},{1843,370,-354,-181,2162,-401,-1280,907,-2503,-536,619,1646,-788,1368,1998,603},{1856,383,-341,-168,2175,-388,-1267,920,-2490,-523,632,1659,-775,1381,2011,616},{1820,347,-377,-204,2139,-424,-1303,884,-2526,-559,596,1623,-811,1345,1975,580},{1769,296,-428,-255,2088,-475,-1354,833,-2577,-610,545,1572,-862,1294,1924,529},{1703,230,-494,-321,2022,-541,-1420,767,-2643,-676,479,1506,-928,1228,1858,463},{1659,186,-538,-365,1978,-585,-1464,723,-2687,-720,435,1462,-972,1184,1814,419},{1620,147,-577,-404,1939,-624,-1503,684,-2726,-759,396,1423,-1011,1145,1775,380},{1579,106,-618,-445,1898,-665,-1544,643,-2767,-800,355,1382,-1052,1104,1734,339},{1541,68,-656,-483,1860,-703,-1582,605,-2805,-838,317,1344,-1090,1066,1696,301},{1511,38,-686,-513,1830,-733,-1612,575,-2835,-868,287,1314,-1120,1036,1666,271},{1480,7,-717,-544,1799,-764,-1643,544,-2866,-899,256,1283,-1151,1005,1635,240}}},
{{{1253,-220,-944,-771,1572,-991,-1870,317,-3093,-1126,29,1056,-1378,778,1408,13},{1247,-226,-950,-777,1566,-997,-1876,311,-3099,-1132,23,1050,-1384,772,1402,7},{1295,-178,-902,-729,1614,-949,-1828,359,-3051,-1084,71,1098,-1336,820,1450,55},{1341,-132,-856,-683,1660,-903,-1782,405,-3005,-1038,117,1144,-1290,866,1496,101},{1364,-109,-833,-660,1683,-880,-1759,428,-2982,-1015,140,1167,-1267,889,1519,124},{1356,-117,-841,-668,1675,-888,-1767,420,-2990,-1023,132,1159,-1275,881,1511,116},{1360,-113,-837,-664,1679,-884,-1763,424,-2986,-1019,136,1163,-1271,885,1515,120},{1383,-90,-814,-641,1702,-861,-1740,447,-2963,-996,159,1186,-1248,908,1538,143},{1412,-61,-785,-612,1731,-832,-1711,476,-2934,-967,188,1215,-1219,937,1567,172},{1433,-40,-764,-591,1752,-811,-1690,497,-2913,-946,209,1236,-1198,958,1588,193},{1453,-20,-744,-571,1772,-791,-1670,517,-2893,-926,229,1256,-1178,978,1608,213},{1485,12,-712,-539,1804,-759,-1638,549,-2861,-894,261,1288,-1146,1010,1640,245},{1523,50,-674,-501,1842,-721,-1600,587,-2823,-856,299,1326,-1108,1048,1678,283},{1558,85,-639,-466,1877,-686,-1565,622,-2788,-821,334,1361,-1073,1083,1713,318},{1589,116,-608,-435,1908,-655,-1534,653,-2757,-790,365,1392,-1042,1114,1744,349},{1612,139,-585,-412,1931,-632,-1511,676,-2734,-767,388,1415,-1019,1137,1767,372},{1615,142,-582,-409,1934,-629,-1508,679,-2731,-764,391,1418,-1016,1140,1770,375},{1617,144,-580,-407,1936,-627,-1506,681,-2729,-762,393,1420,-1014,1142,1772,377},{1656,183,-541,-368,1975,-588,-1467,720,-2690,-723,432,1459,-975,1181,1811,416},{1706,233,-491,-318,2025,-538,-1417,770,-2640,-673,482,1509,-925,1231,1861,466},{1720,247,-477,-304,2039,-524,-1403,784,-2626,-659,496,1523,-911,1245,1875,480},{1728,255,-469,-296,2047,-516,-1395,792,-2618,-651,504,1531,-903,1253,1883,488},{1801,328,-396,-223,2120,-443,-1322,865,-2545,-578,577,1604,-830,1326,1956,561},{1898,425,-299,-126,2217,-346,-1225,962,-2448,-481,674,1701,-733,1423,2053,658},{1955,482,-242,-69,2274,-289,-1168,1019,-2391,-424,731,1758,-676,1480,2110,715},{1886,413,-311,-138,2205,-358,-1237,950,-2460,-493,662,1689,-745,1411,2041,646},{1809,336,-388,-215,2128,-435,-1314,873,-2537,-570,585,1612,-822,1334,1964,569},{1774,301,-423,-250,2093,-470,-1349,838,-2572,-605,550,1577,-857,1299,1929,534},{1795,322,-402,-229,2114,-449,-1328,859,-2551,-584,571,1598,-836,1320,1950,555},{1803,330,-394,-221,2122,-441,-1320,867,-2543,-576,579,1606,-828,1328,1958,563},{1734,261,-463,-290,2053,-510,-1389,798,-2612,-645,510,1537,-897,1259,1889,494},{1668,195,-529,-356,1987,-576,-1455,732,-2678,-711,444,1471,-963,1193,1823,428},{1647,174,-550,-377,1966,-597,-1476,711,-2699,-732,423,1450,-984,1172,1802,407},{1685,212,-512,-339,2004,-559,-1438,749,-2661,-694,461,1488,-946,1210,1840,445},{1741,268,-456,-283,2060,-503,-1382,805,-2605,-638,517,1544,-890,1266,1896,501},{1799,326,-398,-225,2118,-445,-1324,863,-2547,-580,575,1602,-832,1324,1954,559},{1843,370,-354,-181,2162,-401,-1280,907,-2503,-536,619,1646,-788,1368,1998,603},{1856,383,-341,-168,2175,-388,-1267,920,-2490,-523,632,1659,-775,1381,2011,616},{1820,347,-377,-204,2139,-424,-1303,884,-2526,-559,596,1623,-811,1345,1975,580},{1769,296,-428,-255,2088,-475,-1354,833,-2577,-610,545,1572,-862,1294,1924,529},{1703,230,-494,-321,2022,-541,-1420,767,-2643,-676,479,1506,-928,1228,1858,463},{1659,186,-538,-365,1978,-585,-1464,723,-2687,-720,435,1462,-972,1184,1814,419},{1620,147,-577,-404,1939,-624,-1503,684,-2726,-759,396,1423,-1011,1145,1775,380},{1579,106,-618,-445,1898,-665,-1544,643,-2767,-800,355,1382,-1052,1104,1734,339},{1541,68,-656,-483,1860,-703,-1582,605,-2805,-838,317,1344,-1090,1066,1696,301},{1511,38,-686,-513,1830,-733,-1612,575,-2835,-868,287,1314,-1120,1036,1666,271},{1480,7,-717,-544,1799,-764,-1643,544,-2866,-899,256,1283,-1151,1005,1635,240},{1436,-37,-761,-588,1755,-808,-1687,500,-2910,-943,212,1239,-1195,961,1591,196}}},
{{{1247,-226,-950,-777,1566,-997,-1876,311,-3099,-1132,23,1050,-1384,772,1402,7},{1295,-178,-902,-729,1614,-949,-1828,359,-3051,-1084,71,1098,-1336,820,1450,55},{1341,-132,-856,-683,1660,-903,-1782,405,-3005,-1038,117,1144,-1290,866,1496,101},{1364,-109,-833,-660,1683,-880,-1759,428,-2982,-1015,140,1167,-1267,889,1519,124},{1356,-117,-841,-668,1675,-888,-1767,420,-2990,-1023,132,1159,-1275,881,1511,116},{1360,-113,-837,-664,1679,-884,-1763,424,-2986,-1019,136,1163,-1271,885,1515,120},{1383,-90,-814,-641,1702,-861,-1740,447,-2963,-996,159,1186,-1248,908,1538,143},{1412,-61,-785,-612,1731,-832,-1711,476,-2934,-967,188,1215,-1219,937,1567,172},{1433,-40,-764,-591,1752,-811,-1690,497,-2913,-946,209,1236,-1198,958,1588,193},{1453,-20,-744,-571,1772,-791,-1670,517,-2893,-926,229,1256,-1178,978,1608,213},{1485,12,-712,-539,1804,-759,-1638,549,-2861,-894,261,1288,-1146,1010,1640,245},{1523,50,-674,-501,1842,-721,-1600,587,-2823,-856,299,1326,-1108,1048,1678,283},{1558,85,-639,-466,1877,-686,-1565,622,-2788,-821,334,1361,-1073,1083,1713,318},{1589,116,-608,-435,1908,-655,-1534,653,-2757,-790,365,1392,-1042,1114,1744,349},{1612,139,-585,-412,1931,-632,-1511,676,-2734,-767,388,1415,-1019,1137,1767,372},{1615,142,-582,-409,1934,-629,-1508,679,-2731,-764,391,1418,-1016,1140,1770,375},{1617,144,-580,-407,1936,-627,-1506,681,-2729,-762,393,1420,-1014,1142,1772,377},{1656,183,-541,-368,1975,-588,-1467,720,-2690,-723,432,1459,-975,1181,1811,416},{1706,233,-491,-318,2025,-538,-1417,770,-2640,-673,482,1509,-925,1231,1861,466},{1720,247,-477,-304,2039,-524,-1403,784,-2626,-659,496,1523,-911,1245,1875,480},{1728,255,-469,-296,2047,-516,-1395,792,-2618,-651,504,1531,-903,1253,1883,488},{1801,328,-396,-223,2120,-443,-1322,865,-2545,-578,577,1604,-830,1326,1956,561},{1898,425,-299,-126,2217,-346,-1225,962,-2448,-481,674,1701,-733,1423,2053,658},{1955,482,-242,-69,2274,-289,-1168,1019,-2391,-424,731,1758,-676,1480,2110,715},{1886,413,-311,-138,2205,-358,-1237,950,-2460,-493,662,1689,-745,1411,2041,646},{1809,336,-388,-215,2128,-435,-1314,873,-2537,-570,585,1612,-822,1334,1964,569},{1774,301,-423,-250,2093,-470,-1349,838,-2572,-605,550,1577,-857,1299,1929,534},{1795,322,-402,-229,2114,-449,-1328,859,-2551,-584,571,1598,-836,1320,1950,555},{1803,330,-394,-221,2122,-441,-1320,867,-2543,-576,579,1606,-828,1328,1958,563},{1734,261,-463,-290,2053,-510,-1389,798,-2612,-645,510,1537,-897,1259,1889,494},{1668,195,-529,-356,1987,-576,-1455,732,-2678,-711,444,1471,-963,1193,1823,428},{1647,174,-550,-377,1966,-597,-1476,711,-2699,-732,423,1450,-984,1172,1802,407},{1685,212,-512,-339,2004,-559,-1438,749,-2661,-694,461,1488,-946,1210,1840,445},{1741,268,-456,-283,2060,-503,-1382,805,-2605,-638,517,1544,-890,1266,1896,501},{1799,326,-398,-225,2118,-445,-1324,863,-2547,-580,575,1602,-832,1324,1954,559},{1843,370,-354,-181,2162,-401,-1280,907,-2503,-536,619,1646,-788,1368,1998,603},{1856,383,-341,-168,2175,-388,-1267,920,-2490,-523,632,1659,-775,1381,2011,616},{1820,347,-377,-204,2139,-424,-1303,884,-2526,-559,596,1623,-811,1345,1975,580},{1769,296,-428,-255,2088,-475,-1354,833,-2577,-610,545,1572,-862,1294,1924,529},{1703,230,-494,-321,2022,-541,-1420,767,-2643,-676,479,1506,-928,1228,1858,463},{1659,186,-538,-365,1978,-585,-1464,723,-2687,-720,435,1462,-972,1184,1814,419},{1620,147,-577,-404,1939,-624,-1503,684,-2726,-759,396,1423,-1011,1145,1775,380},{1579,106,-618,-445,1898,-665,-1544,643,-2767,-800,355,1382,-1052,1104,1734,339},{1541,68,-656,-483,1860,-703,-1582,605,-2805,-838,317,1344,-1090,1066,1696,301},{1511,38,-686,-513,1830,-733,-1612,575,-2835,-868,287,1314,-1120,1036,1666,271},{1480,7,-717,-544,1799,-764,-1643,544,-2866,-899,256,1283,-1151,1005,1635,240},{1436,-37,-761,-588,1755,-808,-1687,500,-2910,-943,212,1239,-1195,961,1591,196},{1373,-100,-824,-651,1692,-871,-1750,437,-2973,-1006,149,1176,-1258,898,1528,133}}},
{{{1295,-178,-902,-729,1614,-949,-1828,359,-3051,-1084,71,1098,-1336,820,1450,55},{1341,-132,-856,-683,1660,-903,-1782,405,-3005,-1038,117,1144,-1290,866,1496,101},{1364,-109,-833,-660,1683,-880,-1759,428,-2982,-1015,140,1167,-1267,889,1519,124},{1356,-117,-841,-668,1675,-888,-1767,420,-2990,-1023,132,1159,-1275,881,1511,116},{1360,-113,-837,-664,1679,-884,-1763,424,-2986,-1019,136,1163,-1271,885,1515,120},{1383,-90,-814,-641,1702,-861,-1740,447,-2963,-996,159,1186,-1248,908,1538,143},{1412,-61,-785,-612,1731,-832,-1711,476,-2934,-967,188,1215,-1219,937,1567,172},{1433,-40,-764,-591,1752,-811,-1690,497,-2913,-946,209,1236,-1198,958,1588,193},{1453,-20,-744,-571,1772,-791,-1670,517,-2893,-926,229,1256,-1178,978,1608,213},{1485,12,-712,-539,1804,-759,-1638,549,-2861,-894,261,1288,-1146,1010,1640,245},{1523,50,-674,-501,1842,-721,-1600,587,-2823,-856,299,1326,-1108,1048,1678,283},{1558,85,-639,-466,1877,-686,-1565,622,-2788,-821,334,1361,-1073,1083,1713,318},{1589,116,-608,-435,1908,-655,-1534,653,-2757,-790,365,1392,-1042,1114,1744,349},{1612,139,-585,-412,1931,-632,-1511,676,-2734,-767,388,1415,-1019,1137,1767,372},{1615,142,-582,-409,1934,-629,-1508,679,-2731,-764,391,1418,-1016,1140,1770,375},{1617,144,-580,-407,1936,-627,-1506,681,-2729,-762,393,1420,-1014,1142,1772,377},{1656,183,-541,-368,1975,-588,-1467,720,-2690,-723,432,1459,-975,1181,1811,416},{1706,233,-491,-318,2025,-538,-1417,770,-2640,-673,482,1509,-925,1231,1861,466},{1720,247,-477,-304,2039,-524,-1403,784,-2626,-659,496,1523,-911,1245,1875,480},{1728,255,-469,-296,2047,-516,-1395,792,-2618,-651,504,1531,-903,1253,1883,488},{1801,328,-396,-223,2120,-443,-1322,865,-2545,-578,577,1604,-830,1326,1956,561},{1898,425,-299,-126,2217,-346,-1225,962,-2448,-481,674,1701,-733,1423,2053,658},{1955,482,-242,-69,2274,-289,-1168,1019,-2391,-424,731,1758,-676,1480,2110,715},{1886,413,-311,-138,2205,-358,-1237,950,-2460,-493,662,1689,-745,1411,2041,646},{1809,336,-388,-215,2128,-435,-1314,873,-2537,-570,585,1612,-822,1334,1964,569},{1774,301,-423,-250,2093,-470,-1349,838,-2572,-605,550,1577,-857,1299,1929,534},{1795,322,-402,-229,2114,-449,-1328,859,-2551,-584,571,1598,-836,1320,1950,555},{1803,330,-394,-221,2122,-441,-1320,867,-2543,-576,579,1606,-828,1328,1958,563},{1734,261,-463,-290,2053,-510,-1389,798,-2612,-645,510,1537,-897,1259,1889,494},{1668,195,-529,-356,1987,-576,-1455,732,-2678,-711,444,1471,-963,1193,1823,428},{1647,174,-550,-377,1966,-597,-1476,711,-2699,-732,423,1450,-984,1172,1802,407},{1685,212,-512,-339,2004,-559,-1438,749,-2661,-694,461,1488,-946,1210,1840,445},{1741,268,-456,-283,2060,-503,-1382,805,-2605,-638,517,1544,-890,1266,1896,501},{1799,326,-398,-225,2118,-445,-1324,863,-2547,-580,575,1602,-832,1324,1954,559},{1843,370,-354,-181,2162,-401,-1280,907,-2503,-536,619,1646,-788,1368,1998,603},{1856,383,-341,-168,2175,-388,-1267,920,-2490,-523,632,1659,-775,1381,2011,616},{1820,347,-377,-204,2139,-424,-1303,884,-2526,-559,596,1623,-811,1345,1975,580},{1769,296,-428,-255,2088,-475,-1354,833,-2577,-610,545,1572,-862,1294,1924,529},{1703,230,-494,-321,2022,-541,-1420,767,-2643,-676,479,1506,-928,1228,1858,463},{1659,186,-538,-365,1978,-585,-1464,723,-2687,-720,435,1462,-972,1184,1814,419},{1620,147,-577,-404,1939,-624,-1503,684,-2726,-759,396,1423,-1011,1145,1775,380},{1579,106,-618,-445,1898,-665,-1544,643,-2767,-800,355,1382,-1052,1104,1734,339},{1541,68,-656,-483,1860,-703,-1582,605,-2805,-838,317,1344,-1090,1066,1696,301},{1511,38,-686,-513,1830,-733,-1612,575,-2835,-868,287,1314,-1120,1036,1666,271},{1480,7,-717,-544,1799,-764,-1643,544,-2866,-899,256,1283,-1151,1005,1635,240},{1436,-37,-761,-588,1755,-808,-1687,500,-2910,-943,212,1239,-1195,961,1591,196},{1373,-100,-824,-651,1692,-871,-1750,437,-2973,-1006,149,1176,-1258,898,1528,133},{1335,-138,-862,-689,1654,-909,-1788,399,-3011,-1044,111,1138,-1296,860,1490,95}}},
{{{1341,-132,-856,-683,1660,-903,-1782,405,-3005,-1038,117,1144,-1290,866,1496,101},{1364,-109,-833,-660,1683,-880,-1759,428,-2982,-1015,140,1167,-1267,889,1519,124},{1356,-117,-841,-668,1675,-888,-1767,420,-2990,-1023,132,1159,-1275,881,1511,116},{1360,-113,-837,-664,1679,-884,-1763,424,-2986,-1019,136,1163,-1271,885,1515,120},{1383,-90,-814,-641,1702,-861,-1740,447,-2963,-996,159,1186,-1248,908,1538,143},{1412,-61,-785,-612,1731,-832,-1711,476,-2934,-967,188,1215,-1219,937,1567,172},{1433,-40,-764,-591,1752,-811,-1690,497,-2913,-946,209,1236,-1198,958,1588,193},{1453,-20,-744,-571,1772,-791,-1670,517,-2893,-926,229,1256,-1178,978,1608,213},{1485,12,-712,-539,1804,-759,-1638,549,-2861,-894,261,1288,-1146,1010,1640,245},{1523,50,-674,-501,1842,-721,-1600,587,-2823,-856,299,1326,-1108,1048,1678,283},{1558,85,-639,-466,1877,-686,-1565,622,-2788,-821,334,1361,-1073,1083,1713,318},{1589,116,-608,-435,1908,-655,-1534,653,-2757,-790,365,1392,-1042,1114,1744,349},{1612,139,-585,-412,1931,-632,-1511,676,-2734,-767,388,1415,-1019,1137,1767,372},{1615,142,-582,-409,1934,-629,-1508,679,-2731,-764,391,1418,-1016,1140,1770,375},{1617,144,-580,-407,1936,-627,-1506,681,-2729,-762,393,1420,-1014,1142,1772,377},{1656,183,-541,-368,1975,-588,-1467,720,-2690,-723,432,1459,-975,1181,1811,416},{1706,233,-491,-318,2025,-538,-1417,770,-2640,-673,482,1509,-925,1231,1861,466},{1720,247,-477,-304,2039,-524,-1403,784,-2626,-659,496,1523,-911,1245,1875,480},{1728,255,-469,-296,2047,-516,-1395,792,-2618,-651,504,1531,-903,1253,1883,488},{1801,328,-396,-223,2120,-443,-1322,865,-2545,-578,577,1604,-830,1326,1956,561},{1898,425,-299,-126,2217,-346,-1225,962,-2448,-481,674,1701,-733,1423,2053,658},{1955,482,-242,-69,2274,-289,-1168,1019,-2391,-424,731,1758,-676,1480,2110,715},{1886,413,-311,-138,2205,-358,-1237,950,-2460,-493,662,1689,-745,1411,2041,646},{1809,336,-388,-215,2128,-435,-1314,873,-2537,-570,585,1612,-822,1334,1964,569},{1774,301,-423,-250,2093,-470,-1349,838,-2572,-605,550,1577,-857,1299,1929,534},{1795,322,-402,-229,2114,-449,-1328,859,-2551,-584,571,1598,-836,1320,1950,555},{1803,330,-394,-221,2122,-441,-1320,867,-2543,-576,579,1606,-828,1328,1958,563},{1734,261,-463,-290,2053,-510,-1389,798,-2612,-645,510,1537,-897,1259,1889,494},{1668,195,-529,-356,1987,-576,-1455,732,-2678,-711,444,1471,-963,1193,1823,428},{1647,174,-550,-377,1966,-597,-1476,711,-2699,-732,423,1450,-984,1172,1802,407},{1685,212,-512,-339,2004,-559,-1438,749,-2661,-694,461,1488,-946,1210,1840,445},{1741,268,-456,-283,2060,-503,-1382,805,-2605,-638,517,1544,-890,1266,1896,501},{1799,326,-398,-225,2118,-445,-1324,863,-2547,-580,575,1602,-832,1324,1954,559},{1843,370,-354,-181,2162,-401,-1280,907,-2503,-536,619,1646,-788,1368,1998,603},{1856,383,-341,-168,2175,-388,-1267,920,-2490,-523,632,1659,-775,1381,2011,616},{1820,347,-377,-204,2139,-424,-1303,884,-2526,-559,596,1623,-811,1345,1975,580},{1769,296,-428,-255,2088,-475,-1354,833,-2577,-610,545,1572,-862,1294,1924,529},{1703,230,-494,-321,2022,-541,-1420,767,-2643,-676,479,1506,-928,1228,1858,463},{1659,186,-538,-365,1978,-585,-1464,723,-2687,-720,435,1462,-972,1184,1814,419},{1620,147,-577,-404,1939,-624,-1503,684,-2726,-759,396,1423,-1011,1145,1775,380},{1579,106,-618,-445,1898,-665,-1544,643,-2767,-800,355,1382,-1052,1104,1734,339},{1541,68,-656,-483,1860,-703,-1582,605,-2805,-838,317,1344,-1090,1066,1696,301},{1511,38,-686,-513,1830,-733,-1612,575,-2835,-868,287,1314,-1120,1036,1666,271},{1480,7,-717,-544,1799,-764,-1643,544,-2866,-899,256,1283,-1151,1005,1635,240},{1436,-37,-761,-588,1755,-808,-1687,500,-2910,-943,212,1239,-1195,961,1591,196},{1373,-100,-824,-651,1692,-871,-1750,437,-2973,-1006,149,1176,-1258,898,1528,133},{1335,-138,-862,-689,1654,-909,-1788,399,-3011,-1044,111,1138,-1296,860,1490,95},{1287,-186,-910,-737,1606,-957,-1836,351,-3059,-1092,63,1090,-1344,812,1442,47}}},
{{{1364,-109,-833,-660,1683,-880,-1759,428,-2982,-1015,140,1167,-1267,889,1519,124},{1356,-117,-841,-668,1675,-888,-1767,420,-2990,-1023,132,1159,-1275,881,1511,116},{1360,-113,-837,-664,1679,-884,-1763,424,-2986,-1019,136,1163,-1271,885,1515,120},{1383,-90,-814,-641,1702,-861,-1740,447,-2963,-996,159,1186,-1248,908,1538,143},{1412,-61,-785,-612,1731,-832,-1711,476,-2934,-967,188,1215,-1219,937,1567,172},{1433,-40,-764,-591,1752,-811,-1690,497,-2913,-946,209,1236,-1198,958,1588,193},{1453,-20,-744,-571,1772,-791,-1670,517,-2893,-926,229,1256,-1178,978,1608,213},{1485,12,-712,-539,1804,-759,-1638,549,-2861,-894,261,1288,-1146,1010,1640,245},{1523,50,-674,-501,1842,-721,-1600,587,-2823,-856,299,1326,-1108,1048,1678,283},{1558,85,-639,-466,1877,-686,-1565,622,-2788,-821,334,1361,-1073,1083,1713,318},{1589,116,-608,-435,1908,-655,-1534,653,-2757,-790,365,1392,-1042,1114,1744,349},{1612,139,-585,-412,1931,-632,-1511,676,-2734,-767,388,1415,-1019,1137,1767,372},{1615,142,-582,-409,1934,-629,-1508,679,-2731,-764,391,1418,-1016,1140,1770,375},{1617,144,-580,-407,1936,-627,-1506,681,-2729,-762,393,1420,-1014,1142,1772,377},{1656,183,-541,-368,1975,-588,-1467,720,-2690,-723,432,1459,-975,1181,1811,416},{1706,233,-491,-318,2025,-538,-1417,770,-2640,-673,482,1509,-925,1231,1861,466},{1720,247,-477,-304,2039,-524,-1403,784,-2626,-659,496,1523,-911,1245,1875,480},{1728,255,-469,-296,2047,-516,-1395,792,-2618,-651,504,1531,-903,1253,1883,488},{1801,328,-396,-223,2120,-443,-1322,865,-2545,-578,577,1604,-830,1326,1956,561},{1898,425,-299,-126,2217,-346,-1225,962,-2448,-481,674,1701,-733,1423,2053,658},{1955,482,-242,-69,2274,-289,-1168,1019,-2391,-424,731,1758,-676,1480,2110,715},{1886,413,-311,-138,2205,-358,-1237,950,-2460,-493,662,1689,-745,1411,2041,646},{1809,336,-388,-215,2128,-435,-1314,873,-2537,-570,585,1612,-822,1334,1964,569},{1774,301,-423,-250,2093,-470,-1349,838,-2572,-605,550,1577,-857,1299,1929,534},{1795,322,-402,-229,2114,-449,-1328,859,-2551,-584,571,1598,-836,1320,1950,555},{1803,330,-394,-221,2122,-441,-1320,867,-2543,-576,579,1606,-828,1328,1958,563},{1734,261,-463,-290,2053,-510,-1389,798,-2612,-645,510,1537,-897,1259,1889,494},{1668,195,-529,-356,1987,-576,-1455,732,-2678,-711,444,1471,-963,1193,1823,428},{1647,174,-550,-377,1966,-597,-1476,711,-2699,-732,423,1450,-984,1172,1802,407},{1685,212,-512,-339,2004,-559,-1438,749,-2661,-694,461,1488,-946,1210,1840,445},{1741,268,-456,-283,2060,-503,-1382,805,-2605,-638,517,1544,-890,1266,1896,501},{1799,326,-398,-225,2118,-445,-1324,863,-2547,-580,575,1602,-832,1324,1954,559},{1843,370,-354,-181,2162,-401,-1280,907,-2503,-536,619,1646,-788,1368,1998,603},{1856,383,-341,-168,2175,-388,-1267,920,-2490,-523,632,1659,-775,1381,2011,616},{1820,347,-377,-204,2139,-424,-1303,884,-2526,-559,596,1623,-811,1345,1975,580},{1769,296,-428,-255,2088,-475,-1354,833,-2577,-610,545,1572,-862,1294,1924,529},{1703,230,-494,-321,2022,-541,-1420,767,-2643,-676,479,1506,-928,1228,1858,463},{1659,186,-538,-365,1978,-585,-1464,723,-2687,-720,435,1462,-972,1184,1814,419},{1620,147,-577,-404,1939,-624,-1503,684,-2726,-759,396,1423,-1011,1145,1775,380},{1579,106,-618,-445,1898,-665,-1544,643,-2767,-800,355,1382,-1052,1104,1734,339},{1541,68,-656,-483,1860,-703,-1582,605,-2805,-838,317,1344,-1090,1066,1696,301},{1511,38,-686,-513,1830,-733,-1612,575,-2835,-868,287,1314,-1120,1036,1666,271},{1480,7,-717,-544,1799,-764,-1643,544,-2866,-899,256,1283,-1151,1005,1635,240},{1436,-37,-761,-588,1755,-808,-1687,500,-2910,-943,212,1239,-1195,961,1591,196},{1373,-100,-824,-651,1692,-871,-1750,437,-2973,-1006,149,1176,-1258,898,1528,133},{1335,-138,-862,-689,1654,-909,-1788,399,-3011,-1044,111,1138,-1296,860,1490,95},{1287,-186,-910,-737,1606,-957,-1836,351,-3059,-1092,63,1090,-1344,812,1442,47},{1241,-232,-956,-783,1560,-1003,-1882,305,-3105,-1138,17,1044,-1390,766,1396,1}}},
{{{1356,-117,-841,-668,1675,-888,-1767,420,-2990,-1023,132,1159,-1275,881,1511,116},{1360,-113,-837,-664,1679,-884,-1763,424,-2986,-1019,136,1163,-1271,885,1515,120},{1383,-90,-814,-641,1702,-861,-1740,447,-2963,-996,159,1186,-1248,908,1538,143},{1412,-61,-785,-612,1731,-832,-1711,476,-2934,-967,188,1215,-1219,937,1567,172},{1433,-40,-764,-591,1752,-811,-1690,497,-2913,-946,209,1236,-1198,958,1588,193},{1453,-20,-744,-571,1772,-791,-1670,517,-2893,-926,229,1256,-1178,978,1608,213},{1485,12,-712,-539,1804,-759,-1638,549,-2861,-894,261,1288,-1146,1010,1640,245},{1523,50,-674,-501,1842,-721,-1600,587,-2823,-856,299,1326,-1108,1048,1678,283},{1558,85,-639,-466,1877,-686,-1565,622,-2788,-821,334,1361,-1073,1083,1713,318},{1589,116,-608,-435,1908,-655,-1534,653,-2757,-790,365,1392,-1042,1114,1744,349},{1612,139,-585,-412,1931,-632,-1511,676,-2734,-767,388,1415,-1019,1137,1767,372},{1615,142,-582,-409,1934,-629,-1508,679,-2731,-764,391,1418,-1016,1140,1770,375},{1617,144,-580,-407,1936,-627,-1506,681,-2729,-762,393,1420,-1014,1142,1772,377},{1656,183,-541,-368,1975,-588,-1467,720,-2690,-723,432,1459,-975,1181,1811,416},{1706,233,-491,-318,2025,-538,-1417,770,-2640,-673,482,1509,-925,1231,1861,466},{1720,247,-477,-304,2039,-524,-1403,784,-2626,-659,496,1523,-911,1245,1875,480},{1728,255,-469,-296,2047,-516,-1395,792,-2618,-651,504,1531,-903,1253,1883,488},{1801,328,-396,-223,2120,-443,-1322,865,-2545,-578,577,1604,-830,1326,1956,561},{1898,425,-299,-126,2217,-346,-1225,962,-2448,-481,674,1701,-733,1423,2053,658},{1955,482,-242,-69,2274,-289,-1168,1019,-2391,-424,731,1758,-676,1480,2110,715},{1886,413,-311,-138,2205,-358,-1237,950,-2460,-493,662,1689,-745,1411,2041,646},{1809,336,-388,-215,2128,-435,-1314,873,-2537,-570,585,1612,-822,1334,1964,569},{1774,301,-423,-250,2093,-470,-1349,838,-2572,-605,550,1577,-857,1299,1929,534},{1795,322,-402,-229,2114,-449,-1328,859,-2551,-584,571,1598,-836,1320,1950,555},{1803,330,-394,-221,2122,-441,-1320,867,-2543,-576,579,1606,-828,1328,1958,563},{1734,261,-463,-290,2053,-510,-1389,798,-2612,-645,510,1537,-897,1259,1889,494},{1668,195,-529,-356,1987,-576,-1455,732,-2678,-711,444,1471,-963,1193,1823,428},{1647,174,-550,-377,1966,-597,-1476,711,-2699,-732,423,1450,-984,1172,1802,407},{1685,212,-512,-339,2004,-559,-1438,749,-2661,-694,461,1488,-946,1210,1840,445},{1741,268,-456,-283,2060,-503,-1382,805,-2605,-638,517,1544,-890,1266,1896,501},{1799,326,-398,-225,2118,-445,-1324,863,-2547,-580,575,1602,-832,1324,1954,559},{1843,370,-354,-181,2162,-401,-1280,907,-2503,-536,619,1646,-788,1368,1998,603},{1856,383,-341,-168,2175,-388,-1267,920,-2490,-523,632,1659,-775,1381,2011,616},{1820,347,-377,-204,2139,-424,-1303,884,-2526,-559,596,1623,-811,1345,1975,580},{1769,296,-428,-255,2088,-475,-1354,833,-2577,-610,545,1572,-862,1294,1924,529},{1703,230,-494,-321,2022,-541,-1420,767,-2643,-676,479,1506,-928,1228,1858,463},{1659,186,-538,-365,1978,-585,-1464,723,-2687,-720,435,1462,-972,1184,1814,419},{1620,147,-577,-404,1939,-624,-1503,684,-2726,-759,396,1423,-1011,1145,1775,380},{1579,106,-618,-445,1898,-665,-1544,643,-2767,-800,355,1382,-1052,1104,1734,339},{1541,68,-656,-483,1860,-703,-1582,605,-2805,-838,317,1344,-1090,1066,1696,301},{1511,38,-686,-513,1830,-733,-1612,575,-2835,-868,287,1314,-1120,1036,1666,271},{1480,7,-717,-544,1799,-764,-1643,544,-2866,-899,256,1283,-1151,1005,1635,240},{1436,-37,-761,-588,1755,-808,-1687,500,-2910,-943,212,1239,-1195,961,1591,196},{1373,-100,-824,-651,1692,-871,-1750,437,-2973,-1006,149,1176,-1258,898,1528,133},{1335,-138,-862,-689,1654,-909,-1788,399,-3011,-1044,111,1138,-1296,860,1490,95},{1287,-186,-910,-737,1606,-957,-1836,351,-3059,-1092,63,1090,-1344,812,1442,47},{1241,-232,-956,-783,1560,-1003,-1882,305,-3105,-1138,17,1044,-1390,766,1396,1},{1181,-292,-1016,-843,1500,-1063,-1942,245,-3165,-1198,-43,984,-1450,706,1336,-59}}},
{{{1360,-113,-837,-664,1679,-884,-1763,424,-2986,-1019,136,1163,-1271,885,1515,120},{1383,-90,-814,-641,1702,-861,-1740,447,-2963,-996,159,1186,-1248,908,1538,143},{1412,-61,-785,-612,1731,-832,-1711,476,-2934,-967,188,1215,-1219,937,1567,172},{1433,-40,-764,-591,1752,-811,-1690,497,-2913,-946,209,1236,-1198,958,1588,193},{1453,-20,-744,-571,1772,-791,-1670,517,-2893,-926,229,1256,-1178,978,1608,213},{1485,12,-712,-539,1804,-759,-1638,549,-2861,-894,261,1288,-1146,1010,1640,245},{1523,50,-674,-501,1842,-721,-1600,587,-2823,-856,299,1326,-1108,1048,1678,283},{1558,85,-639,-466,1877,-686,-1565,622,-2788,-821,334,1361,-1073,1083,1713,318},{1589,116,-608,-435,1908,-655,-1534,653,-2757,-790,365,1392,-1042,1114,1744,349},{1612,139,-585,-412,1931,-632,-1511,676,-2734,-767,388,1415,-1019,1137,1767,372},{1615,142,-582,-409,1934,-629,-1508,679,-2731,-764,391,1418,-1016,1140,1770,375},{1617,144,-580,-407,1936,-627,-1506,681,-2729,-762,393,1420,-1014,1142,1772,377},{1656,183,-541,-368,1975,-588,-1467,720,-2690,-723,432,1459,-975,1181,1811,416},{1706,233,-491,-318,2025,-538,-1417,770,-2640,-673,482,1509,-925,1231,1861,466},{1720,247,-477,-304,2039,-524,-1403,784,-2626,-659,496,1523,-911,1245,1875,480},{1728,255,-469,-296,2047,-516,-1395,792,-2618,-651,504,1531,-903,1253,1883,488},{1801,328,-396,-223,2120,-443,-1322,865,-2545,-578,577,1604,-830,1326,1956,561},{1898,425,-299,-126,2217,-346,-1225,962,-2448,-481,674,1701,-733,1423,2053,658},{1955,482,-242,-69,2274,-289,-1168,1019,-2391,-424,731,1758,-676,1480,2110,715},{1886,413,-311,-138,2205,-358,-1237,950,-2460,-493,662,1689,-745,1411,2041,646},{1809,336,-388,-215,2128,-435,-1314,873,-2537,-570,585,1612,-822,1334,1964,569},{1774,301,-423,-250,2093,-470,-1349,838,-2572,-605,550,1577,-857,1299,1929,534},{1795,322,-402,-229,2114,-449,-1328,859,-2551,-584,571,1598,-836,1320,1950,555},{1803,330,-394,-221,2122,-441,-1320,867,-2543,-576,579,1606,-828,1328,1958,563},{1734,261,-463,-290,2053,-510,-1389,798,-2612,-645,510,1537,-897,1259,1889,494},{1668,195,-529,-356,1987,-576,-1455,732,-2678,-711,444,1471,-963,1193,1823,428},{1647,174,-550,-377,1966,-597,-1476,711,-2699,-732,423,1450,-984,1172,1802,407},{1685,212,-512,-339,2004,-559,-1438,749,-2661,-694,461,1488,-946,1210,1840,445},{1741,268,-456,-283,2060,-503,-1382,805,-2605,-638,517,1544,-890,1266,1896,501},{1799,326,-398,-225,2118,-445,-1324,863,-2547,-580,575,1602,-832,1324,1954,559},{1843,370,-354,-181,2162,-401,-1280,907,-2503,-536,619,1646,-788,1368,1998,603},{1856,383,-341,-168,2175,-388,-1267,920,-2490,-523,632,1659,-775,1381,2011,616},{1820,347,-377,-204,2139,-424,-1303,884,-2526,-559,596,1623,-811,1345,1975,580},{1769,296,-428,-255,2088,-475,-1354,833,-2577,-610,545,1572,-862,1294,1924,529},{1703,230,-494,-321,2022,-541,-1420,767,-2643,-676,479,1506,-928,1228,1858,463},{1659,186,-538,-365,1978,-585,-1464,723,-2687,-720,435,1462,-972,1184,1814,419},{1620,147,-577,-404,1939,-624,-1503,684,-2726,-759,396,1423,-1011,1145,1775,380},{1579,106,-618,-445,1898,-665,-1544,643,-2767,-800,355,1382,-1052,1104,1734,339},{1541,68,-656,-483,1860,-703,-1582,605,-2805,-838,317,1344,-1090,1066,1696,301},{1511,38,-686,-513,1830,-733,-1612,575,-2835,-868,287,1314,-1120,1036,1666,271},{1480,7,-717,-544,1799,-764,-1643,544,-2866,-899,256,1283,-1151,1005,1635,240},{1436,-37,-761,-588,1755,-808,-1687,500,-2910,-943,212,1239,-1195,961,1591,196},{1373,-100,-824,-651,1692,-871,-1750,437,-2973,-1006,149,1176,-1258,898,1528,133},{1335,-138,-862,-689,1654,-909,-1788,399,-3011,-1044,111,1138,-1296,860,1490,95},{1287,-186,-910,-737,1606,-957,-1836,351,-3059,-1092,63,1090,-1344,812,1442,47},{1241,-232,-956,-783,1560,-1003,-1882,305,-3105,-1138,17,1044,-1390,766,1396,1},{1181,-292,-1016,-843,1500,-1063,-1942,245,-3165,-1198,-43,984,-1450,706,1336,-59},{1135,-338,-1062,-889,1454,-1109,-1988,199,-3211,-1244,-89,938,-1496,660,1290,-105}}},
{{{1383,-90,-814,-641,1702,-861,-1740,447,-2963,-996,159,1186,-1248,908,1538,143},{1412,-61,-785,-612,1731,-832,-1711,476,-2934,-967,188,1215,-1219,937,1567,172},{1433,-40,-764,-591,1752,-811,-1690,497,-2913,-946,209,1236,-1198,958,1588,193},{1453,-20,-744,-571,1772,-791,-1670,517,-2893,-926,229,1256,-1178,978,1608,213},{1485,12,-712,-539,1804,-759,-1638,549,-2861,-894,261,1288,-1146,1010,1640,245},{1523,50,-674,-501,1842,-721,-1600,587,-2823,-856,299,1326,-1108,1048,1678,283},{1558,85,-639,-466,1877,-686,-1565,622,-2788,-821,334,1361,-1073,1083,1713,318},{1589,116,-608,-435,1908,-655,-1534,653,-2757,-790,365,1392,-1042,1114,1744,349},{1612,139,-585,-412,1931,-632,-1511,676,-2734,-767,388,1415,-1019,1137,1767,372},{1615,142,-582,-409,1934,-629,-1508,679,-2731,-764,391,1418,-1016,1140,1770,375},{1617,144,-580,-407,1936,-627,-1506,681,-2729,-762,393,1420,-1014,1142,1772,377},{1656,183,-541,-368,1975,-588,-1467,720,-2690,-723,432,1459,-975,1181,1811,416},{1706,233,-491,-318,2025,-538,-1417,770,-2640,-673,482,1509,-925,1231,1861,466},{1720,247,-477,-304,2039,-524,-1403,784,-2626,-659,496,1523,-911,1245,1875,480},{1728,255,-469,-296,2047,-516,-1395,792,-2618,-651,504,1531,-903,1253,1883,488},{1801,328,-396,-223,2120,-443,-1322,865,-2545,-578,577,1604,-830,1326,1956,561},{1898,425,-299,-126,2217,-346,-1225,962,-2448,-481,674,1701,-733,1423,2053,658},{1955,482,-242,-69,2274,-289,-1168,1019,-2391,-424,731,1758,-676,1480,2110,715},{1886,413,-311,-138,2205,-358,-1237,950,-2460,-493,662,1689,-745,1411,2041,646},{1809,336,-388,-215,2128,-435,-1314,873,-2537,-570,585,1612,-822,1334,1964,569},{1774,301,-423,-250,2093,-470,-1349,838,-2572,-605,550,1577,-857,1299,1929,534},{1795,322,-402,-229,2114,-449,-1328,859,-2551,-584,571,1598,-836,1320,1950,555},{1803,330,-394,-221,2122,-441,-1320,867,-2543,-576,579,1606,-828,1328,1958,563},{1734,261,-463,-290,2053,-510,-1389,798,-2612,-645,510,1537,-897,1259,1889,494},{1668,195,-529,-356,1987,-576,-1455,732,-2678,-711,444,1471,-963,1193,1823,428},{1647,174,-550,-377,1966,-597,-1476,711,-2699,-732,423,1450,-984,1172,1802,407},{1685,212,-512,-339,2004,-559,-1438,749,-2661,-694,461,1488,-946,1210,1840,445},{1741,268,-456,-283,2060,-503,-1382,805,-2605,-638,517,1544,-890,1266,1896,501},{1799,326,-398,-225,2118,-445,-1324,863,-2547,-580,575,1602,-832,1324,1954,559},{1843,370,-354,-181,2162,-401,-1280,907,-2503,-536,619,1646,-788,1368,1998,603},{1856,383,-341,-168,2175,-388,-1267,920,-2490,-523,632,1659,-775,1381,2011,616},{1820,347,-377,-204,2139,-424,-1303,884,-2526,-559,596,1623,-811,1345,1975,580},{1769,296,-428,-255,2088,-475,-1354,833,-2577,-610,545,1572,-862,1294,1924,529},{1703,230,-494,-321,2022,-541,-1420,767,-2643,-676,479,1506,-928,1228,1858,463},{1659,186,-538,-365,1978,-585,-1464,723,-2687,-720,435,1462,-972,1184,1814,419},{1620,147,-577,-404,1939,-624,-1503,684,-2726,-759,396,1423,-1011,1145,1775,380},{1579,106,-618,-445,1898,-665,-1544,643,-2767,-800,355,1382,-1052,1104,1734,339},{1541,68,-656,-483,1860,-703,-1582,605,-2805,-838,317,1344,-1090,1066,1696,301},{1511,38,-686,-513,1830,-733,-1612,575,-2835,-868,287,1314,-1120,1036,1666,271},{1480,7,-717,-544,1799,-764,-1643,544,-2866,-899,256,1283,-1151,1005,1635,240},{1436,-37,-761,-588,1755,-808,-1687,500,-2910,-943,212,1239,-1195,961,1591,196},{1373,-100,-824,-651,1692,-871,-1750,437,-2973,-1006,149,1176,-1258,898,1528,133},{1335,-138,-862,-689,1654,-909,-1788,399,-3011,-1044,111,1138,-1296,860,1490,95},{1287,-186,-910,-737,1606,-957,-1836,351,-3059,-1092,63,1090,-1344,812,1442,47},{1241,-232,-956,-783,1560,-1003,-1882,305,-3105,-1138,17,1044,-1390,766,1396,1},{1181,-292,-1016,-843,1500,-1063,-1942,245,-3165,-1198,-43,984,-1450,706,1336,-59},{1135,-338,-1062,-889,1454,-1109,-1988,199,-3211,-1244,-89,938,-1496,660,1290,-105},{1099,-374,-1098,-925,1418,-1145,-2024,163,-3247,-1280,-125,902,-1532,624,1254,-141}}},
{{{1412,-61,-785,-612,1731,-832,-1711,476,-2934,-967,188,1215,-1219,937,1567,172},{1433,-40,-764,-591,1752,-811,-1690,497,-2913,-946,209,1236,-1198,958,1588,193},{1453,-20,-744,-571,1772,-791,-1670,517,-2893,-926,229,1256,-1178,978,1608,213},{1485,12,-712,-539,1804,-759,-1638,549,-2861,-894,261,1288,-1146,1010,1640,245},{1523,50,-674,-501,1842,-721,-1600,587,-2823,-856,299,1326,-1108,1048,1678,283},{1558,85,-639,-466,1877,-686,-1565,622,-2788,-821,334,1361,-1073,1083,1713,318},{1589,116,-608,-435,1908,-655,-1534,653,-2757,-790,365,1392,-1042,1114,1744,349},{1612,139,-585,-412,1931,-632,-1511,676,-2734,-767,388,1415,-1019,1137,1767,372},{1615,142,-582,-409,1934,-629,-1508,679,-2731,-764,391,1418,-1016,1140,1770,375},{1617,144,-580,-407,1936,-627,-1506,681,-2729,-762,393,1420,-1014,1142,1772,377},{1656,183,-541,-368,1975,-588,-1467,720,-2690,-723,432,1459,-975,1181,1811,416},{1706,233,-491,-318,2025,-538,-1417,770,-2640,-673,482,1509,-925,1231,1861,466},{1720,247,-477,-304,2039,-524,-1403,784,-2626,-659,496,1523,-911,1245,1875,480},{1728,255,-469,-296,2047,-516,-1395,792,-2618,-651,504,1531,-903,1253,1883,488},{1801,328,-396,-223,2120,-443,-1322,865,-2545,-578,577,1604,-830,1326,1956,561},{1898,425,-299,-126,2217,-346,-1225,962,-2448,-481,674,1701,-733,1423,2053,658},{1955,482,-242,-69,2274,-289,-1168,1019,-2391,-424,731,1758,-676,1480,2110,715},{1886,413,-311,-138,2205,-358,-1237,950,-2460,-493,662,1689,-745,1411,2041,646},{1809,336,-388,-215,2128,-435,-1314,873,-2537,-570,585,1612,-822,1334,1964,569},{1774,301,-423,-250,2093,-470,-1349,838,-2572,-605,550,1577,-857,1299,1929,534},{1795,322,-402,-229,2114,-449,-1328,859,-2551,-584,571,1598,-836,1320,1950,555},{1803,330,-394,-221,2122,-441,-1320,867,-2543,-576,579,1606,-828,1328,1958,563},{1734,261,-463,-290,2053,-510,-1389,798,-2612,-645,510,1537,-897,1259,1889,494},{1668,195,-529,-356,1987,-576,-1455,732,-2678,-711,444,1471,-963,1193,1823,428},{1647,174,-550,-377,1966,-597,-1476,711,-2699,-732,423,1450,-984,1172,1802,407},{1685,212,-512,-339,2004,-559,-1438,749,-2661,-694,461,1488,-946,1210,1840,445},{1741,268,-456,-283,2060,-503,-1382,805,-2605,-638,517,1544,-890,1266,1896,501},{1799,326,-398,-225,2118,-445,-1324,863,-2547,-580,575,1602,-832,1324,1954,559},{1843,370,-354,-181,2162,-401,-1280,907,-2503,-536,619,1646,-788,1368,1998,603},{1856,383,-341,-168,2175,-388,-1267,920,-2490,-523,632,1659,-775,1381,2011,616},{1820,347,-377,-204,2139,-424,-1303,884,-2526,-559,596,1623,-811,1345,1975,580},{1769,296,-428,-255,2088,-475,-1354,833,-2577,-610,545,1572,-862,1294,1924,529},{1703,230,-494,-321,2022,-541,-1420,767,-2643,-676,479,1506,-928,1228,1858,463},{1659,186,-538,-365,1978,-585,-1464,723,-2687,-720,435,1462,-972,1184,1814,419},{1620,147,-577,-404,1939,-624,-1503,684,-2726,-759,396,1423,-1011,1145,1775,380},{1579,106,-618,-445,1898,-665,-1544,643,-2767,-800,355,1382,-1052,1104,1734,339},{1541,68,-656,-483,1860,-703,-1582,605,-2805,-838,317,1344,-1090,1066,1696,301},{1511,38,-686,-513,1830,-733,-1612,575,-2835,-868,287,1314,-1120,1036,1666,271},{1480,7,-717,-544,1799,-764,-1643,544,-2866,-899,256,1283,-1151,1005,1635,240},{1436,-37,-761,-588,1755,-808,-1687,500,-2910,-943,212,1239,-1195,961,1591,196},{1373,-100,-824,-651,1692,-871,-1750,437,-2973,-1006,149,1176,-1258,898,1528,133},{1335,-138,-862,-689,1654,-909,-1788,399,-3011,-1044,111,1138,-1296,860,1490,95},{1287,-186,-910,-737,1606,-957,-1836,351,-3059,-1092,63,1090,-1344,812,1442,47},{1241,-232,-956,-783,1560,-1003,-1882,305,-3105,-1138,17,1044,-1390,766,1396,1},{1181,-292,-1016,-843,1500,-1063,-1942,245,-3165,-1198,-43,984,-1450,706,1336,-59},{1135,-338,-1062,-889,1454,-1109,-1988,199,-3211,-1244,-89,938,-1496,660,1290,-105},{1099,-374,-1098,-925,1418,-1145,-2024,163,-3247,-1280,-125,902,-1532,624,1254,-141},{1080,-393,-1117,-944,1399,-1164,-2043,144,-3266,-1299,-144,883,-1551,605,1235,-160}}},
{{{1433,-40,-764,-591,1752,-811,-1690,497,-2913,-946,209,1236,-1198,958,1588,193},{1453,-20,-744,-571,1772,-791,-1670,517,-2893,-926,229,1256,-1178,978,1608,213},{1485,12,-712,-539,1804,-759,-1638,549,-2861,-894,261,1288,-1146,1010,1640,245},{1523,50,-674,-501,1842,-721,-1600,587,-2823,-856,299,1326,-1108,1048,1678,283},{1558,85,-639,-466,1877,-686,-1565,622,-2788,-821,334,1361,-1073,1083,1713,318},{1589,116,-608,-435,1908,-655,-1534,653,-2757,-790,365,1392,-1042,1114,1744,349},{1612,139,-585,-412,1931,-632,-1511,676,-2734,-767,388,1415,-1019,1137,1767,372},{1615,142,-582,-409,1934,-629,-1508,679,-2731,-764,391,1418,-1016,1140,1770,375},{1617,144,-580,-407,1936,-627,-1506,681,-2729,-762,393,1420,-1014,1142,1772,377},{1656,183,-541,-368,1975,-588,-1467,720,-2690,-723,432,1459,-975,1181,1811,416},{1706,233,-491,-318,2025,-538,-1417,770,-2640,-673,482,1509,-925,1231,1861,466},{1720,247,-477,-304,2039,-524,-1403,784,-2626,-659,496,1523,-911,1245,1875,480},{1728,255,-469,-296,2047,-516,-1395,792,-2618,-651,504,1531,-903,1253,1883,488},{1801,328,-396,-223,2120,-443,-1322,865,-2545,-578,577,1604,-830,1326,1956,561},{1898,425,-299,-126,2217,-346,-1225,962,-2448,-481,674,1701,-733,1423,2053,658},{1955,482,-242,-69,2274,-289,-1168,1019,-2391,-424,731,1758,-676,1480,2110,715},{1886,413,-311,-138,2205,-358,-1237,950,-2460,-493,662,1689,-745,1411,2041,646},{1809,336,-388,-215,2128,-435,-1314,873,-2537,-570,585,1612,-822,1334,1964,569},{1774,301,-423,-250,2093,-470,-1349,838,-2572,-605,550,1577,-857,1299,1929,534},{1795,322,-402,-229,2114,-449,-1328,859,-2551,-584,571,1598,-836,1320,1950,555},{1803,330,-394,-221,2122,-441,-1320,867,-2543,-576,579,1606,-828,1328,1958,563},{1734,261,-463,-290,2053,-510,-1389,798,-2612,-645,510,1537,-897,1259,1889,494},{1668,195,-529,-356,1987,-576,-1455,732,-2678,-711,444,1471,-963,1193,1823,428},{1647,174,-550,-377,1966,-597,-1476,711,-2699,-732,423,1450,-984,1172,1802,407},{1685,212,-512,-339,2004,-559,-1438,749,-2661,-694,461,1488,-946,1210,1840,445},{1741,268,-456,-283,2060,-503,-1382,805,-2605,-638,517,1544,-890,1266,1896,501},{1799,326,-398,-225,2118,-445,-1324,863,-2547,-580,575,1602,-832,1324,1954,559},{1843,370,-354,-181,2162,-401,-1280,907,-2503,-536,619,1646,-788,1368,1998,603},{1856,383,-341,-168,2175,-388,-1267,920,-2490,-523,632,1659,-775,1381,2011,616},{1820,347,-377,-204,2139,-424,-1303,884,-2526,-559,596,1623,-811,1345,1975,580},{1769,296,-428,-255,2088,-475,-1354,833,-2577,-610,545,1572,-862,1294,1924,529},{1703,230,-494,-321,2022,-541,-1420,767,-2643,-676,479,1506,-928,1228,1858,463},{1659,186,-538,-365,1978,-585,-1464,723,-2687,-720,435,1462,-972,1184,1814,419},{1620,147,-577,-404,1939,-624,-1503,684,-2726,-759,396,1423,-1011,1145,1775,380},{1579,106,-618,-445,1898,-665,-1544,643,-2767,-800,355,1382,-1052,1104,1734,339},{1541,68,-656,-483,1860,-703,-1582,605,-2805,-838,317,1344,-1090,1066,1696,301},{1511,38,-686,-513,1830,-733,-1612,575,-2835,-868,287,1314,-1120,1036,1666,271},{1480,7,-717,-544,1799,-764,-1643,544,-2866,-899,256,1283,-1151,1005,1635,240},{1436,-37,-761,-588,1755,-808,-1687,500,-2910,-943,212,1239,-1195,961,1591,196},{1373,-100,-824,-651,1692,-871,-1750,437,-2973,-1006,149,1176,-1258,898,1528,133},{1335,-138,-862,-689,1654,-909,-1788,399,-3011,-1044,111,1138,-1296,860,1490,95},{1287,-186,-910,-737,1606,-957,-1836,351,-3059,-1092,63,1090,-1344,812,1442,47},{1241,-232,-956,-783,1560,-1003,-1882,305,-3105,-1138,17,1044,-1390,766,1396,1},{1181,-292,-1016,-843,1500,-1063,-1942,245,-3165,-1198,-43,984,-1450,706,1336,-59},{1135,-338,-1062,-889,1454,-1109,-1988,199,-3211,-1244,-89,938,-1496,660,1290,-105},{1099,-374,-1098,-925,1418,-1145,-2024,163,-3247,-1280,-125,902,-1532,624,1254,-141},{1080,-393,-1117,-944,1399,-1164,-2043,144,-3266,-1299,-144,883,-1551,605,1235,-160},{1081,-392,-1116,-943,1400,-1163,-2042,145,-3265,-1298,-143,884,-1550,606,1236,-159}}},
{{{1453,-20,-744,-571,1772,-791,-1670,517,-2893,-926,229,1256,-1178,978,1608,213},{1485,12,-712,-539,1804,-759,-1638,549,-2861,-894,261,1288,-1146,1010,1640,245},{1523,50,-674,-501,1842,-721,-1600,587,-2823,-856,299,1326,-1108,1048,1678,283},{1558,85,-639,-466,1877,-686,-1565,622,-2788,-821,334,1361,-1073,1083,1713,318},{1589,116,-608,-435,1908,-655,-1534,653,-2757,-790,365,1392,-1042,1114,1744,349},{1612,139,-585,-412,1931,-632,-1511,676,-2734,-767,388,1415,-1019,1137,1767,372},{1615,142,-582,-409,1934,-629,-1508,679,-2731,-764,391,1418,-1016,1140,1770,375},{1617,144,-580,-407,1936,-627,-1506,681,-2729,-762,393,1420,-1014,1142,1772,377},{1656,183,-541,-368,1975,-588,-1467,720,-2690,-723,432,1459,-975,1181,1811,416},{1706,233,-491,-318,2025,-538,-1417,770,-2640,-673,482,1509,-925,1231,1861,466},{1720,247,-477,-304,2039,-524,-1403,784,-2626,-659,496,1523,-911,1245,1875,480},{1728,255,-469,-296,2047,-516,-1395,792,-2618,-651,504,1531,-903,1253,1883,488},{1801,328,-396,-223,2120,-443,-1322,865,-2545,-578,577,1604,-830,1326,1956,561},{1898,425,-299,-126,2217,-346,-1225,962,-2448,-481,674,1701,-733,1423,2053,658},{1955,482,-242,-69,2274,-289,-1168,1019,-2391,-424,731,1758,-676,1480,2110,715},{1886,413,-311,-138,2205,-358,-1237,950,-2460,-493,662,1689,-745,1411,2041,646},{1809,336,-388,-215,2128,-435,-1314,873,-2537,-570,585,1612,-822,1334,1964,569},{1774,301,-423,-250,2093,-470,-1349,838,-2572,-605,550,1577,-857,1299,1929,534},{1795,322,-402,-229,2114,-449,-1328,859,-2551,-584,571,1598,-836,1320,1950,555},{1803,330,-394,-221,2122,-441,-1320,867,-2543,-576,579,1606,-828,1328,1958,563},{1734,261,-463,-290,2053,-510,-1389,798,-2612,-645,510,1537,-897,1259,1889,494},{1668,195,-529,-356,1987,-576,-1455,732,-2678,-711,444,1471,-963,1193,1823,428},{1647,174,-550,-377,1966,-597,-1476,711,-2699,-732,423,1450,-984,1172,1802,407},{1685,212,-512,-339,2004,-559,-1438,749,-2661,-694,461,1488,-946,1210,1840,445},{1741,268,-456,-283,2060,-503,-1382,805,-2605,-638,517,1544,-890,1266,1896,501},{1799,326,-398,-225,2118,-445,-1324,863,-2547,-580,575,1602,-832,1324,1954,559},{1843,370,-354,-181,2162,-401,-1280,907,-2503,-536,619,1646,-788,1368,1998,603},{1856,383,-341,-168,2175,-388,-1267,920,-2490,-523,632,1659,-775,1381,2011,616},{1820,347,-377,-204,2139,-424,-1303,884,-2526,-559,596,1623,-811,1345,1975,580},{1769,296,-428,-255,2088,-475,-1354,833,-2577,-610,545,1572,-862,1294,1924,529},{1703,230,-494,-321,2022,-541,-1420,767,-2643,-676,479,1506,-928,1228,1858,463},{1659,186,-538,-365,1978,-585,-1464,723,-2687,-720,435,1462,-972,1184,1814,419},{1620,147,-577,-404,1939,-624,-1503,684,-2726,-759,396,1423,-1011,1145,1775,380},{1579,106,-618,-445,1898,-665,-1544,643,-2767,-800,355,1382,-1052,1104,1734,339},{1541,68,-656,-483,1860,-703,-1582,605,-2805,-838,317,1344,-1090,1066,1696,301},{1511,38,-686,-513,1830,-733,-1612,575,-2835,-868,287,1314,-1120,1036,1666,271},{1480,7,-717,-544,1799,-764,-1643,544,-2866,-899,256,1283,-1151,1005,1635,240},{1436,-37,-761,-588,1755,-808,-1687,500,-2910,-943,212,1239,-1195,961,1591,196},{1373,-100,-824,-651,1692,-871,-1750,437,-2973,-1006,149,1176,-1258,898,1528,133},{1335,-138,-862,-689,1654,-909,-1788,399,-3011,-1044,111,1138,-1296,860,1490,95},{1287,-186,-910,-737,1606,-957,-1836,351,-3059,-1092,63,1090,-1344,812,1442,47},{1241,-232,-956,-783,1560,-1003,-1882,305,-3105,-1138,17,1044,-1390,766,1396,1},{1181,-292,-1016,-843,1500,-1063,-1942,245,-3165,-1198,-43,984,-1450,706,1336,-59},{1135,-338,-1062,-889,1454,-1109,-1988,199,-3211,-1244,-89,938,-1496,660,1290,-105},{1099,-374,-1098,-925,1418,-1145,-2024,163,-3247,-1280,-125,902,-1532,624,1254,-141},{1080,-393,-1117,-944,1399,-1164,-2043,144,-3266,-1299,-144,883,-1551,605,1235,-160},{1081,-392,-1116,-943,1400,-1163,-2042,145,-3265,-1298,-143,884,-1550,606,1236,-159},{1085,-388,-1112,-939,1404,-1159,-2038,149,-3261,-1294,-139,888,-1546,610,1240,-155}}},
{{{1485,12,-712,-539,1804,-759,-1638,549,-2861,-894,261,1288,-1146,1010,1640,245},{1523,50,-674,-501,1842,-721,-1600,587,-2823,-856,299,1326,-1108,1048,1678,283},{1558,85,-639,-466,1877,-686,-1565,622,-2788,-821,334,1361,-1073,1083,1713,318},{1589,116,-608,-435,1908,-655,-1534,653,-2757,-790,365,1392,-1042,1114,1744,349},{1612,139,-585,-412,1931,-632,-1511,676,-2734,-767,388,1415,-1019,1137,1767,372},{1615,142,-582,-409,1934,-629,-1508,679,-2731,-764,391,1418,-1016,1140,1770,375},{1617,144,-580,-407,1936,-627,-1506,681,-2729,-762,393,1420,-1014,1142,1772,377},{1656,183,-541,-368,1975,-588,-1467,720,-2690,-723,432,1459,-975,1181,1811,416},{1706,233,-491,-318,2025,-538,-1417,770,-2640,-673,482,1509,-925,1231,1861,466},{1720,247,-477,-304,2039,-524,-1403,784,-2626,-659,496,1523,-911,1245,1875,480},{1728,255,-469,-296,2047,-516,-1395,792,-2618,-651,504,1531,-903,1253,1883,488},{1801,328,-396,-223,2120,-443,-1322,865,-2545,-578,577,1604,-830,1326,1956,561},{1898,425,-299,-126,2217,-346,-1225,962,-2448,-481,674,1701,-733,1423,2053,658},{1955,482,-242,-69,2274,-289,-1168,1019,-2391,-424,731,1758,-676,1480,2110,715},{1886,413,-311,-138,2205,-358,-1237,950,-2460,-493,662,1689,-745,1411,2041,646},{1809,336,-388,-215,2128,-435,-1314,873,-2537,-570,585,1612,-822,1334,1964,569},{1774,301,-423,-250,2093,-470,-1349,838,-2572,-605,550,1577,-857,1299,1929,534},{1795,322,-402,-229,2114,-449,-1328,859,-2551,-584,571,1598,-836,1320,1950,555},{1803,330,-394,-221,2122,-441,-1320,867,-2543,-576,579,1606,-828,1328,1958,563},{1734,261,-463,-290,2053,-510,-1389,798,-2612,-645,510,1537,-897,1259,1889,494},{1668,195,-529,-356,1987,-576,-1455,732,-2678,-711,444,1471,-963,1193,1823,428},{1647,174,-550,-377,1966,-597,-1476,711,-2699,-732,423,1450,-984,1172,1802,407},{1685,212,-512,-339,2004,-559,-1438,749,-2661,-694,461,1488,-946,1210,1840,445},{1741,268,-456,-283,2060,-503,-1382,805,-2605,-638,517,1544,-890,1266,1896,501},{1799,326,-398,-225,2118,-445,-1324,863,-2547,-580,575,1602,-832,1324,1954,559},{1843,370,-354,-181,2162,-401,-1280,907,-2503,-536,619,1646,-788,1368,1998,603},{1856,383,-341,-168,2175,-388,-1267,920,-2490,-523,632,1659,-775,1381,2011,616},{1820,347,-377,-204,2139,-424,-1303,884,-2526,-559,596,1623,-811,1345,1975,580},{1769,296,-428,-255,2088,-475,-1354,833,-2577,-610,545,1572,-862,1294,1924,529},{1703,230,-494,-321,2022,-541,-1420,767,-2643,-676,479,1506,-928,1228,1858,463},{1659,186,-538,-365,1978,-585,-1464,723,-2687,-720,435,1462,-972,1184,1814,419},{1620,147,-577,-404,1939,-624,-1503,684,-2726,-759,396,1423,-1011,1145,1775,380},{1579,106,-618,-445,1898,-665,-1544,643,-2767,-800,355,1382,-1052,1104,1734,339},{1541,68,-656,-483,1860,-703,-1582,605,-2805,-838,317,1344,-1090,1066,1696,301},{1511,38,-686,-513,1830,-733,-1612,575,-2835,-868,287,1314,-1120,1036,1666,271},{1480,7,-717,-544,1799,-764,-1643,544,-2866,-899,256,1283,-1151,1005,1635,240},{1436,-37,-761,-588,1755,-808,-1687,500,-2910,-943,212,1239,-1195,961,1591,196},{1373,-100,-824,-651,1692,-871,-1750,437,-2973,-1006,149,1176,-1258,898,1528,133},{1335,-138,-862,-689,1654,-909,-1788,399,-3011,-1044,111,1138,-1296,860,1490,95},{1287,-186,-910,-737,1606,-957,-1836,351,-3059,-1092,63,1090,-1344,812,1442,47},{1241,-232,-956,-783,1560,-1003,-1882,305,-3105,-1138,17,1044,-1390,766,1396,1},{1181,-292,-1016,-843,1500,-1063,-1942,245,-3165,-1198,-43,984,-1450,706,1336,-59},{1135,-338,-1062,-889,1454,-1109,-1988,199,-3211,-1244,-89,938,-1496,660,1290,-105},{1099,-374,-1098,-925,1418,-1145,-2024,163,-3247,-1280,-125,902,-1532,624,1254,-141},{1080,-393,-1117,-944,1399,-1164,-2043,144,-3266,-1299,-144,883,-1551,605,1235,-160},{1081,-392,-1116,-943,1400,-1163,-2042,145,-3265,-1298,-143,884,-1550,606,1236,-159},{1085,-388,-1112,-939,1404,-1159,-2038,149,-3261,-1294,-139,888,-1546,610,1240,-155},{1068,-405,-1129,-956,1387,-1176,-2055,132,-3278,-1311,-156,871,-1563,593,1223,-172}}},
{{{1523,50,-674,-501,1842,-721,-1600,587,-2823,-856,299,1326,-1108,1048,1678,283},{1558,85,-639,-466,1877,-686,-1565,622,-2788,-821,334,1361,-1073,1083,1713,318},{1589,116,-608,-435,1908,-655,-1534,653,-2757,-790,365,1392,-1042,1114,1744,349},{1612,139,-585,-412,1931,-632,-1511,676,-2734,-767,388,1415,-1019,1137,1767,372},{1615,142,-582,-409,1934,-629,-1508,679,-2731,-764,391,1418,-1016,1140,1770,375},{1617,144,-580,-407,1936,-627,-1506,681,-2729,-762,393,1420,-1014,1142,1772,377},{1656,183,-541,-368,1975,-588,-1467,720,-2690,-723,432,1459,-975,1181,1811,416},{1706,233,-491,-318,2025,-538,-1417,770,-2640,-673,482,1509,-925,1231,1861,466},{1720,247,-477,-304,2039,-524,-1403,784,-2626,-659,496,1523,-911,1245,1875,480},{1728,255,-469,-296,2047,-516,-1395,792,-2618,-651,504,1531,-903,1253,1883,488},{1801,328,-396,-223,2120,-443,-1322,865,-2545,-578,577,1604,-830,1326,1956,561},{1898,425,-299,-126,2217,-346,-1225,962,-2448,-481,674,1701,-733,1423,2053,658},{1955,482,-242,-69,2274,-289,-1168,1019,-2391,-424,731,1758,-676,1480,2110,715},{1886,413,-311,-138,2205,-358,-1237,950,-2460,-493,662,1689,-745,1411,2041,646},{1809,336,-388,-215,2128,-435,-1314,873,-2537,-570,585,1612,-822,1334,1964,569},{1774,301,-423,-250,2093,-470,-1349,838,-2572,-605,550,1577,-857,1299,1929,534},{1795,322,-402,-229,2114,-449,-1328,859,-2551,-584,571,1598,-836,1320,1950,555},{1803,330,-394,-221,2122,-441,-1320,867,-2543,-576,579,1606,-828,1328,1958,563},{1734,261,-463,-290,2053,-510,-1389,798,-2612,-645,510,1537,-897,1259,1889,494},{1668,195,-529,-356,1987,-576,-1455,732,-2678,-711,444,1471,-963,1193,1823,428},{1647,174,-550,-377,1966,-597,-1476,711,-2699,-732,423,1450,-984,1172,1802,407},{1685,212,-512,-339,2004,-559,-1438,749,-2661,-694,461,1488,-946,1210,1840,445},{1741,268,-456,-283,2060,-503,-1382,805,-2605,-638,517,1544,-890,1266,1896,501},{1799,326,-398,-225,2118,-445,-1324,863,-2547,-580,575,1602,-832,1324,1954,559},{1843,370,-354,-181,2162,-401,-1280,907,-2503,-536,619,1646,-788,1368,1998,603},{1856,383,-341,-168,2175,-388,-1267,920,-2490,-523,632,1659,-775,1381,2011,616},{1820,347,-377,-204,2139,-424,-1303,884,-2526,-559,596,1623,-811,1345,1975,580},{1769,296,-428,-255,2088,-475,-1354,833,-2577,-610,545,1572,-862,1294,1924,529},{1703,230,-494,-321,2022,-541,-1420,767,-2643,-676,479,1506,-928,1228,1858,463},{1659,186,-538,-365,1978,-585,-1464,723,-2687,-720,435,1462,-972,1184,1814,419},{1620,147,-577,-404,1939,-624,-1503,684,-2726,-759,396,1423,-1011,1145,1775,380},{1579,106,-618,-445,1898,-665,-1544,643,-2767,-800,355,1382,-1052,1104,1734,339},{1541,68,-656,-483,1860,-703,-1582,605,-2805,-838,317,1344,-1090,1066,1696,301},{1511,38,-686,-513,1830,-733,-1612,575,-2835,-868,287,1314,-1120,1036,1666,271},{1480,7,-717,-544,1799,-764,-1643,544,-2866,-899,256,1283,-1151,1005,1635,240},{1436,-37,-761,-588,1755,-808,-1687,500,-2910,-943,212,1239,-1195,961,1591,196},{1373,-100,-824,-651,1692,-871,-1750,437,-2973,-1006,149,1176,-1258,898,1528,133},{1335,-138,-862,-689,1654,-909,-1788,399,-3011,-1044,111,1138,-1296,860,1490,95},{1287,-186,-910,-737,1606,-957,-1836,351,-3059,-1092,63,1090,-1344,812,1442,47},{1241,-232,-956,-783,1560,-1003,-1882,305,-3105,-1138,17,1044,-1390,766,1396,1},{1181,-292,-1016,-843,1500,-1063,-1942,245,-3165,-1198,-43,984,-1450,706,1336,-59},{1135,-338,-1062,-889,1454,-1109,-1988,199,-3211,-1244,-89,938,-1496,660,1290,-105},{1099,-374,-1098,-925,1418,-1145,-2024,163,-3247,-1280,-125,902,-1532,624,1254,-141},{1080,-393,-1117,-944,1399,-1164,-2043,144,-3266,-1299,-144,883,-1551,605,1235,-160},{1081,-392,-1116,-943,1400,-1163,-2042,145,-3265,-1298,-143,884,-1550,606,1236,-159},{1085,-388,-1112,-939,1404,-1159,-2038,149,-3261,-1294,-139,888,-1546,610,1240,-155},{1068,-405,-1129,-956,1387,-1176,-2055,132,-3278,-1311,-156,871,-1563,593,1223,-172},{1023,-450,-1174,-1001,1342,-1221,-2100,87,-3323,-1356,-201,826,-1608,548,1178,-217}}},
{{{1558,85,-639,-466,1877,-686,-1565,622,-2788,-821,334,1361,-1073,1083,1713,318},{1589,116,-608,-435,1908,-655,-1534,653,-2757,-790,365,1392,-1042,1114,1744,349},{1612,139,-585,-412,1931,-632,-1511,676,-2734,-767,388,1415,-1019,1137,1767,372},{1615,142,-582,-409,1934,-629,-1508,679,-2731,-764,391,1418,-1016,1140,1770,375},{1617,144,-580,-407,1936,-627,-1506,681,-2729,-762,393,1420,-1014,1142,1772,377},{1656,183,-541,-368,1975,-588,-1467,720,-2690,-723,432,1459,-975,1181,1811,416},{1706,233,-491,-318,2025,-538,-1417,770,-2640,-673,482,1509,-925,1231,1861,466},{1720,247,-477,-304,2039,-524,-1403,784,-2626,-659,496,1523,-911,1245,1875,480},{1728,255,-469,-296,2047,-516,-1395,792,-2618,-651,504,1531,-903,1253,1883,488},{1801,328,-396,-223,2120,-443,-1322,865,-2545,-578,577,1604,-830,1326,1956,561},{1898,425,-299,-126,2217,-346,-1225,962,-2448,-481,674,1701,-733,1423,2053,658},{1955,482,-242,-69,2274,-289,-1168,1019,-2391,-424,731,1758,-676,1480,2110,715},{1886,413,-311,-138,2205,-358,-1237,950,-2460,-493,662,1689,-745,1411,2041,646},{1809,336,-388,-215,2128,-435,-1314,873,-2537,-570,585,1612,-822,1334,1964,569},{1774,301,-423,-250,2093,-470,-1349,838,-2572,-605,550,1577,-857,1299,1929,534},{1795,322,-402,-229,2114,-449,-1328,859,-2551,-584,571,1598,-836,1320,1950,555},{1803,330,-394,-221,2122,-441,-1320,867,-2543,-576,579,1606,-828,1328,1958,563},{1734,261,-463,-290,2053,-510,-1389,798,-2612,-645,510,1537,-897,1259,1889,494},{1668,195,-529,-356,1987,-576,-1455,732,-2678,-711,444,1471,-963,1193,1823,428},{1647,174,-550,-377,1966,-597,-1476,711,-2699,-732,423,1450,-984,1172,1802,407},{1685,212,-512,-339,2004,-559,-1438,749,-2661,-694,461,1488,-946,1210,1840,445},{1741,268,-456,-283,2060,-503,-1382,805,-2605,-638,517,1544,-890,1266,1896,501},{1799,326,-398,-225,2118,-445,-1324,863,-2547,-580,575,1602,-832,1324,1954,559},{1843,370,-354,-181,2162,-401,-1280,907,-2503,-536,619,1646,-788,1368,1998,603},{1856,383,-341,-168,2175,-388,-1267,920,-2490,-523,632,1659,-775,1381,2011,616},{1820,347,-377,-204,2139,-424,-1303,884,-2526,-559,596,1623,-811,1345,1975,580},{1769,296,-428,-255,2088,-475,-1354,833,-2577,-610,545,1572,-862,1294,1924,529},{1703,230,-494,-321,2022,-541,-1420,767,-2643,-676,479,1506,-928,1228,1858,463},{1659,186,-538,-365,1978,-585,-1464,723,-2687,-720,435,1462,-972,1184,1814,419},{1620,147,-577,-404,1939,-624,-1503,684,-2726,-759,396,1423,-1011,1145,1775,380},{1579,106,-618,-445,1898,-665,-1544,643,-2767,-800,355,1382,-1052,1104,1734,339},{1541,68,-656,-483,1860,-703,-1582,605,-2805,-838,317,1344,-1090,1066,1696,301},{1511,38,-686,-513,1830,-733,-1612,575,-2835,-868,287,1314,-1120,1036,1666,271},{1480,7,-717,-544,1799,-764,-1643,544,-2866,-899,256,1283,-1151,1005,1635,240},{1436,-37,-761,-588,1755,-808,-1687,500,-2910,-943,212,1239,-1195,961,1591,196},{1373,-100,-824,-651,1692,-871,-1750,437,-2973,-1006,149,1176,-1258,898,1528,133},{1335,-138,-862,-689,1654,-909,-1788,399,-3011,-1044,111,1138,-1296,860,1490,95},{1287,-186,-910,-737,1606,-957,-1836,351,-3059,-1092,63,1090,-1344,812,1442,47},{1241,-232,-956,-783,1560,-1003,-1882,305,-3105,-1138,17,1044,-1390,766,1396,1},{1181,-292,-1016,-843,1500,-1063,-1942,245,-3165,-1198,-43,984,-1450,706,1336,-59},{1135,-338,-1062,-889,1454,-1109,-1988,199,-3211,-1244,-89,938,-1496,660,1290,-105},{1099,-374,-1098,-925,1418,-1145,-2024,163,-3247,-1280,-125,902,-1532,624,1254,-141},{1080,-393,-1117,-944,1399,-1164,-2043,144,-3266,-1299,-144,883,-1551,605,1235,-160},{1081,-392,-1116,-943,1400,-1163,-2042,145,-3265,-1298,-143,884,-1550,606,1236,-159},{1085,-388,-1112,-939,1404,-1159,-2038,149,-3261,-1294,-139,888,-1546,610,1240,-155},{1068,-405,-1129,-956,1387,-1176,-2055,132,-3278,-1311,-156,871,-1563,593,1223,-172},{1023,-450,-1174,-1001,1342,-1221,-2100,87,-3323,-1356,-201,826,-1608,548,1178,-217},{969,-504,-1228,-1055,1288,-1275,-2154,33,-3377,-1410,-255,772,-1662,494,1124,-271}}},
{{{1589,116,-608,-435,1908,-655,-1534,653,-2757,-790,365,1392,-1042,1114,1744,349},{1612,139,-585,-412,1931,-632,-1511,676,-2734,-767,388,1415,-1019,1137,1767,372},{1615,142,-582,-409,1934,-629,-1508,679,-2731,-764,391,1418,-1016,1140,1770,375},{1617,144,-580,-407,1936,-627,-1506,681,-2729,-762,393,1420,-1014,1142,1772,377},{1656,183,-541,-368,1975,-588,-1467,720,-2690,-723,432,1459,-975,1181,1811,416},{1706,233,-491,-318,2025,-538,-1417,770,-2640,-673,482,1509,-925,1231,1861,466},{1720,247,-477,-304,2039,-524,-1403,784,-2626,-659,496,1523,-911,1245,1875,480},{1728,255,-469,-296,2047,-516,-1395,792,-2618,-651,504,1531,-903,1253,1883,488},{1801,328,-396,-223,2120,-443,-1322,865,-2545,-578,577,1604,-830,1326,1956,561},{1898,425,-299,-126,2217,-346,-1225,962,-2448,-481,674,1701,-733,1423,2053,658},{1955,482,-242,-69,2274,-289,-1168,1019,-2391,-424,731,1758,-676,1480,2110,715},{1886,413,-311,-138,2205,-358,-1237,950,-2460,-493,662,1689,-745,1411,2041,646},{1809,336,-388,-215,2128,-435,-1314,873,-2537,-570,585,1612,-822,1334,1964,569},{1774,301,-423,-250,2093,-470,-1349,838,-2572,-605,550,1577,-857,1299,1929,534},{1795,322,-402,-229,2114,-449,-1328,859,-2551,-584,571,1598,-836,1320,1950,555},{1803,330,-394,-221,2122,-441,-1320,867,-2543,-576,579,1606,-828,1328,1958,563},{1734,261,-463,-290,2053,-510,-1389,798,-2612,-645,510,1537,-897,1259,1889,494},{1668,195,-529,-356,1987,-576,-1455,732,-2678,-711,444,1471,-963,1193,1823,428},{1647,174,-550,-377,1966,-597,-1476,711,-2699,-732,423,1450,-984,1172,1802,407},{1685,212,-512,-339,2004,-559,-1438,749,-2661,-694,461,1488,-946,1210,1840,445},{1741,268,-456,-283,2060,-503,-1382,805,-2605,-638,517,1544,-890,1266,1896,501},{1799,326,-398,-225,2118,-445,-1324,863,-2547,-580,575,1602,-832,1324,1954,559},{1843,370,-354,-181,2162,-401,-1280,907,-2503,-536,619,1646,-788,1368,1998,603},{1856,383,-341,-168,2175,-388,-1267,920,-2490,-523,632,1659,-775,1381,2011,616},{1820,347,-377,-204,2139,-424,-1303,884,-2526,-559,596,1623,-811,1345,1975,580},{1769,296,-428,-255,2088,-475,-1354,833,-2577,-610,545,1572,-862,1294,1924,529},{1703,230,-494,-321,2022,-541,-1420,767,-2643,-676,479,1506,-928,1228,1858,463},{1659,186,-538,-365,1978,-585,-1464,723,-2687,-720,435,1462,-972,1184,1814,419},{1620,147,-577,-404,1939,-624,-1503,684,-2726,-759,396,1423,-1011,1145,1775,380},{1579,106,-618,-445,1898,-665,-1544,643,-2767,-800,355,1382,-1052,1104,1734,339},{1541,68,-656,-483,1860,-703,-1582,605,-2805,-838,317,1344,-1090,1066,1696,301},{1511,38,-686,-513,1830,-733,-1612,575,-2835,-868,287,1314,-1120,1036,1666,271},{1480,7,-717,-544,1799,-764,-1643,544,-2866,-899,256,1283,-1151,1005,1635,240},{1436,-37,-761,-588,1755,-808,-1687,500,-2910,-943,212,1239,-1195,961,1591,196},{1373,-100,-824,-651,1692,-871,-1750,437,-2973,-1006,149,1176,-1258,898,1528,133},{1335,-138,-862,-689,1654,-909,-1788,399,-3011,-1044,111,1138,-1296,860,1490,95},{1287,-186,-910,-737,1606,-957,-1836,351,-3059,-1092,63,1090,-1344,812,1442,47},{1241,-232,-956,-783,1560,-1003,-1882,305,-3105,-1138,17,1044,-1390,766,1396,1},{1181,-292,-1016,-843,1500,-1063,-1942,245,-3165,-1198,-43,984,-1450,706,1336,-59},{1135,-338,-1062,-889,1454,-1109,-1988,199,-3211,-1244,-89,938,-1496,660,1290,-105},{1099,-374,-1098,-925,1418,-1145,-2024,163,-3247,-1280,-125,902,-1532,624,1254,-141},{1080,-393,-1117,-944,1399,-1164,-2043,144,-3266,-1299,-144,883,-1551,605,1235,-160},{1081,-392,-1116,-943,1400,-1163,-2042,145,-3265,-1298,-143,884,-1550,606,1236,-159},{1085,-388,-1112,-939,1404,-1159,-2038,149,-3261,-1294,-139,888,-1546,610,1240,-155},{1068,-405,-1129,-956,1387,-1176,-2055,132,-3278,-1311,-156,871,-1563,593,1223,-172},{1023,-450,-1174,-1001,1342,-1221,-2100,87,-3323,-1356,-201,826,-1608,548,1178,-217},{969,-504,-1228,-1055,1288,-1275,-2154,33,-3377,-1410,-255,772,-1662,494,1124,-271},{925,-548,-1272,-1099,1244,-1319,-2198,-11,-3421,-1454,-299,728,-1706,450,1080,-315}}},
{{{1612,139,-585,-412,1931,-632,-1511,676,-2734,-767,388,1415,-1019,1137,1767,372},{1615,142,-582,-409,1934,-629,-1508,679,-2731,-764,391,1418,-1016,1140,1770,375},{1617,144,-580,-407,1936,-627,-1506,681,-2729,-762,393,1420,-1014,1142,1772,377},{1656,183,-541,-368,1975,-588,-1467,720,-2690,-723,432,1459,-975,1181,1811,416},{1706,233,-491,-318,2025,-538,-1417,770,-2640,-673,482,1509,-925,1231,1861,466},{1720,247,-477,-304,2039,-524,-1403,784,-2626,-659,496,1523,-911,1245,1875,480},{1728,255,-469,-296,2047,-516,-1395,792,-2618,-651,504,1531,-903,1253,1883,488},{1801,328,-396,-223,2120,-443,-1322,865,-2545,-578,577,1604,-830,1326,1956,561},{1898,425,-299,-126,2217,-346,-1225,962,-2448,-481,674,1701,-733,1423,2053,658},{1955,482,-242,-69,2274,-289,-1168,1019,-2391,-424,731,1758,-676,1480,2110,715},{1886,413,-311,-138,2205,-358,-1237,950,-2460,-493,662,1689,-745,1411,2041,646},{1809,336,-388,-215,2128,-435,-1314,873,-2537,-570,585,1612,-822,1334,1964,569},{1774,301,-423,-250,2093,-470,-1349,838,-2572,-605,550,1577,-857,1299,1929,534},{1795,322,-402,-229,2114,-449,-1328,859,-2551,-584,571,1598,-836,1320,1950,555},{1803,330,-394,-221,2122,-441,-1320,867,-2543,-576,579,1606,-828,1328,1958,563},{1734,261,-463,-290,2053,-510,-1389,798,-2612,-645,510,1537,-897,1259,1889,494},{1668,195,-529,-356,1987,-576,-1455,732,-2678,-711,444,1471,-963,1193,1823,428},{1647,174,-550,-377,1966,-597,-1476,711,-2699,-732,423,1450,-984,1172,1802,407},{1685,212,-512,-339,2004,-559,-1438,749,-2661,-694,461,1488,-946,1210,1840,445},{1741,268,-456,-283,2060,-503,-1382,805,-2605,-638,517,1544,-890,1266,1896,501},{1799,326,-398,-225,2118,-445,-1324,863,-2547,-580,575,1602,-832,1324,1954,559},{1843,370,-354,-181,2162,-401,-1280,907,-2503,-536,619,1646,-788,1368,1998,603},{1856,383,-341,-168,2175,-388,-1267,920,-2490,-523,632,1659,-775,1381,2011,616},{1820,347,-377,-204,2139,-424,-1303,884,-2526,-559,596,1623,-811,1345,1975,580},{1769,296,-428,-255,2088,-475,-1354,833,-2577,-610,545,1572,-862,1294,1924,529},{1703,230,-494,-321,2022,-541,-1420,767,-2643,-676,479,1506,-928,1228,1858,463},{1659,186,-538,-365,1978,-585,-1464,723,-2687,-720,435,1462,-972,1184,1814,419},{1620,147,-577,-404,1939,-624,-1503,684,-2726,-759,396,1423,-1011,1145,1775,380},{1579,106,-618,-445,1898,-665,-1544,643,-2767,-800,355,1382,-1052,1104,1734,339},{1541,68,-656,-483,1860,-703,-1582,605,-2805,-838,317,1344,-1090,1066,1696,301},{1511,38,-686,-513,1830,-733,-1612,575,-2835,-868,287,1314,-1120,1036,1666,271},{1480,7,-717,-544,1799,-764,-1643,544,-2866,-899,256,1283,-1151,1005,1635,240},{1436,-37,-761,-588,1755,-808,-1687,500,-2910,-943,212,1239,-1195,961,1591,196},{1373,-100,-824,-651,1692,-871,-1750,437,-2973,-1006,149,1176,-1258,898,1528,133},{1335,-138,-862,-689,1654,-909,-1788,399,-3011,-1044,111,1138,-1296,860,1490,95},{1287,-186,-910,-737,1606,-957,-1836,351,-3059,-1092,63,1090,-1344,812,1442,47},{1241,-232,-956,-783,1560,-1003,-1882,305,-3105,-1138,17,1044,-1390,766,1396,1},{1181,-292,-1016,-843,1500,-1063,-1942,245,-3165,-1198,-43,984,-1450,706,1336,-59},{1135,-338,-1062,-889,1454,-1109,-1988,199,-3211,-1244,-89,938,-1496,660,1290,-105},{1099,-374,-1098,-925,1418,-1145,-2024,163,-3247,-1280,-125,902,-1532,624,1254,-141},{1080,-393,-1117,-944,1399,-1164,-2043,144,-3266,-1299,-144,883,-1551,605,1235,-160},{1081,-392,-1116,-943,1400,-1163,-2042,145,-3265,-1298,-143,884,-1550,606,1236,-159},{1085,-388,-1112,-939,1404,-1159,-2038,149,-3261,-1294,-139,888,-1546,610,1240,-155},{1068,-405,-1129,-956,1387,-1176,-2055,132,-3278,-1311,-156,871,-1563,593,1223,-172},{1023,-450,-1174,-1001,1342,-1221,-2100,87,-3323,-1356,-201,826,-1608,548,1178,-217},{969,-504,-1228,-1055,1288,-1275,-2154,33,-3377,-1410,-255,772,-1662,494,1124,-271},{925,-548,-1272,-1099,1244,-1319,-2198,-11,-3421,-1454,-299,728,-1706,450,1080,-315},{892,-581,-1305,-1132,1211,-1352,-2231,-44,-3454,-1487,-332,695,-1739,417,1047,-348}}},
{{{1615,142,-582,-409,1934,-629,-1508,679,-2731,-764,391,1418,-1016,1140,1770,375},{1617,144,-580,-407,1936,-627,-1506,681,-2729,-762,393,1420,-1014,1142,1772,377},{1656,183,-541,-368,1975,-588,-1467,720,-2690,-723,432,1459,-975,1181,1811,416},{1706,233,-491,-318,2025,-538,-1417,770,-2640,-673,482,1509,-925,1231,1861,466},{1720,247,-477,-304,2039,-524,-1403,784,-2626,-659,496,1523,-911,1245,1875,480},{1728,255,-469,-296,2047,-516,-1395,792,-2618,-651,504,1531,-903,1253,1883,488},{1801,328,-396,-223,2120,-443,-1322,865,-2545,-578,577,1604,-830,1326,1956,561},{1898,425,-299,-126,2217,-346,-1225,962,-2448,-481,674,1701,-733,1423,2053,658},{1955,482,-242,-69,2274,-289,-1168,1019,-2391,-424,731,1758,-676,1480,2110,715},{1886,413,-311,-138,2205,-358,-1237,950,-2460,-493,662,1689,-745,1411,2041,646},{1809,336,-388,-215,2128,-435,-1314,873,-2537,-570,585,1612,-822,1334,1964,569},{1774,301,-423,-250,2093,-470,-1349,838,-2572,-605,550,1577,-857,1299,1929,534},{1795,322,-402,-229,2114,-449,-1328,859,-2551,-584,571,1598,-836,1320,1950,555},{1803,330,-394,-221,2122,-441,-1320,867,-2543,-576,579,1606,-828,1328,1958,563},{1734,261,-463,-290,2053,-510,-1389,798,-2612,-645,510,1537,-897,1259,1889,494},{1668,195,-529,-356,1987,-576,-1455,732,-2678,-711,444,1471,-963,1193,1823,428},{1647,174,-550,-377,1966,-597,-1476,711,-2699,-732,423,1450,-984,1172,1802,407},{1685,212,-512,-339,2004,-559,-1438,749,-2661,-694,461,1488,-946,1210,1840,445},{1741,268,-456,-283,2060,-503,-1382,805,-2605,-638,517,1544,-890,1266,1896,501},{1799,326,-398,-225,2118,-445,-1324,863,-2547,-580,575,1602,-832,1324,1954,559},{1843,370,-354,-181,2162,-401,-1280,907,-2503,-536,619,1646,-788,1368,1998,603},{1856,383,-341,-168,2175,-388,-1267,920,-2490,-523,632,1659,-775,1381,2011,616},{1820,347,-377,-204,2139,-424,-1303,884,-2526,-559,596,1623,-811,1345,1975,580},{1769,296,-428,-255,2088,-475,-1354,833,-2577,-610,545,1572,-862,1294,1924,529},{1703,230,-494,-321,2022,-541,-1420,767,-2643,-676,479,1506,-928,1228,1858,463},{1659,186,-538,-365,1978,-585,-1464,723,-2687,-720,435,1462,-972,1184,1814,419},{1620,147,-577,-404,1939,-624,-1503,684,-2726,-759,396,1423,-1011,1145,1775,380},{1579,106,-618,-445,1898,-665,-1544,643,-2767,-800,355,1382,-1052,1104,1734,339},{1541,68,-656,-483,1860,-703,-1582,605,-2805,-838,317,1344,-1090,1066,1696,301},{1511,38,-686,-513,1830,-733,-1612,575,-2835,-868,287,1314,-1120,1036,1666,271},{1480,7,-717,-544,1799,-764,-1643,544,-2866,-899,256,1283,-1151,1005,1635,240},{1436,-37,-761,-588,1755,-808,-1687,500,-2910,-943,212,1239,-1195,961,1591,196},{1373,-100,-824,-651,1692,-871,-1750,437,-2973,-1006,149,1176,-1258,898,1528,133},{1335,-138,-862,-689,1654,-909,-1788,399,-3011,-1044,111,1138,-1296,860,1490,95},{1287,-186,-910,-737,1606,-957,-1836,351,-3059,-1092,63,1090,-1344,812,1442,47},{1241,-232,-956,-783,1560,-1003,-1882,305,-3105,-1138,17,1044,-1390,766,1396,1},{1181,-292,-1016,-843,1500,-1063,-1942,245,-3165,-1198,-43,984,-1450,706,1336,-59},{1135,-338,-1062,-889,1454,-1109,-1988,199,-3211,-1244,-89,938,-1496,660,1290,-105},{1099,-374,-1098,-925,1418,-1145,-2024,163,-3247,-1280,-125,902,-1532,624,1254,-141},{1080,-393,-1117,-944,1399,-1164,-2043,144,-3266,-1299,-144,883,-1551,605,1235,-160},{1081,-392,-1116,-943,1400,-1163,-2042,145,-3265,-1298,-143,884,-1550,606,1236,-159},{1085,-388,-1112,-939,1404,-1159,-2038,149,-3261,-1294,-139,888,-1546,610,1240,-155},{1068,-405,-1129,-956,1387,-1176,-2055,132,-3278,-1311,-156,871,-1563,593,1223,-172},{1023,-450,-1174,-1001,1342,-1221,-2100,87,-3323,-1356,-201,826,-1608,548,1178,-217},{969,-504,-1228,-1055,1288,-1275,-2154,33,-3377,-1410,-255,772,-1662,494,1124,-271},{925,-548,-1272,-1099,1244,-1319,-2198,-11,-3421,-1454,-299,728,-1706,450,1080,-315},{892,-581,-1305,-1132,1211,-1352,-2231,-44,-3454,-1487,-332,695,-1739,417,1047,-348},{877,-596,-1320,-1147,1196,-1367,-2246,-59,-3469,-1502,-347,680,-1754,402,1032,-363}}},
{{{1617,144,-580,-407,1936,-627,-1506,681,-2729,-762,393,1420,-1014,1142,1772,377},{1656,183,-541,-368,1975,-588,-1467,720,-2690,-723,432,1459,-975,1181,1811,416},{1706,233,-491,-318,2025,-538,-1417,770,-2640,-673,482,1509,-925,1231,1861,466},{1720,247,-477,-304,2039,-524,-1403,784,-2626,-659,496,1523,-911,1245,1875,480},{1728,255,-469,-296,2047,-516,-1395,792,-2618,-651,504,1531,-903,1253,1883,488},{1801,328,-396,-223,2120,-443,-1322,865,-2545,-578,577,1604,-830,1326,1956,561},{1898,425,-299,-126,2217,-346,-1225,962,-2448,-481,674,1701,-733,1423,2053,658},{1955,482,-242,-69,2274,-289,-1168,1019,-2391,-424,731,1758,-676,1480,2110,715},{1886,413,-311,-138,2205,-358,-1237,950,-2460,-493,662,1689,-745,1411,2041,646},{1809,336,-388,-215,2128,-435,-1314,873,-2537,-570,585,1612,-822,1334,1964,569},{1774,301,-423,-250,2093,-470,-1349,838,-2572,-605,550,1577,-857,1299,1929,534},{1795,322,-402,-229,2114,-449,-1328,859,-2551,-584,571,1598,-836,1320,1950,555},{1803,330,-394,-221,2122,-441,-1320,867,-2543,-576,579,1606,-828,1328,1958,563},{1734,261,-463,-290,2053,-510,-1389,798,-2612,-645,510,1537,-897,1259,1889,494},{1668,195,-529,-356,1987,-576,-1455,732,-2678,-711,444,1471,-963,1193,1823,428},{1647,174,-550,-377,1966,-597,-1476,711,-2699,-732,423,1450,-984,1172,1802,407},{1685,212,-512,-339,2004,-559,-1438,749,-2661,-694,461,1488,-946,1210,1840,445},{1741,268,-456,-283,2060,-503,-1382,805,-2605,-638,517,1544,-890,1266,1896,501},{1799,326,-398,-225,2118,-445,-1324,863,-2547,-580,575,1602,-832,1324,1954,559},{1843,370,-354,-181,2162,-401,-1280,907,-2503,-536,619,1646,-788,1368,1998,603},{1856,383,-341,-168,2175,-388,-1267,920,-2490,-523,632,1659,-775,1381,2011,616},{1820,347,-377,-204,2139,-424,-1303,884,-2526,-559,596,1623,-811,1345,1975,580},{1769,296,-428,-255,2088,-475,-1354,833,-2577,-610,545,1572,-862,1294,1924,529},{1703,230,-494,-321,2022,-541,-1420,767,-2643,-676,479,1506,-928,1228,1858,463},{1659,186,-538,-365,1978,-585,-1464,723,-2687,-720,435,1462,-972,1184,1814,419},{1620,147,-577,-404,1939,-624,-1503,684,-2726,-759,396,1423,-1011,1145,1775,380},{1579,106,-618,-445,1898,-665,-1544,643,-2767,-800,355,1382,-1052,1104,1734,339},{1541,68,-656,-483,1860,-703,-1582,605,-2805,-838,317,1344,-1090,1066,1696,301},{1511,38,-686,-513,1830,-733,-1612,575,-2835,-868,287,1314,-1120,1036,1666,271},{1480,7,-717,-544,1799,-764,-1643,544,-2866,-899,256,1283,-1151,1005,1635,240},{1436,-37,-761,-588,1755,-808,-1687,500,-2910,-943,212,1239,-1195,961,1591,196},{1373,-100,-824,-651,1692,-871,-1750,437,-2973,-1006,149,1176,-1258,898,1528,133},{1335,-138,-862,-689,1654,-909,-1788,399,-3011,-1044,111,1138,-1296,860,1490,95},{1287,-186,-910,-737,1606,-957,-1836,351,-3059,-1092,63,1090,-1344,812,1442,47},{1241,-232,-956,-783,1560,-1003,-1882,305,-3105,-1138,17,1044,-1390,766,1396,1},{1181,-292,-1016,-843,1500,-1063,-1942,245,-3165,-1198,-43,984,-1450,706,1336,-59},{1135,-338,-1062,-889,1454,-1109,-1988,199,-3211,-1244,-89,938,-1496,660,1290,-105},{1099,-374,-1098,-925,1418,-1145,-2024,163,-3247,-1280,-125,902,-1532,624,1254,-141},{1080,-393,-1117,-944,1399,-1164,-2043,144,-3266,-1299,-144,883,-1551,605,1235,-160},{1081,-392,-1116,-943,1400,-1163,-2042,145,-3265,-1298,-143,884,-1550,606,1236,-159},{1085,-388,-1112,-939,1404,-1159,-2038,149,-3261,-1294,-139,888,-1546,610,1240,-155},{1068,-405,-1129,-956,1387,-1176,-2055,132,-3278,-1311,-156,871,-1563,593,1223,-172},{1023,-450,-1174,-1001,1342,-1221,-2100,87,-3323,-1356,-201,826,-1608,548,1178,-217},{969,-504,-1228,-1055,1288,-1275,-2154,33,-3377,-1410,-255,772,-1662,494,1124,-271},{925,-548,-1272,-1099,1244,-1319,-2198,-11,-3421,-1454,-299,728,-1706,450,1080,-315},{892,-581,-1305,-1132,1211,-1352,-2231,-44,-3454,-1487,-332,695,-1739,417,1047,-348},{877,-596,-1320,-1147,1196,-1367,-2246,-59,-3469,-1502,-347,680,-1754,402,1032,-363},{884,-589,-1313,-1140,1203,-1360,-2239,-52,-3462,-1495,-340,687,-1747,409,1039,-356}}},
{{{1656,183,-541,-368,1975,-588,-1467,720,-2690,-723,432,1459,-975,1181,1811,416},{1706,233,-491,-318,2025,-538,-1417,770,-2640,-673,482,1509,-925,1231,1861,466},{1720,247,-477,-304,2039,-524,-1403,784,-2626,-659,496,1523,-911,1245,1875,480},{1728,255,-469,-296,2047,-516,-1395,792,-2618,-651,504,1531,-903,1253,1883,488},{1801,328,-396,-223,2120,-443,-1322,865,-2545,-578,577,1604,-830,1326,1956,561},{1898,425,-299,-126,2217,-346,-1225,962,-2448,-481,674,1701,-733,1423,2053,658},{1955,482,-242,-69,2274,-289,-1168,1019,-2391,-424,731,1758,-676,1480,2110,715},{1886,413,-311,-138,2205,-358,-1237,950,-2460,-493,662,1689,-745,1411,2041,646},{1809,336,-388,-215,2128,-435,-1314,873,-2537,-570,585,1612,-822,1334,1964,569},{1774,301,-423,-250,2093,-470,-1349,838,-2572,-605,550,1577,-857,1299,1929,534},{1795,322,-402,-229,2114,-449,-1328,859,-2551,-584,571,1598,-836,1320,1950,555},{1803,330,-394,-221,2122,-441,-1320,867,-2543,-576,579,1606,-828,1328,1958,563},{1734,261,-463,-290,2053,-510,-1389,798,-2612,-645,510,1537,-897,1259,1889,494},{1668,195,-529,-356,1987,-576,-1455,732,-2678,-711,444,1471,-963,1193,1823,428},{1647,174,-550,-377,1966,-597,-1476,711,-2699,-732,423,1450,-984,1172,1802,407},{1685,212,-512,-339,2004,-559,-1438,749,-2661,-694,461,1488,-946,1210,1840,445},{1741,268,-456,-283,2060,-503,-1382,805,-2605,-638,517,1544,-890,1266,1896,501},{1799,326,-398,-225,2118,-445,-1324,863,-2547,-580,575,1602,-832,1324,1954,559},{1843,370,-354,-181,2162,-401,-1280,907,-2503,-536,619,1646,-788,1368,1998,603},{1856,383,-341,-168,2175,-388,-1267,920,-2490,-523,632,1659,-775,1381,2011,616},{1820,347,-377,-204,2139,-424,-1303,884,-2526,-559,596,1623,-811,1345,1975,580},{1769,296,-428,-255,2088,-475,-1354,833,-2577,-610,545,1572,-862,1294,1924,529},{1703,230,-494,-321,2022,-541,-1420,767,-2643,-676,479,1506,-928,1228,1858,463},{1659,186,-538,-365,1978,-585,-1464,723,-2687,-720,435,1462,-972,1184,1814,419},{1620,147,-577,-404,1939,-624,-1503,684,-2726,-759,396,1423,-1011,1145,1775,380},{1579,106,-618,-445,1898,-665,-1544,643,-2767,-800,355,1382,-1052,1104,1734,339},{1541,68,-656,-483,1860,-703,-1582,605,-2805,-838,317,1344,-1090,1066,1696,301},{1511,38,-686,-513,1830,-733,-1612,575,-2835,-868,287,1314,-1120,1036,1666,271},{1480,7,-717,-544,1799,-764,-1643,544,-2866,-899,256,1283,-1151,1005,1635,240},{1436,-37,-761,-588,1755,-808,-1687,500,-2910,-943,212,1239,-1195,961,1591,196},{1373,-100,-824,-651,1692,-871,-1750,437,-2973,-1006,149,1176,-1258,898,1528,133},{1335,-138,-862,-689,1654,-909,-1788,399,-3011,-1044,111,1138,-1296,860,1490,95},{1287,-186,-910,-737,1606,-957,-1836,351,-3059,-1092,63,1090,-1344,812,1442,47},{1241,-232,-956,-783,1560,-1003,-1882,305,-3105,-1138,17,1044,-1390,766,1396,1},{1181,-292,-1016,-843,1500,-1063,-1942,245,-3165,-1198,-43,984,-1450,706,1336,-59},{1135,-338,-1062,-889,1454,-1109,-1988,199,-3211,-1244,-89,938,-1496,660,1290,-105},{1099,-374,-1098,-925,1418,-1145,-2024,163,-3247,-1280,-125,902,-1532,624,1254,-141},{1080,-393,-1117,-944,1399,-1164,-2043,144,-3266,-1299,-144,883,-1551,605,1235,-160},{1081,-392,-1116,-943,1400,-1163,-2042,145,-3265,-1298,-143,884,-1550,606,1236,-159},{1085,-388,-1112,-939,1404,-1159,-2038,149,-3261,-1294,-139,888,-1546,610,1240,-155},{1068,-405,-1129,-956,1387,-1176,-2055,132,-3278,-1311,-156,871,-1563,593,1223,-172},{1023,-450,-1174,-1001,1342,-1221,-2100,87,-3323,-1356,-201,826,-1608,548,1178,-217},{969,-504,-1228,-1055,1288,-1275,-2154,33,-3377,-1410,-255,772,-1662,494,1124,-271},{925,-548,-1272,-1099,1244,-1319,-2198,-11,-3421,-1454,-299,728,-1706,450,1080,-315},{892,-581,-1305,-1132,1211,-1352,-2231,-44,-3454,-1487,-332,695,-1739,417,1047,-348},{877,-596,-1320,-1147,1196,-1367,-2246,-59,-3469,-1502,-347,680,-1754,402,1032,-363},{884,-589,-1313,-1140,1203,-1360,-2239,-52,-3462,-1495,-340,687,-1747,409,1039,-356},{897,-576,-1300,-1127,1216,-1347,-2226,-39,-3449,-1482,-327,700,-1734,422,1052,-343}}},
{{{1706,233,-491,-318,2025,-538,-1417,770,-2640,-673,482,1509,-925,1231,1861,466},{1720,247,-477,-304,2039,-524,-1403,784,-2626,-659,496,1523,-911,1245,1875,480},{1728,255,-469,-296,2047,-516,-1395,792,-2618,-651,504,1531,-903,1253,1883,488},{1801,328,-396,-223,2120,-443,-1322,865,-2545,-578,577,1604,-830,1326,1956,561},{1898,425,-299,-126,2217,-346,-1225,962,-2448,-481,674,1701,-733,1423,2053,658},{1955,482,-242,-69,2274,-289,-1168,1019,-2391,-424,731,1758,-676,1480,2110,715},{1886,413,-311,-138,2205,-358,-1237,950,-2460,-493,662,1689,-745,1411,2041,646},{1809,336,-388,-215,2128,-435,-1314,873,-2537,-570,585,1612,-822,1334,1964,569},{1774,301,-423,-250,2093,-470,-1349,838,-2572,-605,550,1577,-857,1299,1929,534},{1795,322,-402,-229,2114,-449,-1328,859,-2551,-584,571,1598,-836,1320,1950,555},{1803,330,-394,-221,2122,-441,-1320,867,-2543,-576,579,1606,-828,1328,1958,563},{1734,261,-463,-290,2053,-510,-1389,798,-2612,-645,510,1537,-897,1259,1889,494},{1668,195,-529,-356,1987,-576,-1455,732,-2678,-711,444,1471,-963,1193,1823,428},{1647,174,-550,-377,1966,-597,-1476,711,-2699,-732,423,1450,-984,1172,1802,407},{1685,212,-512,-339,2004,-559,-1438,749,-2661,-694,461,1488,-946,1210,1840,445},{1741,268,-456,-283,2060,-503,-1382,805,-2605,-638,517,1544,-890,1266,1896,501},{1799,326,-398,-225,2118,-445,-1324,863,-2547,-580,575,1602,-832,1324,1954,559},{1843,370,-354,-181,2162,-401,-1280,907,-2503,-536,619,1646,-788,1368,1998,603},{1856,383,-341,-168,2175,-388,-1267,920,-2490,-523,632,1659,-775,1381,2011,616},{1820,347,-377,-204,2139,-424,-1303,884,-2526,-559,596,1623,-811,1345,1975,580},{1769,296,-428,-255,2088,-475,-1354,833,-2577,-610,545,1572,-862,1294,1924,529},{1703,230,-494,-321,2022,-541,-1420,767,-2643,-676,479,1506,-928,1228,1858,463},{1659,186,-538,-365,1978,-585,-1464,723,-2687,-720,435,1462,-972,1184,1814,419},{1620,147,-577,-404,1939,-624,-1503,684,-2726,-759,396,1423,-1011,1145,1775,380},{1579,106,-618,-445,1898,-665,-1544,643,-2767,-800,355,1382,-1052,1104,1734,339},{1541,68,-656,-483,1860,-703,-1582,605,-2805,-838,317,1344,-1090,1066,1696,301},{1511,38,-686,-513,1830,-733,-1612,575,-2835,-868,287,1314,-1120,1036,1666,271},{1480,7,-717,-544,1799,-764,-1643,544,-2866,-899,256,1283,-1151,1005,1635,240},{1436,-37,-761,-588,1755,-808,-1687,500,-2910,-943,212,1239,-1195,961,1591,196},{1373,-100,-824,-651,1692,-871,-1750,437,-2973,-1006,149,1176,-1258,898,1528,133},{1335,-138,-862,-689,1654,-909,-1788,399,-3011,-1044,111,1138,-1296,860,1490,95},{1287,-186,-910,-737,1606,-957,-1836,351,-3059,-1092,63,1090,-1344,812,1442,47},{1241,-232,-956,-783,1560,-1003,-1882,305,-3105,-1138,17,1044,-1390,766,1396,1},{1181,-292,-1016,-843,1500,-1063,-1942,245,-3165,-1198,-43,984,-1450,706,1336,-59},{1135,-338,-1062,-889,1454,-1109,-1988,199,-3211,-1244,-89,938,-1496,660,1290,-105},{1099,-374,-1098,-925,1418,-1145,-2024,163,-3247,-1280,-125,902,-1532,624,1254,-141},{1080,-393,-1117,-944,1399,-1164,-2043,144,-3266,-1299,-144,883,-1551,605,1235,-160},{1081,-392,-1116,-943,1400,-1163,-2042,145,-3265,-1298,-143,884,-1550,606,1236,-159},{1085,-388,-1112,-939,1404,-1159,-2038,149,-3261,-1294,-139,888,-1546,610,1240,-155},{1068,-405,-1129,-956,1387,-1176,-2055,132,-3278,-1311,-156,871,-1563,593,1223,-172},{1023,-450,-1174,-1001,1342,-1221,-2100,87,-3323,-1356,-201,826,-1608,548,1178,-217},{969,-504,-1228,-1055,1288,-1275,-2154,33,-3377,-1410,-255,772,-1662,494,1124,-271},{925,-548,-1272,-1099,1244,-1319,-2198,-11,-3421,-1454,-299,728,-1706,450,1080,-315},{892,-581,-1305,-1132,1211,-1352,-2231,-44,-3454,-1487,-332,695,-1739,417,1047,-348},{877,-596,-1320,-1147,1196,-1367,-2246,-59,-3469,-1502,-347,680,-1754,402,1032,-363},{884,-589,-1313,-1140,1203,-1360,-2239,-52,-3462,-1495,-340,687,-1747,409,1039,-356},{897,-576,-1300,-1127,1216,-1347,-2226,-39,-3449,-1482,-327,700,-1734,422,1052,-343},{905,-568,-1292,-1119,1224,-1339,-2218,-31,-3441,-1474,-319,708,-1726,430,1060,-335}}},
{{{1720,247,-477,-304,2039,-524,-1403,784,-2626,-659,496,1523,-911,1245,1875,480},{1728,255,-469,-296,2047,-516,-1395,792,-2618,-651,504,1531,-903,1253,1883,488},{1801,328,-396,-223,2120,-443,-1322,865,-2545,-578,577,1604,-830,1326,1956,561},{1898,425,-299,-126,2217,-346,-1225,962,-2448,-481,674,1701,-733,1423,2053,658},{1955,482,-242,-69,2274,-289,-1168,1019,-2391,-424,731,1758,-676,1480,2110,715},{1886,413,-311,-138,2205,-358,-1237,950,-2460,-493,662,1689,-745,1411,2041,646},{1809,336,-388,-215,2128,-435,-1314,873,-2537,-570,585,1612,-822,1334,1964,569},{1774,301,-423,-250,2093,-470,-1349,838,-2572,-605,550,1577,-857,1299,1929,534},{1795,322,-402,-229,2114,-449,-1328,859,-2551,-584,571,1598,-836,1320,1950,555},{1803,330,-394,-221,2122,-441,-1320,867,-2543,-576,579,1606,-828,1328,1958,563},{1734,261,-463,-290,2053,-510,-1389,798,-2612,-645,510,1537,-897,1259,1889,494},{1668,195,-529,-356,1987,-576,-1455,732,-2678,-711,444,1471,-963,1193,1823,428},{1647,174,-550,-377,1966,-597,-1476,711,-2699,-732,423,1450,-984,1172,1802,407},{1685,212,-512,-339,2004,-559,-1438,749,-2661,-694,461,1488,-946,1210,1840,445},{1741,268,-456,-283,2060,-503,-1382,805,-2605,-638,517,1544,-890,1266,1896,501},{1799,326,-398,-225,2118,-445,-1324,863,-2547,-580,575,1602,-832,1324,1954,559},{1843,370,-354,-181,2162,-401,-1280,907,-2503,-536,619,1646,-788,1368,1998,603},{1856,383,-341,-168,2175,-388,-1267,920,-2490,-523,632,1659,-775,1381,2011,616},{1820,347,-377,-204,2139,-424,-1303,884,-2526,-559,596,1623,-811,1345,1975,580},{1769,296,-428,-255,2088,-475,-1354,833,-2577,-610,545,1572,-862,1294,1924,529},{1703,230,-494,-321,2022,-541,-1420,767,-2643,-676,479,1506,-928,1228,1858,463},{1659,186,-538,-365,1978,-585,-1464,723,-2687,-720,435,1462,-972,1184,1814,419},{1620,147,-577,-404,1939,-624,-1503,684,-2726,-759,396,1423,-1011,1145,1775,380},{1579,106,-618,-445,1898,-665,-1544,643,-2767,-800,355,1382,-1052,1104,1734,339},{1541,68,-656,-483,1860,-703,-1582,605,-2805,-838,317,1344,-1090,1066,1696,301},{1511,38,-686,-513,1830,-733,-1612,575,-2835,-868,287,1314,-1120,1036,1666,271},{1480,7,-717,-544,1799,-764,-1643,544,-2866,-899,256,1283,-1151,1005,1635,240},{1436,-37,-761,-588,1755,-808,-1687,500,-2910,-943,212,1239,-1195,961,1591,196},{1373,-100,-824,-651,1692,-871,-1750,437,-2973,-1006,149,1176,-1258,898,1528,133},{1335,-138,-862,-689,1654,-909,-1788,399,-3011,-1044,111,1138,-1296,860,1490,95},{1287,-186,-910,-737,1606,-957,-1836,351,-3059,-1092,63,1090,-1344,812,1442,47},{1241,-232,-956,-783,1560,-1003,-1882,305,-3105,-1138,17,1044,-1390,766,1396,1},{1181,-292,-1016,-843,1500,-1063,-1942,245,-3165,-1198,-43,984,-1450,706,1336,-59},{1135,-338,-1062,-889,1454,-1109,-1988,199,-3211,-1244,-89,938,-1496,660,1290,-105},{1099,-374,-1098,-925,1418,-1145,-2024,163,-3247,-1280,-125,902,-1532,624,1254,-141},{1080,-393,-1117,-944,1399,-1164,-2043,144,-3266,-1299,-144,883,-1551,605,1235,-160},{1081,-392,-1116,-943,1400,-1163,-2042,145,-3265,-1298,-143,884,-1550,606,1236,-159},{1085,-388,-1112,-939,1404,-1159,-2038,149,-3261,-1294,-139,888,-1546,610,1240,-155},{1068,-405,-1129,-956,1387,-1176,-2055,132,-3278,-1311,-156,871,-1563,593,1223,-172},{1023,-450,-1174,-1001,1342,-1221,-2100,87,-3323,-1356,-201,826,-1608,548,1178,-217},{969,-504,-1228,-1055,1288,-1275,-2154,33,-3377,-1410,-255,772,-1662,494,1124,-271},{925,-548,-1272,-1099,1244,-1319,-2198,-11,-3421,-1454,-299,728,-1706,450,1080,-315},{892,-581,-1305,-1132,1211,-1352,-2231,-44,-3454,-1487,-332,695,-1739,417,1047,-348},{877,-596,-1320,-1147,1196,-1367,-2246,-59,-3469,-1502,-347,680,-1754,402,1032,-363},{884,-589,-1313,-1140,1203,-1360,-2239,-52,-3462,-1495,-340,687,-1747,409,1039,-356},{897,-576,-1300,-1127,1216,-1347,-2226,-39,-3449,-1482,-327,700,-1734,422,1052,-343},{905,-568,-1292,-1119,1224,-1339,-2218,-31,-3441,-1474,-319,708,-1726,430,1060,-335},{897,-576,-1300,-1127,1216,-1347,-2226,-39,-3449,-1482,-327,700,-1734,422,1052,-343}}},
{{{1728,255,-469,-296,2047,-516,-1395,792,-2618,-651,504,1531,-903,1253,1883,488},{1801,328,-396,-223,2120,-443,-1322,865,-2545,-578,577,1604,-830,1326,1956,561},{1898,425,-299,-126,2217,-346,-1225,962,-2448,-481,674,1701,-733,1423,2053,658},{1955,482,-242,-69,2274,-289,-1168,1019,-2391,-424,731,1758,-676,1480,2110,715},{1886,413,-311,-138,2205,-358,-1237,950,-2460,-493,662,1689,-745,1411,2041,646},{1809,336,-388,-215,2128,-435,-1314,873,-2537,-570,585,1612,-822,1334,1964,569},{1774,301,-423,-250,2093,-470,-1349,838,-2572,-605,550,1577,-857,1299,1929,534},{1795,322,-402,-229,2114,-449,-1328,859,-2551,-584,571,1598,-836,1320,1950,555},{1803,330,-394,-221,2122,-441,-1320,867,-2543,-576,579,1606,-828,1328,1958,563},{1734,261,-463,-290,2053,-510,-1389,798,-2612,-645,510,1537,-897,1259,1889,494},{1668,195,-529,-356,1987,-576,-1455,732,-2678,-711,444,1471,-963,1193,1823,428},{1647,174,-550,-377,1966,-597,-1476,711,-2699,-732,423,1450,-984,1172,1802,407},{1685,212,-512,-339,2004,-559,-1438,749,-2661,-694,461,1488,-946,1210,1840,445},{1741,268,-456,-283,2060,-503,-1382,805,-2605,-638,517,1544,-890,1266,1896,501},{1799,326,-398,-225,2118,-445,-1324,863,-2547,-580,575,1602,-832,1324,1954,559},{1843,370,-354,-181,2162,-401,-1280,907,-2503,-536,619,1646,-788,1368,1998,603},{1856,383,-341,-168,2175,-388,-1267,920,-2490,-523,632,1659,-775,1381,2011,616},{1820,347,-377,-204,2139,-424,-1303,884,-2526,-559,596,1623,-811,1345,1975,580},{1769,296,-428,-255,2088,-475,-1354,833,-2577,-610,545,1572,-862,1294,1924,529},{1703,230,-494,-321,2022,-541,-1420,767,-2643,-676,479,1506,-928,1228,1858,463},{1659,186,-538,-365,1978,-585,-1464,723,-2687,-720,435,1462,-972,1184,1814,419},{1620,147,-577,-404,1939,-624,-1503,684,-2726,-759,396,1423,-1011,1145,1775,380},{1579,106,-618,-445,1898,-665,-1544,643,-2767,-800,355,1382,-1052,1104,1734,339},{1541,68,-656,-483,1860,-703,-1582,605,-2805,-838,317,1344,-1090,1066,1696,301},{1511,38,-686,-513,1830,-733,-1612,575,-2835,-868,287,1314,-1120,1036,1666,271},{1480,7,-717,-544,1799,-764,-1643,544,-2866,-899,256,1283,-1151,1005,1635,240},{1436,-37,-761,-588,1755,-808,-1687,500,-2910,-943,212,1239,-1195,961,1591,196},{1373,-100,-824,-651,1692,-871,-1750,437,-2973,-1006,149,1176,-1258,898,1528,133},{1335,-138,-862,-689,1654,-909,-1788,399,-3011,-1044,111,1138,-1296,860,1490,95},{1287,-186,-910,-737,1606,-957,-1836,351,-3059,-1092,63,1090,-1344,812,1442,47},{1241,-232,-956,-783,1560,-1003,-1882,305,-3105,-1138,17,1044,-1390,766,1396,1},{1181,-292,-1016,-843,1500,-1063,-1942,245,-3165,-1198,-43,984,-1450,706,1336,-59},{1135,-338,-1062,-889,1454,-1109,-1988,199,-3211,-1244,-89,938,-1496,660,1290,-105},{1099,-374,-1098,-925,1418,-1145,-2024,163,-3247,-1280,-125,902,-1532,624,1254,-141},{1080,-393,-1117,-944,1399,-1164,-2043,144,-3266,-1299,-144,883,-1551,605,1235,-160},{1081,-392,-1116,-943,1400,-1163,-2042,145,-3265,-1298,-143,884,-1550,606,1236,-159},{1085,-388,-1112,-939,1404,-1159,-2038,149,-3261,-1294,-139,888,-1546,610,1240,-155},{1068,-405,-1129,-956,1387,-1176,-2055,132,-3278,-1311,-156,871,-1563,593,1223,-172},{1023,-450,-1174,-1001,1342,-1221,-2100,87,-3323,-1356,-201,826,-1608,548,1178,-217},{969,-504,-1228,-1055,1288,-1275,-2154,33,-3377,-1410,-255,772,-1662,494,1124,-271},{925,-548,-1272,-1099,1244,-1319,-2198,-11,-3421,-1454,-299,728,-1706,450,1080,-315},{892,-581,-1305,-1132,1211,-1352,-2231,-44,-3454,-1487,-332,695,-1739,417,1047,-348},{877,-596,-1320,-1147,1196,-1367,-2246,-59,-3469,-1502,-347,680,-1754,402,1032,-363},{884,-589,-1313,-1140,1203,-1360,-2239,-52,-3462,-1495,-340,687,-1747,409,1039,-356},{897,-576,-1300,-1127,1216,-1347,-2226,-39,-3449,-1482,-327,700,-1734,422,1052,-343},{905,-568,-1292,-1119,1224,-1339,-2218,-31,-3441,-1474,-319,708,-1726,430,1060,-335},{897,-576,-1300,-1127,1216,-1347,-2226,-39,-3449,-1482,-327,700,-1734,422,1052,-343},{889,-584,-1308,-1135,1208,-1355,-2234,-47,-3457,-1490,-335,692,-1742,414,1044,-351}}},
{{{1801,328,-396,-223,2120,-443,-1322,865,-2545,-578,577,1604,-830,1326,1956,561},{1898,425,-299,-126,2217,-346,-1225,962,-2448,-481,674,1701,-733,1423,2053,658},{1955,482,-242,-69,2274,-289,-1168,1019,-2391,-424,731,1758,-676,1480,2110,715},{1886,413,-311,-138,2205,-358,-1237,950,-2460,-493,662,1689,-745,1411,2041,646},{1809,336,-388,-215,2128,-435,-1314,873,-2537,-570,585,1612,-822,1334,1964,569},{1774,301,-423,-250,2093,-470,-1349,838,-2572,-605,550,1577,-857,1299,1929,534},{1795,322,-402,-229,2114,-449,-1328,859,-2551,-584,571,1598,-836,1320,1950,555},{1803,330,-394,-221,2122,-441,-1320,867,-2543,-576,579,1606,-828,1328,1958,563},{1734,261,-463,-290,2053,-510,-1389,798,-2612,-645,510,1537,-897,1259,1889,494},{1668,195,-529,-356,1987,-576,-1455,732,-2678,-711,444,1471,-963,1193,1823,428},{1647,174,-550,-377,1966,-597,-1476,711,-2699,-732,423,1450,-984,1172,1802,407},{1685,212,-512,-339,2004,-559,-1438,749,-2661,-694,461,1488,-946,1210,1840,445},{1741,268,-456,-283,2060,-503,-1382,805,-2605,-638,517,1544,-890,1266,1896,501},{1799,326,-398,-225,2118,-445,-1324,863,-2547,-580,575,1602,-832,1324,1954,559},{1843,370,-354,-181,2162,-401,-1280,907,-2503,-536,619,1646,-788,1368,1998,603},{1856,383,-341,-168,2175,-388,-1267,920,-2490,-523,632,1659,-775,1381,2011,616},{1820,347,-377,-204,2139,-424,-1303,884,-2526,-559,596,1623,-811,1345,1975,580},{1769,296,-428,-255,2088,-475,-1354,833,-2577,-610,545,1572,-862,1294,1924,529},{1703,230,-494,-321,2022,-541,-1420,767,-2643,-676,479,1506,-928,1228,1858,463},{1659,186,-538,-365,1978,-585,-1464,723,-2687,-720,435,1462,-972,1184,1814,419},{1620,147,-577,-404,1939,-624,-1503,684,-2726,-759,396,1423,-1011,1145,1775,380},{1579,106,-618,-445,1898,-665,-1544,643,-2767,-800,355,1382,-1052,1104,1734,339},{1541,68,-656,-483,1860,-703,-1582,605,-2805,-838,317,1344,-1090,1066,1696,301},{1511,38,-686,-513,1830,-733,-1612,575,-2835,-868,287,1314,-1120,1036,1666,271},{1480,7,-717,-544,1799,-764,-1643,544,-2866,-899,256,1283,-1151,1005,1635,240},{1436,-37,-761,-588,1755,-808,-1687,500,-2910,-943,212,1239,-1195,961,1591,196},{1373,-100,-824,-651,1692,-871,-1750,437,-2973,-1006,149,1176,-1258,898,1528,133},{1335,-138,-862,-689,1654,-909,-1788,399,-3011,-1044,111,1138,-1296,860,1490,95},{1287,-186,-910,-737,1606,-957,-1836,351,-3059,-1092,63,1090,-1344,812,1442,47},{1241,-232,-956,-783,1560,-1003,-1882,305,-3105,-1138,17,1044,-1390,766,1396,1},{1181,-292,-1016,-843,1500,-1063,-1942,245,-3165,-1198,-43,984,-1450,706,1336,-59},{1135,-338,-1062,-889,1454,-1109,-1988,199,-3211,-1244,-89,938,-1496,660,1290,-105},{1099,-374,-1098,-925,1418,-1145,-2024,163,-3247,-1280,-125,902,-1532,624,1254,-141},{1080,-393,-1117,-944,1399,-1164,-2043,144,-3266,-1299,-144,883,-1551,605,1235,-160},{1081,-392,-1116,-943,1400,-1163,-2042,145,-3265,-1298,-143,884,-1550,606,1236,-159},{1085,-388,-1112,-939,1404,-1159,-2038,149,-3261,-1294,-139,888,-1546,610,1240,-155},{1068,-405,-1129,-956,1387,-1176,-2055,132,-3278,-1311,-156,871,-1563,593,1223,-172},{1023,-450,-1174,-1001,1342,-1221,-2100,87,-3323,-1356,-201,826,-1608,548,1178,-217},{969,-504,-1228,-1055,1288,-1275,-2154,33,-3377,-1410,-255,772,-1662,494,1124,-271},{925,-548,-1272,-1099,1244,-1319,-2198,-11,-3421,-1454,-299,728,-1706,450,1080,-315},{892,-581,-1305,-1132,1211,-1352,-2231,-44,-3454,-1487,-332,695,-1739,417,1047,-348},{877,-596,-1320,-1147,1196,-1367,-2246,-59,-3469,-1502,-347,680,-1754,402,1032,-363},{884,-589,-1313,-1140,1203,-1360,-2239,-52,-3462,-1495,-340,687,-1747,409,1039,-356},{897,-576,-1300,-1127,1216,-1347,-2226,-39,-3449,-1482,-327,700,-1734,422,1052,-343},{905,-568,-1292,-1119,1224,-1339,-2218,-31,-3441,-1474,-319,708,-1726,430,1060,-335},{897,-576,-1300,-1127,1216,-1347,-2226,-39,-3449,-1482,-327,700,-1734,422,1052,-343},{889,-584,-1308,-1135,1208,-1355,-2234,-47,-3457,-1490,-335,692,-1742,414,1044,-351},{876,-597,-1321,-1148,1195,-1368,-2247,-60,-3470,-1503,-348,679,-1755,401,1031,-364}}},
{{{1898,425,-299,-126,2217,-346,-1225,962,-2448,-481,674,1701,-733,1423,2053,658},{1955,482,-242,-69,2274,-289,-1168,1019,-2391,-424,731,1758,-676,1480,2110,715},{1886,413,-311,-138,2205,-358,-1237,950,-2460,-493,662,1689,-745,1411,2041,646},{1809,336,-388,-215,2128,-435,-1314,873,-2537,-570,585,1612,-822,1334,1964,569},{1774,301,-423,-250,2093,-470,-1349,838,-2572,-605,550,1577,-857,1299,1929,534},{1795,322,-402,-229,2114,-449,-1328,859,-2551,-584,571,1598,-836,1320,1950,555},{1803,330,-394,-221,2122,-441,-1320,867,-2543,-576,579,1606,-828,1328,1958,563},{1734,261,-463,-290,2053,-510,-1389,798,-2612,-645,510,1537,-897,1259,1889,494},{1668,195,-529,-356,1987,-576,-1455,732,-2678,-711,444,1471,-963,1193,1823,428},{1647,174,-550,-377,1966,-597,-1476,711,-2699,-732,423,1450,-984,1172,1802,407},{1685,212,-512,-339,2004,-559,-1438,749,-2661,-694,461,1488,-946,1210,1840,445},{1741,268,-456,-283,2060,-503,-1382,805,-2605,-638,517,1544,-890,1266,1896,501},{1799,326,-398,-225,2118,-445,-1324,863,-2547,-580,575,1602,-832,1324,1954,559},{1843,370,-354,-181,2162,-401,-1280,907,-2503,-536,619,1646,-788,1368,1998,603},{1856,383,-341,-168,2175,-388,-1267,920,-2490,-523,632,1659,-775,1381,2011,616},{1820,347,-377,-204,2139,-424,-1303,884,-2526,-559,596,1623,-811,1345,1975,580},{1769,296,-428,-255,2088,-475,-1354,833,-2577,-610,545,1572,-862,1294,1924,529},{1703,230,-494,-321,2022,-541,-1420,767,-2643,-676,479,1506,-928,1228,1858,463},{1659,186,-538,-365,1978,-585,-1464,723,-2687,-720,435,1462,-972,1184,1814,419},{1620,147,-577,-404,1939,-624,-1503,684,-2726,-759,396,1423,-1011,1145,1775,380},{1579,106,-618,-445,1898,-665,-1544,643,-2767,-800,355,1382,-1052,1104,1734,339},{1541,68,-656,-483,1860,-703,-1582,605,-2805,-838,317,1344,-1090,1066,1696,301},{1511,38,-686,-513,1830,-733,-1612,575,-2835,-868,287,1314,-1120,1036,1666,271},{1480,7,-717,-544,1799,-764,-1643,544,-2866,-899,256,1283,-1151,1005,1635,240},{1436,-37,-761,-588,1755,-808,-1687,500,-2910,-943,212,1239,-1195,961,1591,196},{1373,-100,-824,-651,1692,-871,-1750,437,-2973,-1006,149,1176,-1258,898,1528,133},{1335,-138,-862,-689,1654,-909,-1788,399,-3011,-1044,111,1138,-1296,860,1490,95},{1287,-186,-910,-737,1606,-957,-1836,351,-3059,-1092,63,1090,-1344,812,1442,47},{1241,-232,-956,-783,1560,-1003,-1882,305,-3105,-1138,17,1044,-1390,766,1396,1},{1181,-292,-1016,-843,1500,-1063,-1942,245,-3165,-1198,-43,984,-1450,706,1336,-59},{1135,-338,-1062,-889,1454,-1109,-1988,199,-3211,-1244,-89,938,-1496,660,1290,-105},{1099,-374,-1098,-925,1418,-1145,-2024,163,-3247,-1280,-125,902,-1532,624,1254,-141},{1080,-393,-1117,-944,1399,-1164,-2043,144,-3266,-1299,-144,883,-1551,605,1235,-160},{1081,-392,-1116,-943,1400,-1163,-2042,145,-3265,-1298,-143,884,-1550,606,1236,-159},{1085,-388,-1112,-939,1404,-1159,-2038,149,-3261,-1294,-139,888,-1546,610,1240,-155},{1068,-405,-1129,-956,1387,-1176,-2055,132,-3278,-1311,-156,871,-1563,593,1223,-172},{1023,-450,-1174,-1001,1342,-1221,-2100,87,-3323,-1356,-201,826,-1608,548,1178,-217},{969,-504,-1228,-1055,1288,-1275,-2154,33,-3377,-1410,-255,772,-1662,494,1124,-271},{925,-548,-1272,-1099,1244,-1319,-2198,-11,-3421,-1454,-299,728,-1706,450,1080,-315},{892,-581,-1305,-1132,1211,-1352,-2231,-44,-3454,-1487,-332,695,-1739,417,1047,-348},{877,-596,-1320,-1147,1196,-1367,-2246,-59,-3469,-1502,-347,680,-1754,402,1032,-363},{884,-589,-1313,-1140,1203,-1360,-2239,-52,-3462,-1495,-340,687,-1747,409,1039,-356},{897,-576,-1300,-1127,1216,-1347,-2226,-39,-3449,-1482,-327,700,-1734,422,1052,-343},{905,-568,-1292,-1119,1224,-1339,-2218,-31,-3441,-1474,-319,708,-1726,430,1060,-335},{897,-576,-1300,-1127,1216,-1347,-2226,-39,-3449,-1482,-327,700,-1734,422,1052,-343},{889,-584,-1308,-1135,1208,-1355,-2234,-47,-3457,-1490,-335,692,-1742,414,1044,-351},{876,-597,-1321,-1148,1195,-1368,-2247,-60,-3470,-1503,-348,679,-1755,401,1031,-364},{870,-603,-1327,-1154,1189,-1374,-2253,-66,-3476,-1509,-354,673,-1761,395,1025,-370}}},
