//2022-03-06 11:48:18.666129
#ifndef QPAIR_NET_PARAMS_H
#define QPAIR_NET_PARAMS_H

#include <stdint.h>
#include <stdbool.h>

#define GESN 5
#define LEN_LABLE 2
struct Conv1d_Params {
	int batch_size;
	int input_width;
	int in_channels;
	int out_channels;
	int kernel_size;
	int stride_size;
	int padding_front;
	int padding_back;
	int output_width;
	double out_scale;
	};
#define TRUE_LABEL "4 3 "
const double downScalar_1 = 0.0166988865621977;
const elem_t z3_1 = -3;
const elem_t z4_1 = -3;
const elem_t QConv_BN_1[1][3][6][16]=
{{{{-21,25,8,-15,-10,12,27,-86,-29,0,8,17,1,-15,-61,-13},{-41,-33,-21,-5,-16,31,25,15,-35,35,12,-3,16,-40,69,53},{24,-6,-62,0,29,-47,-16,-8,47,12,-9,4,-26,1,-92,-10},{24,39,-9,7,-14,-29,13,-65,-50,45,12,20,16,-10,-29,59},{-34,44,62,-23,-17,-55,-3,22,56,-31,-18,-10,11,27,-65,-69},{26,-43,-42,-2,40,-59,27,26,-30,22,7,-14,-6,0,-43,47}},{{37,49,60,23,26,55,36,-76,47,17,18,-9,4,22,-6,74},{9,24,20,0,-29,28,17,-43,-78,30,19,-14,-11,27,24,17},{-11,47,-74,-11,-15,64,30,-65,32,-22,-19,15,29,20,68,115},{-9,36,-65,-22,20,-54,-12,-20,-68,25,-28,-24,25,-29,-16,83},{45,-43,-61,-20,22,63,30,-26,-49,2,-23,25,0,-6,61,-17},{-19,-42,30,-23,48,-44,-6,-23,43,-4,-10,18,-26,1,-19,-83}},{{-16,-20,27,-7,31,-25,0,23,-13,-1,3,-4,-14,14,-35,30},{1,42,51,2,29,45,-29,-70,-23,-14,-21,23,18,16,-35,-58},{-20,-8,82,20,-3,-33,-4,-63,-53,-21,8,-13,27,-19,-3,66},{-28,4,37,-15,-41,63,26,33,-15,36,16,6,19,-20,-31,-43},{41,-34,33,-14,7,-13,22,-40,-17,45,-16,31,26,32,-27,68},{-17,21,-88,16,24,0,-22,7,-61,38,4,24,0,-8,-21,90}}}};
const acc_t QConv_BN_bias_1[104][1][48][16] = 

{{{{303,-22,-341,-631,405,-834,607,-1461,-534,371,-496,469,308,70,-1667,1297},{295,-30,-349,-639,397,-842,599,-1469,-542,363,-504,461,300,62,-1675,1289},{295,-30,-349,-639,397,-842,599,-1469,-542,363,-504,461,300,62,-1675,1289},{297,-28,-347,-637,399,-840,601,-1467,-540,365,-502,463,302,64,-1673,1291},{297,-28,-347,-637,399,-840,601,-1467,-540,365,-502,463,302,64,-1673,1291},{294,-31,-350,-640,396,-843,598,-1470,-543,362,-505,460,299,61,-1676,1288},{281,-44,-363,-653,383,-856,585,-1483,-556,349,-518,447,286,48,-1689,1275},{244,-81,-400,-690,346,-893,548,-1520,-593,312,-555,410,249,11,-1726,1238},{214,-111,-430,-720,316,-923,518,-1550,-623,282,-585,380,219,-19,-1756,1208},{204,-121,-440,-730,306,-933,508,-1560,-633,272,-595,370,209,-29,-1766,1198},{224,-101,-420,-710,326,-913,528,-1540,-613,292,-575,390,229,-9,-1746,1218},{243,-82,-401,-691,345,-894,547,-1521,-594,311,-556,409,248,10,-1727,1237},{238,-87,-406,-696,340,-899,542,-1526,-599,306,-561,404,243,5,-1732,1232},{216,-109,-428,-718,318,-921,520,-1548,-621,284,-583,382,221,-17,-1754,1210},{183,-142,-461,-751,285,-954,487,-1581,-654,251,-616,349,188,-50,-1787,1177},{161,-164,-483,-773,263,-976,465,-1603,-676,229,-638,327,166,-72,-1809,1155},{145,-180,-499,-789,247,-992,449,-1619,-692,213,-654,311,150,-88,-1825,1139},{134,-191,-510,-800,236,-1003,438,-1630,-703,202,-665,300,139,-99,-1836,1128},{116,-209,-528,-818,218,-1021,420,-1648,-721,184,-683,282,121,-117,-1854,1110},{96,-229,-548,-838,198,-1041,400,-1668,-741,164,-703,262,101,-137,-1874,1090},{79,-246,-565,-855,181,-1058,383,-1685,-758,147,-720,245,84,-154,-1891,1073},{70,-255,-574,-864,172,-1067,374,-1694,-767,138,-729,236,75,-163,-1900,1064},{71,-254,-573,-863,173,-1066,375,-1693,-766,139,-728,237,76,-162,-1899,1065},{61,-264,-583,-873,163,-1076,365,-1703,-776,129,-738,227,66,-172,-1909,1055},{42,-283,-602,-892,144,-1095,346,-1722,-795,110,-757,208,47,-191,-1928,1036},{18,-307,-626,-916,120,-1119,322,-1746,-819,86,-781,184,23,-215,-1952,1012},{7,-318,-637,-927,109,-1130,311,-1757,-830,75,-792,173,12,-226,-1963,1001},{4,-321,-640,-930,106,-1133,308,-1760,-833,72,-795,170,9,-229,-1966,998},{-4,-329,-648,-938,98,-1141,300,-1768,-841,64,-803,162,1,-237,-1974,990},{-16,-341,-660,-950,86,-1153,288,-1780,-853,52,-815,150,-11,-249,-1986,978},{-25,-350,-669,-959,77,-1162,279,-1789,-862,43,-824,141,-20,-258,-1995,969},{-11,-336,-655,-945,91,-1148,293,-1775,-848,57,-810,155,-6,-244,-1981,983},{12,-313,-632,-922,114,-1125,316,-1752,-825,80,-787,178,17,-221,-1958,1006},{36,-289,-608,-898,138,-1101,340,-1728,-801,104,-763,202,41,-197,-1934,1030},{29,-296,-615,-905,131,-1108,333,-1735,-808,97,-770,195,34,-204,-1941,1023},{16,-309,-628,-918,118,-1121,320,-1748,-821,84,-783,182,21,-217,-1954,1010},{-6,-331,-650,-940,96,-1143,298,-1770,-843,62,-805,160,-1,-239,-1976,988},{-7,-332,-651,-941,95,-1144,297,-1771,-844,61,-806,159,-2,-240,-1977,987},{-2,-327,-646,-936,100,-1139,302,-1766,-839,66,-801,164,3,-235,-1972,992},{4,-321,-640,-930,106,-1133,308,-1760,-833,72,-795,170,9,-229,-1966,998},{4,-321,-640,-930,106,-1133,308,-1760,-833,72,-795,170,9,-229,-1966,998},{-10,-335,-654,-944,92,-1147,294,-1774,-847,58,-809,156,-5,-243,-1980,984},{-12,-337,-656,-946,90,-1149,292,-1776,-849,56,-811,154,-7,-245,-1982,982},{-18,-343,-662,-952,84,-1155,286,-1782,-855,50,-817,148,-13,-251,-1988,976},{-19,-344,-663,-953,83,-1156,285,-1783,-856,49,-818,147,-14,-252,-1989,975},{-26,-351,-670,-960,76,-1163,278,-1790,-863,42,-825,140,-21,-259,-1996,968},{-38,-363,-682,-972,64,-1175,266,-1802,-875,30,-837,128,-33,-271,-2008,956},{-37,-362,-681,-971,65,-1174,267,-1801,-874,31,-836,129,-32,-270,-2007,957}}},
{{{295,-30,-349,-639,397,-842,599,-1469,-542,363,-504,461,300,62,-1675,1289},{295,-30,-349,-639,397,-842,599,-1469,-542,363,-504,461,300,62,-1675,1289},{297,-28,-347,-637,399,-840,601,-1467,-540,365,-502,463,302,64,-1673,1291},{297,-28,-347,-637,399,-840,601,-1467,-540,365,-502,463,302,64,-1673,1291},{294,-31,-350,-640,396,-843,598,-1470,-543,362,-505,460,299,61,-1676,1288},{281,-44,-363,-653,383,-856,585,-1483,-556,349,-518,447,286,48,-1689,1275},{244,-81,-400,-690,346,-893,548,-1520,-593,312,-555,410,249,11,-1726,1238},{214,-111,-430,-720,316,-923,518,-1550,-623,282,-585,380,219,-19,-1756,1208},{204,-121,-440,-730,306,-933,508,-1560,-633,272,-595,370,209,-29,-1766,1198},{224,-101,-420,-710,326,-913,528,-1540,-613,292,-575,390,229,-9,-1746,1218},{243,-82,-401,-691,345,-894,547,-1521,-594,311,-556,409,248,10,-1727,1237},{238,-87,-406,-696,340,-899,542,-1526,-599,306,-561,404,243,5,-1732,1232},{216,-109,-428,-718,318,-921,520,-1548,-621,284,-583,382,221,-17,-1754,1210},{183,-142,-461,-751,285,-954,487,-1581,-654,251,-616,349,188,-50,-1787,1177},{161,-164,-483,-773,263,-976,465,-1603,-676,229,-638,327,166,-72,-1809,1155},{145,-180,-499,-789,247,-992,449,-1619,-692,213,-654,311,150,-88,-1825,1139},{134,-191,-510,-800,236,-1003,438,-1630,-703,202,-665,300,139,-99,-1836,1128},{116,-209,-528,-818,218,-1021,420,-1648,-721,184,-683,282,121,-117,-1854,1110},{96,-229,-548,-838,198,-1041,400,-1668,-741,164,-703,262,101,-137,-1874,1090},{79,-246,-565,-855,181,-1058,383,-1685,-758,147,-720,245,84,-154,-1891,1073},{70,-255,-574,-864,172,-1067,374,-1694,-767,138,-729,236,75,-163,-1900,1064},{71,-254,-573,-863,173,-1066,375,-1693,-766,139,-728,237,76,-162,-1899,1065},{61,-264,-583,-873,163,-1076,365,-1703,-776,129,-738,227,66,-172,-1909,1055},{42,-283,-602,-892,144,-1095,346,-1722,-795,110,-757,208,47,-191,-1928,1036},{18,-307,-626,-916,120,-1119,322,-1746,-819,86,-781,184,23,-215,-1952,1012},{7,-318,-637,-927,109,-1130,311,-1757,-830,75,-792,173,12,-226,-1963,1001},{4,-321,-640,-930,106,-1133,308,-1760,-833,72,-795,170,9,-229,-1966,998},{-4,-329,-648,-938,98,-1141,300,-1768,-841,64,-803,162,1,-237,-1974,990},{-16,-341,-660,-950,86,-1153,288,-1780,-853,52,-815,150,-11,-249,-1986,978},{-25,-350,-669,-959,77,-1162,279,-1789,-862,43,-824,141,-20,-258,-1995,969},{-11,-336,-655,-945,91,-1148,293,-1775,-848,57,-810,155,-6,-244,-1981,983},{12,-313,-632,-922,114,-1125,316,-1752,-825,80,-787,178,17,-221,-1958,1006},{36,-289,-608,-898,138,-1101,340,-1728,-801,104,-763,202,41,-197,-1934,1030},{29,-296,-615,-905,131,-1108,333,-1735,-808,97,-770,195,34,-204,-1941,1023},{16,-309,-628,-918,118,-1121,320,-1748,-821,84,-783,182,21,-217,-1954,1010},{-6,-331,-650,-940,96,-1143,298,-1770,-843,62,-805,160,-1,-239,-1976,988},{-7,-332,-651,-941,95,-1144,297,-1771,-844,61,-806,159,-2,-240,-1977,987},{-2,-327,-646,-936,100,-1139,302,-1766,-839,66,-801,164,3,-235,-1972,992},{4,-321,-640,-930,106,-1133,308,-1760,-833,72,-795,170,9,-229,-1966,998},{4,-321,-640,-930,106,-1133,308,-1760,-833,72,-795,170,9,-229,-1966,998},{-10,-335,-654,-944,92,-1147,294,-1774,-847,58,-809,156,-5,-243,-1980,984},{-12,-337,-656,-946,90,-1149,292,-1776,-849,56,-811,154,-7,-245,-1982,982},{-18,-343,-662,-952,84,-1155,286,-1782,-855,50,-817,148,-13,-251,-1988,976},{-19,-344,-663,-953,83,-1156,285,-1783,-856,49,-818,147,-14,-252,-1989,975},{-26,-351,-670,-960,76,-1163,278,-1790,-863,42,-825,140,-21,-259,-1996,968},{-38,-363,-682,-972,64,-1175,266,-1802,-875,30,-837,128,-33,-271,-2008,956},{-37,-362,-681,-971,65,-1174,267,-1801,-874,31,-836,129,-32,-270,-2007,957},{-26,-351,-670,-960,76,-1163,278,-1790,-863,42,-825,140,-21,-259,-1996,968}}},
{{{295,-30,-349,-639,397,-842,599,-1469,-542,363,-504,461,300,62,-1675,1289},{297,-28,-347,-637,399,-840,601,-1467,-540,365,-502,463,302,64,-1673,1291},{297,-28,-347,-637,399,-840,601,-1467,-540,365,-502,463,302,64,-1673,1291},{294,-31,-350,-640,396,-843,598,-1470,-543,362,-505,460,299,61,-1676,1288},{281,-44,-363,-653,383,-856,585,-1483,-556,349,-518,447,286,48,-1689,1275},{244,-81,-400,-690,346,-893,548,-1520,-593,312,-555,410,249,11,-1726,1238},{214,-111,-430,-720,316,-923,518,-1550,-623,282,-585,380,219,-19,-1756,1208},{204,-121,-440,-730,306,-933,508,-1560,-633,272,-595,370,209,-29,-1766,1198},{224,-101,-420,-710,326,-913,528,-1540,-613,292,-575,390,229,-9,-1746,1218},{243,-82,-401,-691,345,-894,547,-1521,-594,311,-556,409,248,10,-1727,1237},{238,-87,-406,-696,340,-899,542,-1526,-599,306,-561,404,243,5,-1732,1232},{216,-109,-428,-718,318,-921,520,-1548,-621,284,-583,382,221,-17,-1754,1210},{183,-142,-461,-751,285,-954,487,-1581,-654,251,-616,349,188,-50,-1787,1177},{161,-164,-483,-773,263,-976,465,-1603,-676,229,-638,327,166,-72,-1809,1155},{145,-180,-499,-789,247,-992,449,-1619,-692,213,-654,311,150,-88,-1825,1139},{134,-191,-510,-800,236,-1003,438,-1630,-703,202,-665,300,139,-99,-1836,1128},{116,-209,-528,-818,218,-1021,420,-1648,-721,184,-683,282,121,-117,-1854,1110},{96,-229,-548,-838,198,-1041,400,-1668,-741,164,-703,262,101,-137,-1874,1090},{79,-246,-565,-855,181,-1058,383,-1685,-758,147,-720,245,84,-154,-1891,1073},{70,-255,-574,-864,172,-1067,374,-1694,-767,138,-729,236,75,-163,-1900,1064},{71,-254,-573,-863,173,-1066,375,-1693,-766,139,-728,237,76,-162,-1899,1065},{61,-264,-583,-873,163,-1076,365,-1703,-776,129,-738,227,66,-172,-1909,1055},{42,-283,-602,-892,144,-1095,346,-1722,-795,110,-757,208,47,-191,-1928,1036},{18,-307,-626,-916,120,-1119,322,-1746,-819,86,-781,184,23,-215,-1952,1012},{7,-318,-637,-927,109,-1130,311,-1757,-830,75,-792,173,12,-226,-1963,1001},{4,-321,-640,-930,106,-1133,308,-1760,-833,72,-795,170,9,-229,-1966,998},{-4,-329,-648,-938,98,-1141,300,-1768,-841,64,-803,162,1,-237,-1974,990},{-16,-341,-660,-950,86,-1153,288,-1780,-853,52,-815,150,-11,-249,-1986,978},{-25,-350,-669,-959,77,-1162,279,-1789,-862,43,-824,141,-20,-258,-1995,969},{-11,-336,-655,-945,91,-1148,293,-1775,-848,57,-810,155,-6,-244,-1981,983},{12,-313,-632,-922,114,-1125,316,-1752,-825,80,-787,178,17,-221,-1958,1006},{36,-289,-608,-898,138,-1101,340,-1728,-801,104,-763,202,41,-197,-1934,1030},{29,-296,-615,-905,131,-1108,333,-1735,-808,97,-770,195,34,-204,-1941,1023},{16,-309,-628,-918,118,-1121,320,-1748,-821,84,-783,182,21,-217,-1954,1010},{-6,-331,-650,-940,96,-1143,298,-1770,-843,62,-805,160,-1,-239,-1976,988},{-7,-332,-651,-941,95,-1144,297,-1771,-844,61,-806,159,-2,-240,-1977,987},{-2,-327,-646,-936,100,-1139,302,-1766,-839,66,-801,164,3,-235,-1972,992},{4,-321,-640,-930,106,-1133,308,-1760,-833,72,-795,170,9,-229,-1966,998},{4,-321,-640,-930,106,-1133,308,-1760,-833,72,-795,170,9,-229,-1966,998},{-10,-335,-654,-944,92,-1147,294,-1774,-847,58,-809,156,-5,-243,-1980,984},{-12,-337,-656,-946,90,-1149,292,-1776,-849,56,-811,154,-7,-245,-1982,982},{-18,-343,-662,-952,84,-1155,286,-1782,-855,50,-817,148,-13,-251,-1988,976},{-19,-344,-663,-953,83,-1156,285,-1783,-856,49,-818,147,-14,-252,-1989,975},{-26,-351,-670,-960,76,-1163,278,-1790,-863,42,-825,140,-21,-259,-1996,968},{-38,-363,-682,-972,64,-1175,266,-1802,-875,30,-837,128,-33,-271,-2008,956},{-37,-362,-681,-971,65,-1174,267,-1801,-874,31,-836,129,-32,-270,-2007,957},{-26,-351,-670,-960,76,-1163,278,-1790,-863,42,-825,140,-21,-259,-1996,968},{-10,-335,-654,-944,92,-1147,294,-1774,-847,58,-809,156,-5,-243,-1980,984}}},
{{{297,-28,-347,-637,399,-840,601,-1467,-540,365,-502,463,302,64,-1673,1291},{297,-28,-347,-637,399,-840,601,-1467,-540,365,-502,463,302,64,-1673,1291},{294,-31,-350,-640,396,-843,598,-1470,-543,362,-505,460,299,61,-1676,1288},{281,-44,-363,-653,383,-856,585,-1483,-556,349,-518,447,286,48,-1689,1275},{244,-81,-400,-690,346,-893,548,-1520,-593,312,-555,410,249,11,-1726,1238},{214,-111,-430,-720,316,-923,518,-1550,-623,282,-585,380,219,-19,-1756,1208},{204,-121,-440,-730,306,-933,508,-1560,-633,272,-595,370,209,-29,-1766,1198},{224,-101,-420,-710,326,-913,528,-1540,-613,292,-575,390,229,-9,-1746,1218},{243,-82,-401,-691,345,-894,547,-1521,-594,311,-556,409,248,10,-1727,1237},{238,-87,-406,-696,340,-899,542,-1526,-599,306,-561,404,243,5,-1732,1232},{216,-109,-428,-718,318,-921,520,-1548,-621,284,-583,382,221,-17,-1754,1210},{183,-142,-461,-751,285,-954,487,-1581,-654,251,-616,349,188,-50,-1787,1177},{161,-164,-483,-773,263,-976,465,-1603,-676,229,-638,327,166,-72,-1809,1155},{145,-180,-499,-789,247,-992,449,-1619,-692,213,-654,311,150,-88,-1825,1139},{134,-191,-510,-800,236,-1003,438,-1630,-703,202,-665,300,139,-99,-1836,1128},{116,-209,-528,-818,218,-1021,420,-1648,-721,184,-683,282,121,-117,-1854,1110},{96,-229,-548,-838,198,-1041,400,-1668,-741,164,-703,262,101,-137,-1874,1090},{79,-246,-565,-855,181,-1058,383,-1685,-758,147,-720,245,84,-154,-1891,1073},{70,-255,-574,-864,172,-1067,374,-1694,-767,138,-729,236,75,-163,-1900,1064},{71,-254,-573,-863,173,-1066,375,-1693,-766,139,-728,237,76,-162,-1899,1065},{61,-264,-583,-873,163,-1076,365,-1703,-776,129,-738,227,66,-172,-1909,1055},{42,-283,-602,-892,144,-1095,346,-1722,-795,110,-757,208,47,-191,-1928,1036},{18,-307,-626,-916,120,-1119,322,-1746,-819,86,-781,184,23,-215,-1952,1012},{7,-318,-637,-927,109,-1130,311,-1757,-830,75,-792,173,12,-226,-1963,1001},{4,-321,-640,-930,106,-1133,308,-1760,-833,72,-795,170,9,-229,-1966,998},{-4,-329,-648,-938,98,-1141,300,-1768,-841,64,-803,162,1,-237,-1974,990},{-16,-341,-660,-950,86,-1153,288,-1780,-853,52,-815,150,-11,-249,-1986,978},{-25,-350,-669,-959,77,-1162,279,-1789,-862,43,-824,141,-20,-258,-1995,969},{-11,-336,-655,-945,91,-1148,293,-1775,-848,57,-810,155,-6,-244,-1981,983},{12,-313,-632,-922,114,-1125,316,-1752,-825,80,-787,178,17,-221,-1958,1006},{36,-289,-608,-898,138,-1101,340,-1728,-801,104,-763,202,41,-197,-1934,1030},{29,-296,-615,-905,131,-1108,333,-1735,-808,97,-770,195,34,-204,-1941,1023},{16,-309,-628,-918,118,-1121,320,-1748,-821,84,-783,182,21,-217,-1954,1010},{-6,-331,-650,-940,96,-1143,298,-1770,-843,62,-805,160,-1,-239,-1976,988},{-7,-332,-651,-941,95,-1144,297,-1771,-844,61,-806,159,-2,-240,-1977,987},{-2,-327,-646,-936,100,-1139,302,-1766,-839,66,-801,164,3,-235,-1972,992},{4,-321,-640,-930,106,-1133,308,-1760,-833,72,-795,170,9,-229,-1966,998},{4,-321,-640,-930,106,-1133,308,-1760,-833,72,-795,170,9,-229,-1966,998},{-10,-335,-654,-944,92,-1147,294,-1774,-847,58,-809,156,-5,-243,-1980,984},{-12,-337,-656,-946,90,-1149,292,-1776,-849,56,-811,154,-7,-245,-1982,982},{-18,-343,-662,-952,84,-1155,286,-1782,-855,50,-817,148,-13,-251,-1988,976},{-19,-344,-663,-953,83,-1156,285,-1783,-856,49,-818,147,-14,-252,-1989,975},{-26,-351,-670,-960,76,-1163,278,-1790,-863,42,-825,140,-21,-259,-1996,968},{-38,-363,-682,-972,64,-1175,266,-1802,-875,30,-837,128,-33,-271,-2008,956},{-37,-362,-681,-971,65,-1174,267,-1801,-874,31,-836,129,-32,-270,-2007,957},{-26,-351,-670,-960,76,-1163,278,-1790,-863,42,-825,140,-21,-259,-1996,968},{-10,-335,-654,-944,92,-1147,294,-1774,-847,58,-809,156,-5,-243,-1980,984},{-8,-333,-652,-942,94,-1145,296,-1772,-845,60,-807,158,-3,-241,-1978,986}}},
{{{297,-28,-347,-637,399,-840,601,-1467,-540,365,-502,463,302,64,-1673,1291},{294,-31,-350,-640,396,-843,598,-1470,-543,362,-505,460,299,61,-1676,1288},{281,-44,-363,-653,383,-856,585,-1483,-556,349,-518,447,286,48,-1689,1275},{244,-81,-400,-690,346,-893,548,-1520,-593,312,-555,410,249,11,-1726,1238},{214,-111,-430,-720,316,-923,518,-1550,-623,282,-585,380,219,-19,-1756,1208},{204,-121,-440,-730,306,-933,508,-1560,-633,272,-595,370,209,-29,-1766,1198},{224,-101,-420,-710,326,-913,528,-1540,-613,292,-575,390,229,-9,-1746,1218},{243,-82,-401,-691,345,-894,547,-1521,-594,311,-556,409,248,10,-1727,1237},{238,-87,-406,-696,340,-899,542,-1526,-599,306,-561,404,243,5,-1732,1232},{216,-109,-428,-718,318,-921,520,-1548,-621,284,-583,382,221,-17,-1754,1210},{183,-142,-461,-751,285,-954,487,-1581,-654,251,-616,349,188,-50,-1787,1177},{161,-164,-483,-773,263,-976,465,-1603,-676,229,-638,327,166,-72,-1809,1155},{145,-180,-499,-789,247,-992,449,-1619,-692,213,-654,311,150,-88,-1825,1139},{134,-191,-510,-800,236,-1003,438,-1630,-703,202,-665,300,139,-99,-1836,1128},{116,-209,-528,-818,218,-1021,420,-1648,-721,184,-683,282,121,-117,-1854,1110},{96,-229,-548,-838,198,-1041,400,-1668,-741,164,-703,262,101,-137,-1874,1090},{79,-246,-565,-855,181,-1058,383,-1685,-758,147,-720,245,84,-154,-1891,1073},{70,-255,-574,-864,172,-1067,374,-1694,-767,138,-729,236,75,-163,-1900,1064},{71,-254,-573,-863,173,-1066,375,-1693,-766,139,-728,237,76,-162,-1899,1065},{61,-264,-583,-873,163,-1076,365,-1703,-776,129,-738,227,66,-172,-1909,1055},{42,-283,-602,-892,144,-1095,346,-1722,-795,110,-757,208,47,-191,-1928,1036},{18,-307,-626,-916,120,-1119,322,-1746,-819,86,-781,184,23,-215,-1952,1012},{7,-318,-637,-927,109,-1130,311,-1757,-830,75,-792,173,12,-226,-1963,1001},{4,-321,-640,-930,106,-1133,308,-1760,-833,72,-795,170,9,-229,-1966,998},{-4,-329,-648,-938,98,-1141,300,-1768,-841,64,-803,162,1,-237,-1974,990},{-16,-341,-660,-950,86,-1153,288,-1780,-853,52,-815,150,-11,-249,-1986,978},{-25,-350,-669,-959,77,-1162,279,-1789,-862,43,-824,141,-20,-258,-1995,969},{-11,-336,-655,-945,91,-1148,293,-1775,-848,57,-810,155,-6,-244,-1981,983},{12,-313,-632,-922,114,-1125,316,-1752,-825,80,-787,178,17,-221,-1958,1006},{36,-289,-608,-898,138,-1101,340,-1728,-801,104,-763,202,41,-197,-1934,1030},{29,-296,-615,-905,131,-1108,333,-1735,-808,97,-770,195,34,-204,-1941,1023},{16,-309,-628,-918,118,-1121,320,-1748,-821,84,-783,182,21,-217,-1954,1010},{-6,-331,-650,-940,96,-1143,298,-1770,-843,62,-805,160,-1,-239,-1976,988},{-7,-332,-651,-941,95,-1144,297,-1771,-844,61,-806,159,-2,-240,-1977,987},{-2,-327,-646,-936,100,-1139,302,-1766,-839,66,-801,164,3,-235,-1972,992},{4,-321,-640,-930,106,-1133,308,-1760,-833,72,-795,170,9,-229,-1966,998},{4,-321,-640,-930,106,-1133,308,-1760,-833,72,-795,170,9,-229,-1966,998},{-10,-335,-654,-944,92,-1147,294,-1774,-847,58,-809,156,-5,-243,-1980,984},{-12,-337,-656,-946,90,-1149,292,-1776,-849,56,-811,154,-7,-245,-1982,982},{-18,-343,-662,-952,84,-1155,286,-1782,-855,50,-817,148,-13,-251,-1988,976},{-19,-344,-663,-953,83,-1156,285,-1783,-856,49,-818,147,-14,-252,-1989,975},{-26,-351,-670,-960,76,-1163,278,-1790,-863,42,-825,140,-21,-259,-1996,968},{-38,-363,-682,-972,64,-1175,266,-1802,-875,30,-837,128,-33,-271,-2008,956},{-37,-362,-681,-971,65,-1174,267,-1801,-874,31,-836,129,-32,-270,-2007,957},{-26,-351,-670,-960,76,-1163,278,-1790,-863,42,-825,140,-21,-259,-1996,968},{-10,-335,-654,-944,92,-1147,294,-1774,-847,58,-809,156,-5,-243,-1980,984},{-8,-333,-652,-942,94,-1145,296,-1772,-845,60,-807,158,-3,-241,-1978,986},{-8,-333,-652,-942,94,-1145,296,-1772,-845,60,-807,158,-3,-241,-1978,986}}},
{{{294,-31,-350,-640,396,-843,598,-1470,-543,362,-505,460,299,61,-1676,1288},{281,-44,-363,-653,383,-856,585,-1483,-556,349,-518,447,286,48,-1689,1275},{244,-81,-400,-690,346,-893,548,-1520,-593,312,-555,410,249,11,-1726,1238},{214,-111,-430,-720,316,-923,518,-1550,-623,282,-585,380,219,-19,-1756,1208},{204,-121,-440,-730,306,-933,508,-1560,-633,272,-595,370,209,-29,-1766,1198},{224,-101,-420,-710,326,-913,528,-1540,-613,292,-575,390,229,-9,-1746,1218},{243,-82,-401,-691,345,-894,547,-1521,-594,311,-556,409,248,10,-1727,1237},{238,-87,-406,-696,340,-899,542,-1526,-599,306,-561,404,243,5,-1732,1232},{216,-109,-428,-718,318,-921,520,-1548,-621,284,-583,382,221,-17,-1754,1210},{183,-142,-461,-751,285,-954,487,-1581,-654,251,-616,349,188,-50,-1787,1177},{161,-164,-483,-773,263,-976,465,-1603,-676,229,-638,327,166,-72,-1809,1155},{145,-180,-499,-789,247,-992,449,-1619,-692,213,-654,311,150,-88,-1825,1139},{134,-191,-510,-800,236,-1003,438,-1630,-703,202,-665,300,139,-99,-1836,1128},{116,-209,-528,-818,218,-1021,420,-1648,-721,184,-683,282,121,-117,-1854,1110},{96,-229,-548,-838,198,-1041,400,-1668,-741,164,-703,262,101,-137,-1874,1090},{79,-246,-565,-855,181,-1058,383,-1685,-758,147,-720,245,84,-154,-1891,1073},{70,-255,-574,-864,172,-1067,374,-1694,-767,138,-729,236,75,-163,-1900,1064},{71,-254,-573,-863,173,-1066,375,-1693,-766,139,-728,237,76,-162,-1899,1065},{61,-264,-583,-873,163,-1076,365,-1703,-776,129,-738,227,66,-172,-1909,1055},{42,-283,-602,-892,144,-1095,346,-1722,-795,110,-757,208,47,-191,-1928,1036},{18,-307,-626,-916,120,-1119,322,-1746,-819,86,-781,184,23,-215,-1952,1012},{7,-318,-637,-927,109,-1130,311,-1757,-830,75,-792,173,12,-226,-1963,1001},{4,-321,-640,-930,106,-1133,308,-1760,-833,72,-795,170,9,-229,-1966,998},{-4,-329,-648,-938,98,-1141,300,-1768,-841,64,-803,162,1,-237,-1974,990},{-16,-341,-660,-950,86,-1153,288,-1780,-853,52,-815,150,-11,-249,-1986,978},{-25,-350,-669,-959,77,-1162,279,-1789,-862,43,-824,141,-20,-258,-1995,969},{-11,-336,-655,-945,91,-1148,293,-1775,-848,57,-810,155,-6,-244,-1981,983},{12,-313,-632,-922,114,-1125,316,-1752,-825,80,-787,178,17,-221,-1958,1006},{36,-289,-608,-898,138,-1101,340,-1728,-801,104,-763,202,41,-197,-1934,1030},{29,-296,-615,-905,131,-1108,333,-1735,-808,97,-770,195,34,-204,-1941,1023},{16,-309,-628,-918,118,-1121,320,-1748,-821,84,-783,182,21,-217,-1954,1010},{-6,-331,-650,-940,96,-1143,298,-1770,-843,62,-805,160,-1,-239,-1976,988},{-7,-332,-651,-941,95,-1144,297,-1771,-844,61,-806,159,-2,-240,-1977,987},{-2,-327,-646,-936,100,-1139,302,-1766,-839,66,-801,164,3,-235,-1972,992},{4,-321,-640,-930,106,-1133,308,-1760,-833,72,-795,170,9,-229,-1966,998},{4,-321,-640,-930,106,-1133,308,-1760,-833,72,-795,170,9,-229,-1966,998},{-10,-335,-654,-944,92,-1147,294,-1774,-847,58,-809,156,-5,-243,-1980,984},{-12,-337,-656,-946,90,-1149,292,-1776,-849,56,-811,154,-7,-245,-1982,982},{-18,-343,-662,-952,84,-1155,286,-1782,-855,50,-817,148,-13,-251,-1988,976},{-19,-344,-663,-953,83,-1156,285,-1783,-856,49,-818,147,-14,-252,-1989,975},{-26,-351,-670,-960,76,-1163,278,-1790,-863,42,-825,140,-21,-259,-1996,968},{-38,-363,-682,-972,64,-1175,266,-1802,-875,30,-837,128,-33,-271,-2008,956},{-37,-362,-681,-971,65,-1174,267,-1801,-874,31,-836,129,-32,-270,-2007,957},{-26,-351,-670,-960,76,-1163,278,-1790,-863,42,-825,140,-21,-259,-1996,968},{-10,-335,-654,-944,92,-1147,294,-1774,-847,58,-809,156,-5,-243,-1980,984},{-8,-333,-652,-942,94,-1145,296,-1772,-845,60,-807,158,-3,-241,-1978,986},{-8,-333,-652,-942,94,-1145,296,-1772,-845,60,-807,158,-3,-241,-1978,986},{7,-318,-637,-927,109,-1130,311,-1757,-830,75,-792,173,12,-226,-1963,1001}}},
{{{281,-44,-363,-653,383,-856,585,-1483,-556,349,-518,447,286,48,-1689,1275},{244,-81,-400,-690,346,-893,548,-1520,-593,312,-555,410,249,11,-1726,1238},{214,-111,-430,-720,316,-923,518,-1550,-623,282,-585,380,219,-19,-1756,1208},{204,-121,-440,-730,306,-933,508,-1560,-633,272,-595,370,209,-29,-1766,1198},{224,-101,-420,-710,326,-913,528,-1540,-613,292,-575,390,229,-9,-1746,1218},{243,-82,-401,-691,345,-894,547,-1521,-594,311,-556,409,248,10,-1727,1237},{238,-87,-406,-696,340,-899,542,-1526,-599,306,-561,404,243,5,-1732,1232},{216,-109,-428,-718,318,-921,520,-1548,-621,284,-583,382,221,-17,-1754,1210},{183,-142,-461,-751,285,-954,487,-1581,-654,251,-616,349,188,-50,-1787,1177},{161,-164,-483,-773,263,-976,465,-1603,-676,229,-638,327,166,-72,-1809,1155},{145,-180,-499,-789,247,-992,449,-1619,-692,213,-654,311,150,-88,-1825,1139},{134,-191,-510,-800,236,-1003,438,-1630,-703,202,-665,300,139,-99,-1836,1128},{116,-209,-528,-818,218,-1021,420,-1648,-721,184,-683,282,121,-117,-1854,1110},{96,-229,-548,-838,198,-1041,400,-1668,-741,164,-703,262,101,-137,-1874,1090},{79,-246,-565,-855,181,-1058,383,-1685,-758,147,-720,245,84,-154,-1891,1073},{70,-255,-574,-864,172,-1067,374,-1694,-767,138,-729,236,75,-163,-1900,1064},{71,-254,-573,-863,173,-1066,375,-1693,-766,139,-728,237,76,-162,-1899,1065},{61,-264,-583,-873,163,-1076,365,-1703,-776,129,-738,227,66,-172,-1909,1055},{42,-283,-602,-892,144,-1095,346,-1722,-795,110,-757,208,47,-191,-1928,1036},{18,-307,-626,-916,120,-1119,322,-1746,-819,86,-781,184,23,-215,-1952,1012},{7,-318,-637,-927,109,-1130,311,-1757,-830,75,-792,173,12,-226,-1963,1001},{4,-321,-640,-930,106,-1133,308,-1760,-833,72,-795,170,9,-229,-1966,998},{-4,-329,-648,-938,98,-1141,300,-1768,-841,64,-803,162,1,-237,-1974,990},{-16,-341,-660,-950,86,-1153,288,-1780,-853,52,-815,150,-11,-249,-1986,978},{-25,-350,-669,-959,77,-1162,279,-1789,-862,43,-824,141,-20,-258,-1995,969},{-11,-336,-655,-945,91,-1148,293,-1775,-848,57,-810,155,-6,-244,-1981,983},{12,-313,-632,-922,114,-1125,316,-1752,-825,80,-787,178,17,-221,-1958,1006},{36,-289,-608,-898,138,-1101,340,-1728,-801,104,-763,202,41,-197,-1934,1030},{29,-296,-615,-905,131,-1108,333,-1735,-808,97,-770,195,34,-204,-1941,1023},{16,-309,-628,-918,118,-1121,320,-1748,-821,84,-783,182,21,-217,-1954,1010},{-6,-331,-650,-940,96,-1143,298,-1770,-843,62,-805,160,-1,-239,-1976,988},{-7,-332,-651,-941,95,-1144,297,-1771,-844,61,-806,159,-2,-240,-1977,987},{-2,-327,-646,-936,100,-1139,302,-1766,-839,66,-801,164,3,-235,-1972,992},{4,-321,-640,-930,106,-1133,308,-1760,-833,72,-795,170,9,-229,-1966,998},{4,-321,-640,-930,106,-1133,308,-1760,-833,72,-795,170,9,-229,-1966,998},{-10,-335,-654,-944,92,-1147,294,-1774,-847,58,-809,156,-5,-243,-1980,984},{-12,-337,-656,-946,90,-1149,292,-1776,-849,56,-811,154,-7,-245,-1982,982},{-18,-343,-662,-952,84,-1155,286,-1782,-855,50,-817,148,-13,-251,-1988,976},{-19,-344,-663,-953,83,-1156,285,-1783,-856,49,-818,147,-14,-252,-1989,975},{-26,-351,-670,-960,76,-1163,278,-1790,-863,42,-825,140,-21,-259,-1996,968},{-38,-363,-682,-972,64,-1175,266,-1802,-875,30,-837,128,-33,-271,-2008,956},{-37,-362,-681,-971,65,-1174,267,-1801,-874,31,-836,129,-32,-270,-2007,957},{-26,-351,-670,-960,76,-1163,278,-1790,-863,42,-825,140,-21,-259,-1996,968},{-10,-335,-654,-944,92,-1147,294,-1774,-847,58,-809,156,-5,-243,-1980,984},{-8,-333,-652,-942,94,-1145,296,-1772,-845,60,-807,158,-3,-241,-1978,986},{-8,-333,-652,-942,94,-1145,296,-1772,-845,60,-807,158,-3,-241,-1978,986},{7,-318,-637,-927,109,-1130,311,-1757,-830,75,-792,173,12,-226,-1963,1001},{27,-298,-617,-907,129,-1110,331,-1737,-810,95,-772,193,32,-206,-1943,1021}}},
{{{244,-81,-400,-690,346,-893,548,-1520,-593,312,-555,410,249,11,-1726,1238},{214,-111,-430,-720,316,-923,518,-1550,-623,282,-585,380,219,-19,-1756,1208},{204,-121,-440,-730,306,-933,508,-1560,-633,272,-595,370,209,-29,-1766,1198},{224,-101,-420,-710,326,-913,528,-1540,-613,292,-575,390,229,-9,-1746,1218},{243,-82,-401,-691,345,-894,547,-1521,-594,311,-556,409,248,10,-1727,1237},{238,-87,-406,-696,340,-899,542,-1526,-599,306,-561,404,243,5,-1732,1232},{216,-109,-428,-718,318,-921,520,-1548,-621,284,-583,382,221,-17,-1754,1210},{183,-142,-461,-751,285,-954,487,-1581,-654,251,-616,349,188,-50,-1787,1177},{161,-164,-483,-773,263,-976,465,-1603,-676,229,-638,327,166,-72,-1809,1155},{145,-180,-499,-789,247,-992,449,-1619,-692,213,-654,311,150,-88,-1825,1139},{134,-191,-510,-800,236,-1003,438,-1630,-703,202,-665,300,139,-99,-1836,1128},{116,-209,-528,-818,218,-1021,420,-1648,-721,184,-683,282,121,-117,-1854,1110},{96,-229,-548,-838,198,-1041,400,-1668,-741,164,-703,262,101,-137,-1874,1090},{79,-246,-565,-855,181,-1058,383,-1685,-758,147,-720,245,84,-154,-1891,1073},{70,-255,-574,-864,172,-1067,374,-1694,-767,138,-729,236,75,-163,-1900,1064},{71,-254,-573,-863,173,-1066,375,-1693,-766,139,-728,237,76,-162,-1899,1065},{61,-264,-583,-873,163,-1076,365,-1703,-776,129,-738,227,66,-172,-1909,1055},{42,-283,-602,-892,144,-1095,346,-1722,-795,110,-757,208,47,-191,-1928,1036},{18,-307,-626,-916,120,-1119,322,-1746,-819,86,-781,184,23,-215,-1952,1012},{7,-318,-637,-927,109,-1130,311,-1757,-830,75,-792,173,12,-226,-1963,1001},{4,-321,-640,-930,106,-1133,308,-1760,-833,72,-795,170,9,-229,-1966,998},{-4,-329,-648,-938,98,-1141,300,-1768,-841,64,-803,162,1,-237,-1974,990},{-16,-341,-660,-950,86,-1153,288,-1780,-853,52,-815,150,-11,-249,-1986,978},{-25,-350,-669,-959,77,-1162,279,-1789,-862,43,-824,141,-20,-258,-1995,969},{-11,-336,-655,-945,91,-1148,293,-1775,-848,57,-810,155,-6,-244,-1981,983},{12,-313,-632,-922,114,-1125,316,-1752,-825,80,-787,178,17,-221,-1958,1006},{36,-289,-608,-898,138,-1101,340,-1728,-801,104,-763,202,41,-197,-1934,1030},{29,-296,-615,-905,131,-1108,333,-1735,-808,97,-770,195,34,-204,-1941,1023},{16,-309,-628,-918,118,-1121,320,-1748,-821,84,-783,182,21,-217,-1954,1010},{-6,-331,-650,-940,96,-1143,298,-1770,-843,62,-805,160,-1,-239,-1976,988},{-7,-332,-651,-941,95,-1144,297,-1771,-844,61,-806,159,-2,-240,-1977,987},{-2,-327,-646,-936,100,-1139,302,-1766,-839,66,-801,164,3,-235,-1972,992},{4,-321,-640,-930,106,-1133,308,-1760,-833,72,-795,170,9,-229,-1966,998},{4,-321,-640,-930,106,-1133,308,-1760,-833,72,-795,170,9,-229,-1966,998},{-10,-335,-654,-944,92,-1147,294,-1774,-847,58,-809,156,-5,-243,-1980,984},{-12,-337,-656,-946,90,-1149,292,-1776,-849,56,-811,154,-7,-245,-1982,982},{-18,-343,-662,-952,84,-1155,286,-1782,-855,50,-817,148,-13,-251,-1988,976},{-19,-344,-663,-953,83,-1156,285,-1783,-856,49,-818,147,-14,-252,-1989,975},{-26,-351,-670,-960,76,-1163,278,-1790,-863,42,-825,140,-21,-259,-1996,968},{-38,-363,-682,-972,64,-1175,266,-1802,-875,30,-837,128,-33,-271,-2008,956},{-37,-362,-681,-971,65,-1174,267,-1801,-874,31,-836,129,-32,-270,-2007,957},{-26,-351,-670,-960,76,-1163,278,-1790,-863,42,-825,140,-21,-259,-1996,968},{-10,-335,-654,-944,92,-1147,294,-1774,-847,58,-809,156,-5,-243,-1980,984},{-8,-333,-652,-942,94,-1145,296,-1772,-845,60,-807,158,-3,-241,-1978,986},{-8,-333,-652,-942,94,-1145,296,-1772,-845,60,-807,158,-3,-241,-1978,986},{7,-318,-637,-927,109,-1130,311,-1757,-830,75,-792,173,12,-226,-1963,1001},{27,-298,-617,-907,129,-1110,331,-1737,-810,95,-772,193,32,-206,-1943,1021},{46,-279,-598,-888,148,-1091,350,-1718,-791,114,-753,212,51,-187,-1924,1040}}},
{{{214,-111,-430,-720,316,-923,518,-1550,-623,282,-585,380,219,-19,-1756,1208},{204,-121,-440,-730,306,-933,508,-1560,-633,272,-595,370,209,-29,-1766,1198},{224,-101,-420,-710,326,-913,528,-1540,-613,292,-575,390,229,-9,-1746,1218},{243,-82,-401,-691,345,-894,547,-1521,-594,311,-556,409,248,10,-1727,1237},{238,-87,-406,-696,340,-899,542,-1526,-599,306,-561,404,243,5,-1732,1232},{216,-109,-428,-718,318,-921,520,-1548,-621,284,-583,382,221,-17,-1754,1210},{183,-142,-461,-751,285,-954,487,-1581,-654,251,-616,349,188,-50,-1787,1177},{161,-164,-483,-773,263,-976,465,-1603,-676,229,-638,327,166,-72,-1809,1155},{145,-180,-499,-789,247,-992,449,-1619,-692,213,-654,311,150,-88,-1825,1139},{134,-191,-510,-800,236,-1003,438,-1630,-703,202,-665,300,139,-99,-1836,1128},{116,-209,-528,-818,218,-1021,420,-1648,-721,184,-683,282,121,-117,-1854,1110},{96,-229,-548,-838,198,-1041,400,-1668,-741,164,-703,262,101,-137,-1874,1090},{79,-246,-565,-855,181,-1058,383,-1685,-758,147,-720,245,84,-154,-1891,1073},{70,-255,-574,-864,172,-1067,374,-1694,-767,138,-729,236,75,-163,-1900,1064},{71,-254,-573,-863,173,-1066,375,-1693,-766,139,-728,237,76,-162,-1899,1065},{61,-264,-583,-873,163,-1076,365,-1703,-776,129,-738,227,66,-172,-1909,1055},{42,-283,-602,-892,144,-1095,346,-1722,-795,110,-757,208,47,-191,-1928,1036},{18,-307,-626,-916,120,-1119,322,-1746,-819,86,-781,184,23,-215,-1952,1012},{7,-318,-637,-927,109,-1130,311,-1757,-830,75,-792,173,12,-226,-1963,1001},{4,-321,-640,-930,106,-1133,308,-1760,-833,72,-795,170,9,-229,-1966,998},{-4,-329,-648,-938,98,-1141,300,-1768,-841,64,-803,162,1,-237,-1974,990},{-16,-341,-660,-950,86,-1153,288,-1780,-853,52,-815,150,-11,-249,-1986,978},{-25,-350,-669,-959,77,-1162,279,-1789,-862,43,-824,141,-20,-258,-1995,969},{-11,-336,-655,-945,91,-1148,293,-1775,-848,57,-810,155,-6,-244,-1981,983},{12,-313,-632,-922,114,-1125,316,-1752,-825,80,-787,178,17,-221,-1958,1006},{36,-289,-608,-898,138,-1101,340,-1728,-801,104,-763,202,41,-197,-1934,1030},{29,-296,-615,-905,131,-1108,333,-1735,-808,97,-770,195,34,-204,-1941,1023},{16,-309,-628,-918,118,-1121,320,-1748,-821,84,-783,182,21,-217,-1954,1010},{-6,-331,-650,-940,96,-1143,298,-1770,-843,62,-805,160,-1,-239,-1976,988},{-7,-332,-651,-941,95,-1144,297,-1771,-844,61,-806,159,-2,-240,-1977,987},{-2,-327,-646,-936,100,-1139,302,-1766,-839,66,-801,164,3,-235,-1972,992},{4,-321,-640,-930,106,-1133,308,-1760,-833,72,-795,170,9,-229,-1966,998},{4,-321,-640,-930,106,-1133,308,-1760,-833,72,-795,170,9,-229,-1966,998},{-10,-335,-654,-944,92,-1147,294,-1774,-847,58,-809,156,-5,-243,-1980,984},{-12,-337,-656,-946,90,-1149,292,-1776,-849,56,-811,154,-7,-245,-1982,982},{-18,-343,-662,-952,84,-1155,286,-1782,-855,50,-817,148,-13,-251,-1988,976},{-19,-344,-663,-953,83,-1156,285,-1783,-856,49,-818,147,-14,-252,-1989,975},{-26,-351,-670,-960,76,-1163,278,-1790,-863,42,-825,140,-21,-259,-1996,968},{-38,-363,-682,-972,64,-1175,266,-1802,-875,30,-837,128,-33,-271,-2008,956},{-37,-362,-681,-971,65,-1174,267,-1801,-874,31,-836,129,-32,-270,-2007,957},{-26,-351,-670,-960,76,-1163,278,-1790,-863,42,-825,140,-21,-259,-1996,968},{-10,-335,-654,-944,92,-1147,294,-1774,-847,58,-809,156,-5,-243,-1980,984},{-8,-333,-652,-942,94,-1145,296,-1772,-845,60,-807,158,-3,-241,-1978,986},{-8,-333,-652,-942,94,-1145,296,-1772,-845,60,-807,158,-3,-241,-1978,986},{7,-318,-637,-927,109,-1130,311,-1757,-830,75,-792,173,12,-226,-1963,1001},{27,-298,-617,-907,129,-1110,331,-1737,-810,95,-772,193,32,-206,-1943,1021},{46,-279,-598,-888,148,-1091,350,-1718,-791,114,-753,212,51,-187,-1924,1040},{58,-267,-586,-876,160,-1079,362,-1706,-779,126,-741,224,63,-175,-1912,1052}}},
{{{204,-121,-440,-730,306,-933,508,-1560,-633,272,-595,370,209,-29,-1766,1198},{224,-101,-420,-710,326,-913,528,-1540,-613,292,-575,390,229,-9,-1746,1218},{243,-82,-401,-691,345,-894,547,-1521,-594,311,-556,409,248,10,-1727,1237},{238,-87,-406,-696,340,-899,542,-1526,-599,306,-561,404,243,5,-1732,1232},{216,-109,-428,-718,318,-921,520,-1548,-621,284,-583,382,221,-17,-1754,1210},{183,-142,-461,-751,285,-954,487,-1581,-654,251,-616,349,188,-50,-1787,1177},{161,-164,-483,-773,263,-976,465,-1603,-676,229,-638,327,166,-72,-1809,1155},{145,-180,-499,-789,247,-992,449,-1619,-692,213,-654,311,150,-88,-1825,1139},{134,-191,-510,-800,236,-1003,438,-1630,-703,202,-665,300,139,-99,-1836,1128},{116,-209,-528,-818,218,-1021,420,-1648,-721,184,-683,282,121,-117,-1854,1110},{96,-229,-548,-838,198,-1041,400,-1668,-741,164,-703,262,101,-137,-1874,1090},{79,-246,-565,-855,181,-1058,383,-1685,-758,147,-720,245,84,-154,-1891,1073},{70,-255,-574,-864,172,-1067,374,-1694,-767,138,-729,236,75,-163,-1900,1064},{71,-254,-573,-863,173,-1066,375,-1693,-766,139,-728,237,76,-162,-1899,1065},{61,-264,-583,-873,163,-1076,365,-1703,-776,129,-738,227,66,-172,-1909,1055},{42,-283,-602,-892,144,-1095,346,-1722,-795,110,-757,208,47,-191,-1928,1036},{18,-307,-626,-916,120,-1119,322,-1746,-819,86,-781,184,23,-215,-1952,1012},{7,-318,-637,-927,109,-1130,311,-1757,-830,75,-792,173,12,-226,-1963,1001},{4,-321,-640,-930,106,-1133,308,-1760,-833,72,-795,170,9,-229,-1966,998},{-4,-329,-648,-938,98,-1141,300,-1768,-841,64,-803,162,1,-237,-1974,990},{-16,-341,-660,-950,86,-1153,288,-1780,-853,52,-815,150,-11,-249,-1986,978},{-25,-350,-669,-959,77,-1162,279,-1789,-862,43,-824,141,-20,-258,-1995,969},{-11,-336,-655,-945,91,-1148,293,-1775,-848,57,-810,155,-6,-244,-1981,983},{12,-313,-632,-922,114,-1125,316,-1752,-825,80,-787,178,17,-221,-1958,1006},{36,-289,-608,-898,138,-1101,340,-1728,-801,104,-763,202,41,-197,-1934,1030},{29,-296,-615,-905,131,-1108,333,-1735,-808,97,-770,195,34,-204,-1941,1023},{16,-309,-628,-918,118,-1121,320,-1748,-821,84,-783,182,21,-217,-1954,1010},{-6,-331,-650,-940,96,-1143,298,-1770,-843,62,-805,160,-1,-239,-1976,988},{-7,-332,-651,-941,95,-1144,297,-1771,-844,61,-806,159,-2,-240,-1977,987},{-2,-327,-646,-936,100,-1139,302,-1766,-839,66,-801,164,3,-235,-1972,992},{4,-321,-640,-930,106,-1133,308,-1760,-833,72,-795,170,9,-229,-1966,998},{4,-321,-640,-930,106,-1133,308,-1760,-833,72,-795,170,9,-229,-1966,998},{-10,-335,-654,-944,92,-1147,294,-1774,-847,58,-809,156,-5,-243,-1980,984},{-12,-337,-656,-946,90,-1149,292,-1776,-849,56,-811,154,-7,-245,-1982,982},{-18,-343,-662,-952,84,-1155,286,-1782,-855,50,-817,148,-13,-251,-1988,976},{-19,-344,-663,-953,83,-1156,285,-1783,-856,49,-818,147,-14,-252,-1989,975},{-26,-351,-670,-960,76,-1163,278,-1790,-863,42,-825,140,-21,-259,-1996,968},{-38,-363,-682,-972,64,-1175,266,-1802,-875,30,-837,128,-33,-271,-2008,956},{-37,-362,-681,-971,65,-1174,267,-1801,-874,31,-836,129,-32,-270,-2007,957},{-26,-351,-670,-960,76,-1163,278,-1790,-863,42,-825,140,-21,-259,-1996,968},{-10,-335,-654,-944,92,-1147,294,-1774,-847,58,-809,156,-5,-243,-1980,984},{-8,-333,-652,-942,94,-1145,296,-1772,-845,60,-807,158,-3,-241,-1978,986},{-8,-333,-652,-942,94,-1145,296,-1772,-845,60,-807,158,-3,-241,-1978,986},{7,-318,-637,-927,109,-1130,311,-1757,-830,75,-792,173,12,-226,-1963,1001},{27,-298,-617,-907,129,-1110,331,-1737,-810,95,-772,193,32,-206,-1943,1021},{46,-279,-598,-888,148,-1091,350,-1718,-791,114,-753,212,51,-187,-1924,1040},{58,-267,-586,-876,160,-1079,362,-1706,-779,126,-741,224,63,-175,-1912,1052},{74,-251,-570,-860,176,-1063,378,-1690,-763,142,-725,240,79,-159,-1896,1068}}},
{{{224,-101,-420,-710,326,-913,528,-1540,-613,292,-575,390,229,-9,-1746,1218},{243,-82,-401,-691,345,-894,547,-1521,-594,311,-556,409,248,10,-1727,1237},{238,-87,-406,-696,340,-899,542,-1526,-599,306,-561,404,243,5,-1732,1232},{216,-109,-428,-718,318,-921,520,-1548,-621,284,-583,382,221,-17,-1754,1210},{183,-142,-461,-751,285,-954,487,-1581,-654,251,-616,349,188,-50,-1787,1177},{161,-164,-483,-773,263,-976,465,-1603,-676,229,-638,327,166,-72,-1809,1155},{145,-180,-499,-789,247,-992,449,-1619,-692,213,-654,311,150,-88,-1825,1139},{134,-191,-510,-800,236,-1003,438,-1630,-703,202,-665,300,139,-99,-1836,1128},{116,-209,-528,-818,218,-1021,420,-1648,-721,184,-683,282,121,-117,-1854,1110},{96,-229,-548,-838,198,-1041,400,-1668,-741,164,-703,262,101,-137,-1874,1090},{79,-246,-565,-855,181,-1058,383,-1685,-758,147,-720,245,84,-154,-1891,1073},{70,-255,-574,-864,172,-1067,374,-1694,-767,138,-729,236,75,-163,-1900,1064},{71,-254,-573,-863,173,-1066,375,-1693,-766,139,-728,237,76,-162,-1899,1065},{61,-264,-583,-873,163,-1076,365,-1703,-776,129,-738,227,66,-172,-1909,1055},{42,-283,-602,-892,144,-1095,346,-1722,-795,110,-757,208,47,-191,-1928,1036},{18,-307,-626,-916,120,-1119,322,-1746,-819,86,-781,184,23,-215,-1952,1012},{7,-318,-637,-927,109,-1130,311,-1757,-830,75,-792,173,12,-226,-1963,1001},{4,-321,-640,-930,106,-1133,308,-1760,-833,72,-795,170,9,-229,-1966,998},{-4,-329,-648,-938,98,-1141,300,-1768,-841,64,-803,162,1,-237,-1974,990},{-16,-341,-660,-950,86,-1153,288,-1780,-853,52,-815,150,-11,-249,-1986,978},{-25,-350,-669,-959,77,-1162,279,-1789,-862,43,-824,141,-20,-258,-1995,969},{-11,-336,-655,-945,91,-1148,293,-1775,-848,57,-810,155,-6,-244,-1981,983},{12,-313,-632,-922,114,-1125,316,-1752,-825,80,-787,178,17,-221,-1958,1006},{36,-289,-608,-898,138,-1101,340,-1728,-801,104,-763,202,41,-197,-1934,1030},{29,-296,-615,-905,131,-1108,333,-1735,-808,97,-770,195,34,-204,-1941,1023},{16,-309,-628,-918,118,-1121,320,-1748,-821,84,-783,182,21,-217,-1954,1010},{-6,-331,-650,-940,96,-1143,298,-1770,-843,62,-805,160,-1,-239,-1976,988},{-7,-332,-651,-941,95,-1144,297,-1771,-844,61,-806,159,-2,-240,-1977,987},{-2,-327,-646,-936,100,-1139,302,-1766,-839,66,-801,164,3,-235,-1972,992},{4,-321,-640,-930,106,-1133,308,-1760,-833,72,-795,170,9,-229,-1966,998},{4,-321,-640,-930,106,-1133,308,-1760,-833,72,-795,170,9,-229,-1966,998},{-10,-335,-654,-944,92,-1147,294,-1774,-847,58,-809,156,-5,-243,-1980,984},{-12,-337,-656,-946,90,-1149,292,-1776,-849,56,-811,154,-7,-245,-1982,982},{-18,-343,-662,-952,84,-1155,286,-1782,-855,50,-817,148,-13,-251,-1988,976},{-19,-344,-663,-953,83,-1156,285,-1783,-856,49,-818,147,-14,-252,-1989,975},{-26,-351,-670,-960,76,-1163,278,-1790,-863,42,-825,140,-21,-259,-1996,968},{-38,-363,-682,-972,64,-1175,266,-1802,-875,30,-837,128,-33,-271,-2008,956},{-37,-362,-681,-971,65,-1174,267,-1801,-874,31,-836,129,-32,-270,-2007,957},{-26,-351,-670,-960,76,-1163,278,-1790,-863,42,-825,140,-21,-259,-1996,968},{-10,-335,-654,-944,92,-1147,294,-1774,-847,58,-809,156,-5,-243,-1980,984},{-8,-333,-652,-942,94,-1145,296,-1772,-845,60,-807,158,-3,-241,-1978,986},{-8,-333,-652,-942,94,-1145,296,-1772,-845,60,-807,158,-3,-241,-1978,986},{7,-318,-637,-927,109,-1130,311,-1757,-830,75,-792,173,12,-226,-1963,1001},{27,-298,-617,-907,129,-1110,331,-1737,-810,95,-772,193,32,-206,-1943,1021},{46,-279,-598,-888,148,-1091,350,-1718,-791,114,-753,212,51,-187,-1924,1040},{58,-267,-586,-876,160,-1079,362,-1706,-779,126,-741,224,63,-175,-1912,1052},{74,-251,-570,-860,176,-1063,378,-1690,-763,142,-725,240,79,-159,-1896,1068},{86,-239,-558,-848,188,-1051,390,-1678,-751,154,-713,252,91,-147,-1884,1080}}},
{{{243,-82,-401,-691,345,-894,547,-1521,-594,311,-556,409,248,10,-1727,1237},{238,-87,-406,-696,340,-899,542,-1526,-599,306,-561,404,243,5,-1732,1232},{216,-109,-428,-718,318,-921,520,-1548,-621,284,-583,382,221,-17,-1754,1210},{183,-142,-461,-751,285,-954,487,-1581,-654,251,-616,349,188,-50,-1787,1177},{161,-164,-483,-773,263,-976,465,-1603,-676,229,-638,327,166,-72,-1809,1155},{145,-180,-499,-789,247,-992,449,-1619,-692,213,-654,311,150,-88,-1825,1139},{134,-191,-510,-800,236,-1003,438,-1630,-703,202,-665,300,139,-99,-1836,1128},{116,-209,-528,-818,218,-1021,420,-1648,-721,184,-683,282,121,-117,-1854,1110},{96,-229,-548,-838,198,-1041,400,-1668,-741,164,-703,262,101,-137,-1874,1090},{79,-246,-565,-855,181,-1058,383,-1685,-758,147,-720,245,84,-154,-1891,1073},{70,-255,-574,-864,172,-1067,374,-1694,-767,138,-729,236,75,-163,-1900,1064},{71,-254,-573,-863,173,-1066,375,-1693,-766,139,-728,237,76,-162,-1899,1065},{61,-264,-583,-873,163,-1076,365,-1703,-776,129,-738,227,66,-172,-1909,1055},{42,-283,-602,-892,144,-1095,346,-1722,-795,110,-757,208,47,-191,-1928,1036},{18,-307,-626,-916,120,-1119,322,-1746,-819,86,-781,184,23,-215,-1952,1012},{7,-318,-637,-927,109,-1130,311,-1757,-830,75,-792,173,12,-226,-1963,1001},{4,-321,-640,-930,106,-1133,308,-1760,-833,72,-795,170,9,-229,-1966,998},{-4,-329,-648,-938,98,-1141,300,-1768,-841,64,-803,162,1,-237,-1974,990},{-16,-341,-660,-950,86,-1153,288,-1780,-853,52,-815,150,-11,-249,-1986,978},{-25,-350,-669,-959,77,-1162,279,-1789,-862,43,-824,141,-20,-258,-1995,969},{-11,-336,-655,-945,91,-1148,293,-1775,-848,57,-810,155,-6,-244,-1981,983},{12,-313,-632,-922,114,-1125,316,-1752,-825,80,-787,178,17,-221,-1958,1006},{36,-289,-608,-898,138,-1101,340,-1728,-801,104,-763,202,41,-197,-1934,1030},{29,-296,-615,-905,131,-1108,333,-1735,-808,97,-770,195,34,-204,-1941,1023},{16,-309,-628,-918,118,-1121,320,-1748,-821,84,-783,182,21,-217,-1954,1010},{-6,-331,-650,-940,96,-1143,298,-1770,-843,62,-805,160,-1,-239,-1976,988},{-7,-332,-651,-941,95,-1144,297,-1771,-844,61,-806,159,-2,-240,-1977,987},{-2,-327,-646,-936,100,-1139,302,-1766,-839,66,-801,164,3,-235,-1972,992},{4,-321,-640,-930,106,-1133,308,-1760,-833,72,-795,170,9,-229,-1966,998},{4,-321,-640,-930,106,-1133,308,-1760,-833,72,-795,170,9,-229,-1966,998},{-10,-335,-654,-944,92,-1147,294,-1774,-847,58,-809,156,-5,-243,-1980,984},{-12,-337,-656,-946,90,-1149,292,-1776,-849,56,-811,154,-7,-245,-1982,982},{-18,-343,-662,-952,84,-1155,286,-1782,-855,50,-817,148,-13,-251,-1988,976},{-19,-344,-663,-953,83,-1156,285,-1783,-856,49,-818,147,-14,-252,-1989,975},{-26,-351,-670,-960,76,-1163,278,-1790,-863,42,-825,140,-21,-259,-1996,968},{-38,-363,-682,-972,64,-1175,266,-1802,-875,30,-837,128,-33,-271,-2008,956},{-37,-362,-681,-971,65,-1174,267,-1801,-874,31,-836,129,-32,-270,-2007,957},{-26,-351,-670,-960,76,-1163,278,-1790,-863,42,-825,140,-21,-259,-1996,968},{-10,-335,-654,-944,92,-1147,294,-1774,-847,58,-809,156,-5,-243,-1980,984},{-8,-333,-652,-942,94,-1145,296,-1772,-845,60,-807,158,-3,-241,-1978,986},{-8,-333,-652,-942,94,-1145,296,-1772,-845,60,-807,158,-3,-241,-1978,986},{7,-318,-637,-927,109,-1130,311,-1757,-830,75,-792,173,12,-226,-1963,1001},{27,-298,-617,-907,129,-1110,331,-1737,-810,95,-772,193,32,-206,-1943,1021},{46,-279,-598,-888,148,-1091,350,-1718,-791,114,-753,212,51,-187,-1924,1040},{58,-267,-586,-876,160,-1079,362,-1706,-779,126,-741,224,63,-175,-1912,1052},{74,-251,-570,-860,176,-1063,378,-1690,-763,142,-725,240,79,-159,-1896,1068},{86,-239,-558,-848,188,-1051,390,-1678,-751,154,-713,252,91,-147,-1884,1080},{96,-229,-548,-838,198,-1041,400,-1668,-741,164,-703,262,101,-137,-1874,1090}}},
{{{238,-87,-406,-696,340,-899,542,-1526,-599,306,-561,404,243,5,-1732,1232},{216,-109,-428,-718,318,-921,520,-1548,-621,284,-583,382,221,-17,-1754,1210},{183,-142,-461,-751,285,-954,487,-1581,-654,251,-616,349,188,-50,-1787,1177},{161,-164,-483,-773,263,-976,465,-1603,-676,229,-638,327,166,-72,-1809,1155},{145,-180,-499,-789,247,-992,449,-1619,-692,213,-654,311,150,-88,-1825,1139},{134,-191,-510,-800,236,-1003,438,-1630,-703,202,-665,300,139,-99,-1836,1128},{116,-209,-528,-818,218,-1021,420,-1648,-721,184,-683,282,121,-117,-1854,1110},{96,-229,-548,-838,198,-1041,400,-1668,-741,164,-703,262,101,-137,-1874,1090},{79,-246,-565,-855,181,-1058,383,-1685,-758,147,-720,245,84,-154,-1891,1073},{70,-255,-574,-864,172,-1067,374,-1694,-767,138,-729,236,75,-163,-1900,1064},{71,-254,-573,-863,173,-1066,375,-1693,-766,139,-728,237,76,-162,-1899,1065},{61,-264,-583,-873,163,-1076,365,-1703,-776,129,-738,227,66,-172,-1909,1055},{42,-283,-602,-892,144,-1095,346,-1722,-795,110,-757,208,47,-191,-1928,1036},{18,-307,-626,-916,120,-1119,322,-1746,-819,86,-781,184,23,-215,-1952,1012},{7,-318,-637,-927,109,-1130,311,-1757,-830,75,-792,173,12,-226,-1963,1001},{4,-321,-640,-930,106,-1133,308,-1760,-833,72,-795,170,9,-229,-1966,998},{-4,-329,-648,-938,98,-1141,300,-1768,-841,64,-803,162,1,-237,-1974,990},{-16,-341,-660,-950,86,-1153,288,-1780,-853,52,-815,150,-11,-249,-1986,978},{-25,-350,-669,-959,77,-1162,279,-1789,-862,43,-824,141,-20,-258,-1995,969},{-11,-336,-655,-945,91,-1148,293,-1775,-848,57,-810,155,-6,-244,-1981,983},{12,-313,-632,-922,114,-1125,316,-1752,-825,80,-787,178,17,-221,-1958,1006},{36,-289,-608,-898,138,-1101,340,-1728,-801,104,-763,202,41,-197,-1934,1030},{29,-296,-615,-905,131,-1108,333,-1735,-808,97,-770,195,34,-204,-1941,1023},{16,-309,-628,-918,118,-1121,320,-1748,-821,84,-783,182,21,-217,-1954,1010},{-6,-331,-650,-940,96,-1143,298,-1770,-843,62,-805,160,-1,-239,-1976,988},{-7,-332,-651,-941,95,-1144,297,-1771,-844,61,-806,159,-2,-240,-1977,987},{-2,-327,-646,-936,100,-1139,302,-1766,-839,66,-801,164,3,-235,-1972,992},{4,-321,-640,-930,106,-1133,308,-1760,-833,72,-795,170,9,-229,-1966,998},{4,-321,-640,-930,106,-1133,308,-1760,-833,72,-795,170,9,-229,-1966,998},{-10,-335,-654,-944,92,-1147,294,-1774,-847,58,-809,156,-5,-243,-1980,984},{-12,-337,-656,-946,90,-1149,292,-1776,-849,56,-811,154,-7,-245,-1982,982},{-18,-343,-662,-952,84,-1155,286,-1782,-855,50,-817,148,-13,-251,-1988,976},{-19,-344,-663,-953,83,-1156,285,-1783,-856,49,-818,147,-14,-252,-1989,975},{-26,-351,-670,-960,76,-1163,278,-1790,-863,42,-825,140,-21,-259,-1996,968},{-38,-363,-682,-972,64,-1175,266,-1802,-875,30,-837,128,-33,-271,-2008,956},{-37,-362,-681,-971,65,-1174,267,-1801,-874,31,-836,129,-32,-270,-2007,957},{-26,-351,-670,-960,76,-1163,278,-1790,-863,42,-825,140,-21,-259,-1996,968},{-10,-335,-654,-944,92,-1147,294,-1774,-847,58,-809,156,-5,-243,-1980,984},{-8,-333,-652,-942,94,-1145,296,-1772,-845,60,-807,158,-3,-241,-1978,986},{-8,-333,-652,-942,94,-1145,296,-1772,-845,60,-807,158,-3,-241,-1978,986},{7,-318,-637,-927,109,-1130,311,-1757,-830,75,-792,173,12,-226,-1963,1001},{27,-298,-617,-907,129,-1110,331,-1737,-810,95,-772,193,32,-206,-1943,1021},{46,-279,-598,-888,148,-1091,350,-1718,-791,114,-753,212,51,-187,-1924,1040},{58,-267,-586,-876,160,-1079,362,-1706,-779,126,-741,224,63,-175,-1912,1052},{74,-251,-570,-860,176,-1063,378,-1690,-763,142,-725,240,79,-159,-1896,1068},{86,-239,-558,-848,188,-1051,390,-1678,-751,154,-713,252,91,-147,-1884,1080},{96,-229,-548,-838,198,-1041,400,-1668,-741,164,-703,262,101,-137,-1874,1090},{111,-214,-533,-823,213,-1026,415,-1653,-726,179,-688,277,116,-122,-1859,1105}}},
{{{216,-109,-428,-718,318,-921,520,-1548,-621,284,-583,382,221,-17,-1754,1210},{183,-142,-461,-751,285,-954,487,-1581,-654,251,-616,349,188,-50,-1787,1177},{161,-164,-483,-773,263,-976,465,-1603,-676,229,-638,327,166,-72,-1809,1155},{145,-180,-499,-789,247,-992,449,-1619,-692,213,-654,311,150,-88,-1825,1139},{134,-191,-510,-800,236,-1003,438,-1630,-703,202,-665,300,139,-99,-1836,1128},{116,-209,-528,-818,218,-1021,420,-1648,-721,184,-683,282,121,-117,-1854,1110},{96,-229,-548,-838,198,-1041,400,-1668,-741,164,-703,262,101,-137,-1874,1090},{79,-246,-565,-855,181,-1058,383,-1685,-758,147,-720,245,84,-154,-1891,1073},{70,-255,-574,-864,172,-1067,374,-1694,-767,138,-729,236,75,-163,-1900,1064},{71,-254,-573,-863,173,-1066,375,-1693,-766,139,-728,237,76,-162,-1899,1065},{61,-264,-583,-873,163,-1076,365,-1703,-776,129,-738,227,66,-172,-1909,1055},{42,-283,-602,-892,144,-1095,346,-1722,-795,110,-757,208,47,-191,-1928,1036},{18,-307,-626,-916,120,-1119,322,-1746,-819,86,-781,184,23,-215,-1952,1012},{7,-318,-637,-927,109,-1130,311,-1757,-830,75,-792,173,12,-226,-1963,1001},{4,-321,-640,-930,106,-1133,308,-1760,-833,72,-795,170,9,-229,-1966,998},{-4,-329,-648,-938,98,-1141,300,-1768,-841,64,-803,162,1,-237,-1974,990},{-16,-341,-660,-950,86,-1153,288,-1780,-853,52,-815,150,-11,-249,-1986,978},{-25,-350,-669,-959,77,-1162,279,-1789,-862,43,-824,141,-20,-258,-1995,969},{-11,-336,-655,-945,91,-1148,293,-1775,-848,57,-810,155,-6,-244,-1981,983},{12,-313,-632,-922,114,-1125,316,-1752,-825,80,-787,178,17,-221,-1958,1006},{36,-289,-608,-898,138,-1101,340,-1728,-801,104,-763,202,41,-197,-1934,1030},{29,-296,-615,-905,131,-1108,333,-1735,-808,97,-770,195,34,-204,-1941,1023},{16,-309,-628,-918,118,-1121,320,-1748,-821,84,-783,182,21,-217,-1954,1010},{-6,-331,-650,-940,96,-1143,298,-1770,-843,62,-805,160,-1,-239,-1976,988},{-7,-332,-651,-941,95,-1144,297,-1771,-844,61,-806,159,-2,-240,-1977,987},{-2,-327,-646,-936,100,-1139,302,-1766,-839,66,-801,164,3,-235,-1972,992},{4,-321,-640,-930,106,-1133,308,-1760,-833,72,-795,170,9,-229,-1966,998},{4,-321,-640,-930,106,-1133,308,-1760,-833,72,-795,170,9,-229,-1966,998},{-10,-335,-654,-944,92,-1147,294,-1774,-847,58,-809,156,-5,-243,-1980,984},{-12,-337,-656,-946,90,-1149,292,-1776,-849,56,-811,154,-7,-245,-1982,982},{-18,-343,-662,-952,84,-1155,286,-1782,-855,50,-817,148,-13,-251,-1988,976},{-19,-344,-663,-953,83,-1156,285,-1783,-856,49,-818,147,-14,-252,-1989,975},{-26,-351,-670,-960,76,-1163,278,-1790,-863,42,-825,140,-21,-259,-1996,968},{-38,-363,-682,-972,64,-1175,266,-1802,-875,30,-837,128,-33,-271,-2008,956},{-37,-362,-681,-971,65,-1174,267,-1801,-874,31,-836,129,-32,-270,-2007,957},{-26,-351,-670,-960,76,-1163,278,-1790,-863,42,-825,140,-21,-259,-1996,968},{-10,-335,-654,-944,92,-1147,294,-1774,-847,58,-809,156,-5,-243,-1980,984},{-8,-333,-652,-942,94,-1145,296,-1772,-845,60,-807,158,-3,-241,-1978,986},{-8,-333,-652,-942,94,-1145,296,-1772,-845,60,-807,158,-3,-241,-1978,986},{7,-318,-637,-927,109,-1130,311,-1757,-830,75,-792,173,12,-226,-1963,1001},{27,-298,-617,-907,129,-1110,331,-1737,-810,95,-772,193,32,-206,-1943,1021},{46,-279,-598,-888,148,-1091,350,-1718,-791,114,-753,212,51,-187,-1924,1040},{58,-267,-586,-876,160,-1079,362,-1706,-779,126,-741,224,63,-175,-1912,1052},{74,-251,-570,-860,176,-1063,378,-1690,-763,142,-725,240,79,-159,-1896,1068},{86,-239,-558,-848,188,-1051,390,-1678,-751,154,-713,252,91,-147,-1884,1080},{96,-229,-548,-838,198,-1041,400,-1668,-741,164,-703,262,101,-137,-1874,1090},{111,-214,-533,-823,213,-1026,415,-1653,-726,179,-688,277,116,-122,-1859,1105},{142,-183,-502,-792,244,-995,446,-1622,-695,210,-657,308,147,-91,-1828,1136}}},
{{{183,-142,-461,-751,285,-954,487,-1581,-654,251,-616,349,188,-50,-1787,1177},{161,-164,-483,-773,263,-976,465,-1603,-676,229,-638,327,166,-72,-1809,1155},{145,-180,-499,-789,247,-992,449,-1619,-692,213,-654,311,150,-88,-1825,1139},{134,-191,-510,-800,236,-1003,438,-1630,-703,202,-665,300,139,-99,-1836,1128},{116,-209,-528,-818,218,-1021,420,-1648,-721,184,-683,282,121,-117,-1854,1110},{96,-229,-548,-838,198,-1041,400,-1668,-741,164,-703,262,101,-137,-1874,1090},{79,-246,-565,-855,181,-1058,383,-1685,-758,147,-720,245,84,-154,-1891,1073},{70,-255,-574,-864,172,-1067,374,-1694,-767,138,-729,236,75,-163,-1900,1064},{71,-254,-573,-863,173,-1066,375,-1693,-766,139,-728,237,76,-162,-1899,1065},{61,-264,-583,-873,163,-1076,365,-1703,-776,129,-738,227,66,-172,-1909,1055},{42,-283,-602,-892,144,-1095,346,-1722,-795,110,-757,208,47,-191,-1928,1036},{18,-307,-626,-916,120,-1119,322,-1746,-819,86,-781,184,23,-215,-1952,1012},{7,-318,-637,-927,109,-1130,311,-1757,-830,75,-792,173,12,-226,-1963,1001},{4,-321,-640,-930,106,-1133,308,-1760,-833,72,-795,170,9,-229,-1966,998},{-4,-329,-648,-938,98,-1141,300,-1768,-841,64,-803,162,1,-237,-1974,990},{-16,-341,-660,-950,86,-1153,288,-1780,-853,52,-815,150,-11,-249,-1986,978},{-25,-350,-669,-959,77,-1162,279,-1789,-862,43,-824,141,-20,-258,-1995,969},{-11,-336,-655,-945,91,-1148,293,-1775,-848,57,-810,155,-6,-244,-1981,983},{12,-313,-632,-922,114,-1125,316,-1752,-825,80,-787,178,17,-221,-1958,1006},{36,-289,-608,-898,138,-1101,340,-1728,-801,104,-763,202,41,-197,-1934,1030},{29,-296,-615,-905,131,-1108,333,-1735,-808,97,-770,195,34,-204,-1941,1023},{16,-309,-628,-918,118,-1121,320,-1748,-821,84,-783,182,21,-217,-1954,1010},{-6,-331,-650,-940,96,-1143,298,-1770,-843,62,-805,160,-1,-239,-1976,988},{-7,-332,-651,-941,95,-1144,297,-1771,-844,61,-806,159,-2,-240,-1977,987},{-2,-327,-646,-936,100,-1139,302,-1766,-839,66,-801,164,3,-235,-1972,992},{4,-321,-640,-930,106,-1133,308,-1760,-833,72,-795,170,9,-229,-1966,998},{4,-321,-640,-930,106,-1133,308,-1760,-833,72,-795,170,9,-229,-1966,998},{-10,-335,-654,-944,92,-1147,294,-1774,-847,58,-809,156,-5,-243,-1980,984},{-12,-337,-656,-946,90,-1149,292,-1776,-849,56,-811,154,-7,-245,-1982,982},{-18,-343,-662,-952,84,-1155,286,-1782,-855,50,-817,148,-13,-251,-1988,976},{-19,-344,-663,-953,83,-1156,285,-1783,-856,49,-818,147,-14,-252,-1989,975},{-26,-351,-670,-960,76,-1163,278,-1790,-863,42,-825,140,-21,-259,-1996,968},{-38,-363,-682,-972,64,-1175,266,-1802,-875,30,-837,128,-33,-271,-2008,956},{-37,-362,-681,-971,65,-1174,267,-1801,-874,31,-836,129,-32,-270,-2007,957},{-26,-351,-670,-960,76,-1163,278,-1790,-863,42,-825,140,-21,-259,-1996,968},{-10,-335,-654,-944,92,-1147,294,-1774,-847,58,-809,156,-5,-243,-1980,984},{-8,-333,-652,-942,94,-1145,296,-1772,-845,60,-807,158,-3,-241,-1978,986},{-8,-333,-652,-942,94,-1145,296,-1772,-845,60,-807,158,-3,-241,-1978,986},{7,-318,-637,-927,109,-1130,311,-1757,-830,75,-792,173,12,-226,-1963,1001},{27,-298,-617,-907,129,-1110,331,-1737,-810,95,-772,193,32,-206,-1943,1021},{46,-279,-598,-888,148,-1091,350,-1718,-791,114,-753,212,51,-187,-1924,1040},{58,-267,-586,-876,160,-1079,362,-1706,-779,126,-741,224,63,-175,-1912,1052},{74,-251,-570,-860,176,-1063,378,-1690,-763,142,-725,240,79,-159,-1896,1068},{86,-239,-558,-848,188,-1051,390,-1678,-751,154,-713,252,91,-147,-1884,1080},{96,-229,-548,-838,198,-1041,400,-1668,-741,164,-703,262,101,-137,-1874,1090},{111,-214,-533,-823,213,-1026,415,-1653,-726,179,-688,277,116,-122,-1859,1105},{142,-183,-502,-792,244,-995,446,-1622,-695,210,-657,308,147,-91,-1828,1136},{190,-135,-454,-744,292,-947,494,-1574,-647,258,-609,356,195,-43,-1780,1184}}},
{{{161,-164,-483,-773,263,-976,465,-1603,-676,229,-638,327,166,-72,-1809,1155},{145,-180,-499,-789,247,-992,449,-1619,-692,213,-654,311,150,-88,-1825,1139},{134,-191,-510,-800,236,-1003,438,-1630,-703,202,-665,300,139,-99,-1836,1128},{116,-209,-528,-818,218,-1021,420,-1648,-721,184,-683,282,121,-117,-1854,1110},{96,-229,-548,-838,198,-1041,400,-1668,-741,164,-703,262,101,-137,-1874,1090},{79,-246,-565,-855,181,-1058,383,-1685,-758,147,-720,245,84,-154,-1891,1073},{70,-255,-574,-864,172,-1067,374,-1694,-767,138,-729,236,75,-163,-1900,1064},{71,-254,-573,-863,173,-1066,375,-1693,-766,139,-728,237,76,-162,-1899,1065},{61,-264,-583,-873,163,-1076,365,-1703,-776,129,-738,227,66,-172,-1909,1055},{42,-283,-602,-892,144,-1095,346,-1722,-795,110,-757,208,47,-191,-1928,1036},{18,-307,-626,-916,120,-1119,322,-1746,-819,86,-781,184,23,-215,-1952,1012},{7,-318,-637,-927,109,-1130,311,-1757,-830,75,-792,173,12,-226,-1963,1001},{4,-321,-640,-930,106,-1133,308,-1760,-833,72,-795,170,9,-229,-1966,998},{-4,-329,-648,-938,98,-1141,300,-1768,-841,64,-803,162,1,-237,-1974,990},{-16,-341,-660,-950,86,-1153,288,-1780,-853,52,-815,150,-11,-249,-1986,978},{-25,-350,-669,-959,77,-1162,279,-1789,-862,43,-824,141,-20,-258,-1995,969},{-11,-336,-655,-945,91,-1148,293,-1775,-848,57,-810,155,-6,-244,-1981,983},{12,-313,-632,-922,114,-1125,316,-1752,-825,80,-787,178,17,-221,-1958,1006},{36,-289,-608,-898,138,-1101,340,-1728,-801,104,-763,202,41,-197,-1934,1030},{29,-296,-615,-905,131,-1108,333,-1735,-808,97,-770,195,34,-204,-1941,1023},{16,-309,-628,-918,118,-1121,320,-1748,-821,84,-783,182,21,-217,-1954,1010},{-6,-331,-650,-940,96,-1143,298,-1770,-843,62,-805,160,-1,-239,-1976,988},{-7,-332,-651,-941,95,-1144,297,-1771,-844,61,-806,159,-2,-240,-1977,987},{-2,-327,-646,-936,100,-1139,302,-1766,-839,66,-801,164,3,-235,-1972,992},{4,-321,-640,-930,106,-1133,308,-1760,-833,72,-795,170,9,-229,-1966,998},{4,-321,-640,-930,106,-1133,308,-1760,-833,72,-795,170,9,-229,-1966,998},{-10,-335,-654,-944,92,-1147,294,-1774,-847,58,-809,156,-5,-243,-1980,984},{-12,-337,-656,-946,90,-1149,292,-1776,-849,56,-811,154,-7,-245,-1982,982},{-18,-343,-662,-952,84,-1155,286,-1782,-855,50,-817,148,-13,-251,-1988,976},{-19,-344,-663,-953,83,-1156,285,-1783,-856,49,-818,147,-14,-252,-1989,975},{-26,-351,-670,-960,76,-1163,278,-1790,-863,42,-825,140,-21,-259,-1996,968},{-38,-363,-682,-972,64,-1175,266,-1802,-875,30,-837,128,-33,-271,-2008,956},{-37,-362,-681,-971,65,-1174,267,-1801,-874,31,-836,129,-32,-270,-2007,957},{-26,-351,-670,-960,76,-1163,278,-1790,-863,42,-825,140,-21,-259,-1996,968},{-10,-335,-654,-944,92,-1147,294,-1774,-847,58,-809,156,-5,-243,-1980,984},{-8,-333,-652,-942,94,-1145,296,-1772,-845,60,-807,158,-3,-241,-1978,986},{-8,-333,-652,-942,94,-1145,296,-1772,-845,60,-807,158,-3,-241,-1978,986},{7,-318,-637,-927,109,-1130,311,-1757,-830,75,-792,173,12,-226,-1963,1001},{27,-298,-617,-907,129,-1110,331,-1737,-810,95,-772,193,32,-206,-1943,1021},{46,-279,-598,-888,148,-1091,350,-1718,-791,114,-753,212,51,-187,-1924,1040},{58,-267,-586,-876,160,-1079,362,-1706,-779,126,-741,224,63,-175,-1912,1052},{74,-251,-570,-860,176,-1063,378,-1690,-763,142,-725,240,79,-159,-1896,1068},{86,-239,-558,-848,188,-1051,390,-1678,-751,154,-713,252,91,-147,-1884,1080},{96,-229,-548,-838,198,-1041,400,-1668,-741,164,-703,262,101,-137,-1874,1090},{111,-214,-533,-823,213,-1026,415,-1653,-726,179,-688,277,116,-122,-1859,1105},{142,-183,-502,-792,244,-995,446,-1622,-695,210,-657,308,147,-91,-1828,1136},{190,-135,-454,-744,292,-947,494,-1574,-647,258,-609,356,195,-43,-1780,1184},{232,-93,-412,-702,334,-905,536,-1532,-605,300,-567,398,237,-1,-1738,1226}}},
{{{145,-180,-499,-789,247,-992,449,-1619,-692,213,-654,311,150,-88,-1825,1139},{134,-191,-510,-800,236,-1003,438,-1630,-703,202,-665,300,139,-99,-1836,1128},{116,-209,-528,-818,218,-1021,420,-1648,-721,184,-683,282,121,-117,-1854,1110},{96,-229,-548,-838,198,-1041,400,-1668,-741,164,-703,262,101,-137,-1874,1090},{79,-246,-565,-855,181,-1058,383,-1685,-758,147,-720,245,84,-154,-1891,1073},{70,-255,-574,-864,172,-1067,374,-1694,-767,138,-729,236,75,-163,-1900,1064},{71,-254,-573,-863,173,-1066,375,-1693,-766,139,-728,237,76,-162,-1899,1065},{61,-264,-583,-873,163,-1076,365,-1703,-776,129,-738,227,66,-172,-1909,1055},{42,-283,-602,-892,144,-1095,346,-1722,-795,110,-757,208,47,-191,-1928,1036},{18,-307,-626,-916,120,-1119,322,-1746,-819,86,-781,184,23,-215,-1952,1012},{7,-318,-637,-927,109,-1130,311,-1757,-830,75,-792,173,12,-226,-1963,1001},{4,-321,-640,-930,106,-1133,308,-1760,-833,72,-795,170,9,-229,-1966,998},{-4,-329,-648,-938,98,-1141,300,-1768,-841,64,-803,162,1,-237,-1974,990},{-16,-341,-660,-950,86,-1153,288,-1780,-853,52,-815,150,-11,-249,-1986,978},{-25,-350,-669,-959,77,-1162,279,-1789,-862,43,-824,141,-20,-258,-1995,969},{-11,-336,-655,-945,91,-1148,293,-1775,-848,57,-810,155,-6,-244,-1981,983},{12,-313,-632,-922,114,-1125,316,-1752,-825,80,-787,178,17,-221,-1958,1006},{36,-289,-608,-898,138,-1101,340,-1728,-801,104,-763,202,41,-197,-1934,1030},{29,-296,-615,-905,131,-1108,333,-1735,-808,97,-770,195,34,-204,-1941,1023},{16,-309,-628,-918,118,-1121,320,-1748,-821,84,-783,182,21,-217,-1954,1010},{-6,-331,-650,-940,96,-1143,298,-1770,-843,62,-805,160,-1,-239,-1976,988},{-7,-332,-651,-941,95,-1144,297,-1771,-844,61,-806,159,-2,-240,-1977,987},{-2,-327,-646,-936,100,-1139,302,-1766,-839,66,-801,164,3,-235,-1972,992},{4,-321,-640,-930,106,-1133,308,-1760,-833,72,-795,170,9,-229,-1966,998},{4,-321,-640,-930,106,-1133,308,-1760,-833,72,-795,170,9,-229,-1966,998},{-10,-335,-654,-944,92,-1147,294,-1774,-847,58,-809,156,-5,-243,-1980,984},{-12,-337,-656,-946,90,-1149,292,-1776,-849,56,-811,154,-7,-245,-1982,982},{-18,-343,-662,-952,84,-1155,286,-1782,-855,50,-817,148,-13,-251,-1988,976},{-19,-344,-663,-953,83,-1156,285,-1783,-856,49,-818,147,-14,-252,-1989,975},{-26,-351,-670,-960,76,-1163,278,-1790,-863,42,-825,140,-21,-259,-1996,968},{-38,-363,-682,-972,64,-1175,266,-1802,-875,30,-837,128,-33,-271,-2008,956},{-37,-362,-681,-971,65,-1174,267,-1801,-874,31,-836,129,-32,-270,-2007,957},{-26,-351,-670,-960,76,-1163,278,-1790,-863,42,-825,140,-21,-259,-1996,968},{-10,-335,-654,-944,92,-1147,294,-1774,-847,58,-809,156,-5,-243,-1980,984},{-8,-333,-652,-942,94,-1145,296,-1772,-845,60,-807,158,-3,-241,-1978,986},{-8,-333,-652,-942,94,-1145,296,-1772,-845,60,-807,158,-3,-241,-1978,986},{7,-318,-637,-927,109,-1130,311,-1757,-830,75,-792,173,12,-226,-1963,1001},{27,-298,-617,-907,129,-1110,331,-1737,-810,95,-772,193,32,-206,-1943,1021},{46,-279,-598,-888,148,-1091,350,-1718,-791,114,-753,212,51,-187,-1924,1040},{58,-267,-586,-876,160,-1079,362,-1706,-779,126,-741,224,63,-175,-1912,1052},{74,-251,-570,-860,176,-1063,378,-1690,-763,142,-725,240,79,-159,-1896,1068},{86,-239,-558,-848,188,-1051,390,-1678,-751,154,-713,252,91,-147,-1884,1080},{96,-229,-548,-838,198,-1041,400,-1668,-741,164,-703,262,101,-137,-1874,1090},{111,-214,-533,-823,213,-1026,415,-1653,-726,179,-688,277,116,-122,-1859,1105},{142,-183,-502,-792,244,-995,446,-1622,-695,210,-657,308,147,-91,-1828,1136},{190,-135,-454,-744,292,-947,494,-1574,-647,258,-609,356,195,-43,-1780,1184},{232,-93,-412,-702,334,-905,536,-1532,-605,300,-567,398,237,-1,-1738,1226},{254,-71,-390,-680,356,-883,558,-1510,-583,322,-545,420,259,21,-1716,1248}}},
{{{134,-191,-510,-800,236,-1003,438,-1630,-703,202,-665,300,139,-99,-1836,1128},{116,-209,-528,-818,218,-1021,420,-1648,-721,184,-683,282,121,-117,-1854,1110},{96,-229,-548,-838,198,-1041,400,-1668,-741,164,-703,262,101,-137,-1874,1090},{79,-246,-565,-855,181,-1058,383,-1685,-758,147,-720,245,84,-154,-1891,1073},{70,-255,-574,-864,172,-1067,374,-1694,-767,138,-729,236,75,-163,-1900,1064},{71,-254,-573,-863,173,-1066,375,-1693,-766,139,-728,237,76,-162,-1899,1065},{61,-264,-583,-873,163,-1076,365,-1703,-776,129,-738,227,66,-172,-1909,1055},{42,-283,-602,-892,144,-1095,346,-1722,-795,110,-757,208,47,-191,-1928,1036},{18,-307,-626,-916,120,-1119,322,-1746,-819,86,-781,184,23,-215,-1952,1012},{7,-318,-637,-927,109,-1130,311,-1757,-830,75,-792,173,12,-226,-1963,1001},{4,-321,-640,-930,106,-1133,308,-1760,-833,72,-795,170,9,-229,-1966,998},{-4,-329,-648,-938,98,-1141,300,-1768,-841,64,-803,162,1,-237,-1974,990},{-16,-341,-660,-950,86,-1153,288,-1780,-853,52,-815,150,-11,-249,-1986,978},{-25,-350,-669,-959,77,-1162,279,-1789,-862,43,-824,141,-20,-258,-1995,969},{-11,-336,-655,-945,91,-1148,293,-1775,-848,57,-810,155,-6,-244,-1981,983},{12,-313,-632,-922,114,-1125,316,-1752,-825,80,-787,178,17,-221,-1958,1006},{36,-289,-608,-898,138,-1101,340,-1728,-801,104,-763,202,41,-197,-1934,1030},{29,-296,-615,-905,131,-1108,333,-1735,-808,97,-770,195,34,-204,-1941,1023},{16,-309,-628,-918,118,-1121,320,-1748,-821,84,-783,182,21,-217,-1954,1010},{-6,-331,-650,-940,96,-1143,298,-1770,-843,62,-805,160,-1,-239,-1976,988},{-7,-332,-651,-941,95,-1144,297,-1771,-844,61,-806,159,-2,-240,-1977,987},{-2,-327,-646,-936,100,-1139,302,-1766,-839,66,-801,164,3,-235,-1972,992},{4,-321,-640,-930,106,-1133,308,-1760,-833,72,-795,170,9,-229,-1966,998},{4,-321,-640,-930,106,-1133,308,-1760,-833,72,-795,170,9,-229,-1966,998},{-10,-335,-654,-944,92,-1147,294,-1774,-847,58,-809,156,-5,-243,-1980,984},{-12,-337,-656,-946,90,-1149,292,-1776,-849,56,-811,154,-7,-245,-1982,982},{-18,-343,-662,-952,84,-1155,286,-1782,-855,50,-817,148,-13,-251,-1988,976},{-19,-344,-663,-953,83,-1156,285,-1783,-856,49,-818,147,-14,-252,-1989,975},{-26,-351,-670,-960,76,-1163,278,-1790,-863,42,-825,140,-21,-259,-1996,968},{-38,-363,-682,-972,64,-1175,266,-1802,-875,30,-837,128,-33,-271,-2008,956},{-37,-362,-681,-971,65,-1174,267,-1801,-874,31,-836,129,-32,-270,-2007,957},{-26,-351,-670,-960,76,-1163,278,-1790,-863,42,-825,140,-21,-259,-1996,968},{-10,-335,-654,-944,92,-1147,294,-1774,-847,58,-809,156,-5,-243,-1980,984},{-8,-333,-652,-942,94,-1145,296,-1772,-845,60,-807,158,-3,-241,-1978,986},{-8,-333,-652,-942,94,-1145,296,-1772,-845,60,-807,158,-3,-241,-1978,986},{7,-318,-637,-927,109,-1130,311,-1757,-830,75,-792,173,12,-226,-1963,1001},{27,-298,-617,-907,129,-1110,331,-1737,-810,95,-772,193,32,-206,-1943,1021},{46,-279,-598,-888,148,-1091,350,-1718,-791,114,-753,212,51,-187,-1924,1040},{58,-267,-586,-876,160,-1079,362,-1706,-779,126,-741,224,63,-175,-1912,1052},{74,-251,-570,-860,176,-1063,378,-1690,-763,142,-725,240,79,-159,-1896,1068},{86,-239,-558,-848,188,-1051,390,-1678,-751,154,-713,252,91,-147,-1884,1080},{96,-229,-548,-838,198,-1041,400,-1668,-741,164,-703,262,101,-137,-1874,1090},{111,-214,-533,-823,213,-1026,415,-1653,-726,179,-688,277,116,-122,-1859,1105},{142,-183,-502,-792,244,-995,446,-1622,-695,210,-657,308,147,-91,-1828,1136},{190,-135,-454,-744,292,-947,494,-1574,-647,258,-609,356,195,-43,-1780,1184},{232,-93,-412,-702,334,-905,536,-1532,-605,300,-567,398,237,-1,-1738,1226},{254,-71,-390,-680,356,-883,558,-1510,-583,322,-545,420,259,21,-1716,1248},{252,-73,-392,-682,354,-885,556,-1512,-585,320,-547,418,257,19,-1718,1246}}},
{{{116,-209,-528,-818,218,-1021,420,-1648,-721,184,-683,282,121,-117,-1854,1110},{96,-229,-548,-838,198,-1041,400,-1668,-741,164,-703,262,101,-137,-1874,1090},{79,-246,-565,-855,181,-1058,383,-1685,-758,147,-720,245,84,-154,-1891,1073},{70,-255,-574,-864,172,-1067,374,-1694,-767,138,-729,236,75,-163,-1900,1064},{71,-254,-573,-863,173,-1066,375,-1693,-766,139,-728,237,76,-162,-1899,1065},{61,-264,-583,-873,163,-1076,365,-1703,-776,129,-738,227,66,-172,-1909,1055},{42,-283,-602,-892,144,-1095,346,-1722,-795,110,-757,208,47,-191,-1928,1036},{18,-307,-626,-916,120,-1119,322,-1746,-819,86,-781,184,23,-215,-1952,1012},{7,-318,-637,-927,109,-1130,311,-1757,-830,75,-792,173,12,-226,-1963,1001},{4,-321,-640,-930,106,-1133,308,-1760,-833,72,-795,170,9,-229,-1966,998},{-4,-329,-648,-938,98,-1141,300,-1768,-841,64,-803,162,1,-237,-1974,990},{-16,-341,-660,-950,86,-1153,288,-1780,-853,52,-815,150,-11,-249,-1986,978},{-25,-350,-669,-959,77,-1162,279,-1789,-862,43,-824,141,-20,-258,-1995,969},{-11,-336,-655,-945,91,-1148,293,-1775,-848,57,-810,155,-6,-244,-1981,983},{12,-313,-632,-922,114,-1125,316,-1752,-825,80,-787,178,17,-221,-1958,1006},{36,-289,-608,-898,138,-1101,340,-1728,-801,104,-763,202,41,-197,-1934,1030},{29,-296,-615,-905,131,-1108,333,-1735,-808,97,-770,195,34,-204,-1941,1023},{16,-309,-628,-918,118,-1121,320,-1748,-821,84,-783,182,21,-217,-1954,1010},{-6,-331,-650,-940,96,-1143,298,-1770,-843,62,-805,160,-1,-239,-1976,988},{-7,-332,-651,-941,95,-1144,297,-1771,-844,61,-806,159,-2,-240,-1977,987},{-2,-327,-646,-936,100,-1139,302,-1766,-839,66,-801,164,3,-235,-1972,992},{4,-321,-640,-930,106,-1133,308,-1760,-833,72,-795,170,9,-229,-1966,998},{4,-321,-640,-930,106,-1133,308,-1760,-833,72,-795,170,9,-229,-1966,998},{-10,-335,-654,-944,92,-1147,294,-1774,-847,58,-809,156,-5,-243,-1980,984},{-12,-337,-656,-946,90,-1149,292,-1776,-849,56,-811,154,-7,-245,-1982,982},{-18,-343,-662,-952,84,-1155,286,-1782,-855,50,-817,148,-13,-251,-1988,976},{-19,-344,-663,-953,83,-1156,285,-1783,-856,49,-818,147,-14,-252,-1989,975},{-26,-351,-670,-960,76,-1163,278,-1790,-863,42,-825,140,-21,-259,-1996,968},{-38,-363,-682,-972,64,-1175,266,-1802,-875,30,-837,128,-33,-271,-2008,956},{-37,-362,-681,-971,65,-1174,267,-1801,-874,31,-836,129,-32,-270,-2007,957},{-26,-351,-670,-960,76,-1163,278,-1790,-863,42,-825,140,-21,-259,-1996,968},{-10,-335,-654,-944,92,-1147,294,-1774,-847,58,-809,156,-5,-243,-1980,984},{-8,-333,-652,-942,94,-1145,296,-1772,-845,60,-807,158,-3,-241,-1978,986},{-8,-333,-652,-942,94,-1145,296,-1772,-845,60,-807,158,-3,-241,-1978,986},{7,-318,-637,-927,109,-1130,311,-1757,-830,75,-792,173,12,-226,-1963,1001},{27,-298,-617,-907,129,-1110,331,-1737,-810,95,-772,193,32,-206,-1943,1021},{46,-279,-598,-888,148,-1091,350,-1718,-791,114,-753,212,51,-187,-1924,1040},{58,-267,-586,-876,160,-1079,362,-1706,-779,126,-741,224,63,-175,-1912,1052},{74,-251,-570,-860,176,-1063,378,-1690,-763,142,-725,240,79,-159,-1896,1068},{86,-239,-558,-848,188,-1051,390,-1678,-751,154,-713,252,91,-147,-1884,1080},{96,-229,-548,-838,198,-1041,400,-1668,-741,164,-703,262,101,-137,-1874,1090},{111,-214,-533,-823,213,-1026,415,-1653,-726,179,-688,277,116,-122,-1859,1105},{142,-183,-502,-792,244,-995,446,-1622,-695,210,-657,308,147,-91,-1828,1136},{190,-135,-454,-744,292,-947,494,-1574,-647,258,-609,356,195,-43,-1780,1184},{232,-93,-412,-702,334,-905,536,-1532,-605,300,-567,398,237,-1,-1738,1226},{254,-71,-390,-680,356,-883,558,-1510,-583,322,-545,420,259,21,-1716,1248},{252,-73,-392,-682,354,-885,556,-1512,-585,320,-547,418,257,19,-1718,1246},{243,-82,-401,-691,345,-894,547,-1521,-594,311,-556,409,248,10,-1727,1237}}},
{{{96,-229,-548,-838,198,-1041,400,-1668,-741,164,-703,262,101,-137,-1874,1090},{79,-246,-565,-855,181,-1058,383,-1685,-758,147,-720,245,84,-154,-1891,1073},{70,-255,-574,-864,172,-1067,374,-1694,-767,138,-729,236,75,-163,-1900,1064},{71,-254,-573,-863,173,-1066,375,-1693,-766,139,-728,237,76,-162,-1899,1065},{61,-264,-583,-873,163,-1076,365,-1703,-776,129,-738,227,66,-172,-1909,1055},{42,-283,-602,-892,144,-1095,346,-1722,-795,110,-757,208,47,-191,-1928,1036},{18,-307,-626,-916,120,-1119,322,-1746,-819,86,-781,184,23,-215,-1952,1012},{7,-318,-637,-927,109,-1130,311,-1757,-830,75,-792,173,12,-226,-1963,1001},{4,-321,-640,-930,106,-1133,308,-1760,-833,72,-795,170,9,-229,-1966,998},{-4,-329,-648,-938,98,-1141,300,-1768,-841,64,-803,162,1,-237,-1974,990},{-16,-341,-660,-950,86,-1153,288,-1780,-853,52,-815,150,-11,-249,-1986,978},{-25,-350,-669,-959,77,-1162,279,-1789,-862,43,-824,141,-20,-258,-1995,969},{-11,-336,-655,-945,91,-1148,293,-1775,-848,57,-810,155,-6,-244,-1981,983},{12,-313,-632,-922,114,-1125,316,-1752,-825,80,-787,178,17,-221,-1958,1006},{36,-289,-608,-898,138,-1101,340,-1728,-801,104,-763,202,41,-197,-1934,1030},{29,-296,-615,-905,131,-1108,333,-1735,-808,97,-770,195,34,-204,-1941,1023},{16,-309,-628,-918,118,-1121,320,-1748,-821,84,-783,182,21,-217,-1954,1010},{-6,-331,-650,-940,96,-1143,298,-1770,-843,62,-805,160,-1,-239,-1976,988},{-7,-332,-651,-941,95,-1144,297,-1771,-844,61,-806,159,-2,-240,-1977,987},{-2,-327,-646,-936,100,-1139,302,-1766,-839,66,-801,164,3,-235,-1972,992},{4,-321,-640,-930,106,-1133,308,-1760,-833,72,-795,170,9,-229,-1966,998},{4,-321,-640,-930,106,-1133,308,-1760,-833,72,-795,170,9,-229,-1966,998},{-10,-335,-654,-944,92,-1147,294,-1774,-847,58,-809,156,-5,-243,-1980,984},{-12,-337,-656,-946,90,-1149,292,-1776,-849,56,-811,154,-7,-245,-1982,982},{-18,-343,-662,-952,84,-1155,286,-1782,-855,50,-817,148,-13,-251,-1988,976},{-19,-344,-663,-953,83,-1156,285,-1783,-856,49,-818,147,-14,-252,-1989,975},{-26,-351,-670,-960,76,-1163,278,-1790,-863,42,-825,140,-21,-259,-1996,968},{-38,-363,-682,-972,64,-1175,266,-1802,-875,30,-837,128,-33,-271,-2008,956},{-37,-362,-681,-971,65,-1174,267,-1801,-874,31,-836,129,-32,-270,-2007,957},{-26,-351,-670,-960,76,-1163,278,-1790,-863,42,-825,140,-21,-259,-1996,968},{-10,-335,-654,-944,92,-1147,294,-1774,-847,58,-809,156,-5,-243,-1980,984},{-8,-333,-652,-942,94,-1145,296,-1772,-845,60,-807,158,-3,-241,-1978,986},{-8,-333,-652,-942,94,-1145,296,-1772,-845,60,-807,158,-3,-241,-1978,986},{7,-318,-637,-927,109,-1130,311,-1757,-830,75,-792,173,12,-226,-1963,1001},{27,-298,-617,-907,129,-1110,331,-1737,-810,95,-772,193,32,-206,-1943,1021},{46,-279,-598,-888,148,-1091,350,-1718,-791,114,-753,212,51,-187,-1924,1040},{58,-267,-586,-876,160,-1079,362,-1706,-779,126,-741,224,63,-175,-1912,1052},{74,-251,-570,-860,176,-1063,378,-1690,-763,142,-725,240,79,-159,-1896,1068},{86,-239,-558,-848,188,-1051,390,-1678,-751,154,-713,252,91,-147,-1884,1080},{96,-229,-548,-838,198,-1041,400,-1668,-741,164,-703,262,101,-137,-1874,1090},{111,-214,-533,-823,213,-1026,415,-1653,-726,179,-688,277,116,-122,-1859,1105},{142,-183,-502,-792,244,-995,446,-1622,-695,210,-657,308,147,-91,-1828,1136},{190,-135,-454,-744,292,-947,494,-1574,-647,258,-609,356,195,-43,-1780,1184},{232,-93,-412,-702,334,-905,536,-1532,-605,300,-567,398,237,-1,-1738,1226},{254,-71,-390,-680,356,-883,558,-1510,-583,322,-545,420,259,21,-1716,1248},{252,-73,-392,-682,354,-885,556,-1512,-585,320,-547,418,257,19,-1718,1246},{243,-82,-401,-691,345,-894,547,-1521,-594,311,-556,409,248,10,-1727,1237},{255,-70,-389,-679,357,-882,559,-1509,-582,323,-544,421,260,22,-1715,1249}}},
{{{79,-246,-565,-855,181,-1058,383,-1685,-758,147,-720,245,84,-154,-1891,1073},{70,-255,-574,-864,172,-1067,374,-1694,-767,138,-729,236,75,-163,-1900,1064},{71,-254,-573,-863,173,-1066,375,-1693,-766,139,-728,237,76,-162,-1899,1065},{61,-264,-583,-873,163,-1076,365,-1703,-776,129,-738,227,66,-172,-1909,1055},{42,-283,-602,-892,144,-1095,346,-1722,-795,110,-757,208,47,-191,-1928,1036},{18,-307,-626,-916,120,-1119,322,-1746,-819,86,-781,184,23,-215,-1952,1012},{7,-318,-637,-927,109,-1130,311,-1757,-830,75,-792,173,12,-226,-1963,1001},{4,-321,-640,-930,106,-1133,308,-1760,-833,72,-795,170,9,-229,-1966,998},{-4,-329,-648,-938,98,-1141,300,-1768,-841,64,-803,162,1,-237,-1974,990},{-16,-341,-660,-950,86,-1153,288,-1780,-853,52,-815,150,-11,-249,-1986,978},{-25,-350,-669,-959,77,-1162,279,-1789,-862,43,-824,141,-20,-258,-1995,969},{-11,-336,-655,-945,91,-1148,293,-1775,-848,57,-810,155,-6,-244,-1981,983},{12,-313,-632,-922,114,-1125,316,-1752,-825,80,-787,178,17,-221,-1958,1006},{36,-289,-608,-898,138,-1101,340,-1728,-801,104,-763,202,41,-197,-1934,1030},{29,-296,-615,-905,131,-1108,333,-1735,-808,97,-770,195,34,-204,-1941,1023},{16,-309,-628,-918,118,-1121,320,-1748,-821,84,-783,182,21,-217,-1954,1010},{-6,-331,-650,-940,96,-1143,298,-1770,-843,62,-805,160,-1,-239,-1976,988},{-7,-332,-651,-941,95,-1144,297,-1771,-844,61,-806,159,-2,-240,-1977,987},{-2,-327,-646,-936,100,-1139,302,-1766,-839,66,-801,164,3,-235,-1972,992},{4,-321,-640,-930,106,-1133,308,-1760,-833,72,-795,170,9,-229,-1966,998},{4,-321,-640,-930,106,-1133,308,-1760,-833,72,-795,170,9,-229,-1966,998},{-10,-335,-654,-944,92,-1147,294,-1774,-847,58,-809,156,-5,-243,-1980,984},{-12,-337,-656,-946,90,-1149,292,-1776,-849,56,-811,154,-7,-245,-1982,982},{-18,-343,-662,-952,84,-1155,286,-1782,-855,50,-817,148,-13,-251,-1988,976},{-19,-344,-663,-953,83,-1156,285,-1783,-856,49,-818,147,-14,-252,-1989,975},{-26,-351,-670,-960,76,-1163,278,-1790,-863,42,-825,140,-21,-259,-1996,968},{-38,-363,-682,-972,64,-1175,266,-1802,-875,30,-837,128,-33,-271,-2008,956},{-37,-362,-681,-971,65,-1174,267,-1801,-874,31,-836,129,-32,-270,-2007,957},{-26,-351,-670,-960,76,-1163,278,-1790,-863,42,-825,140,-21,-259,-1996,968},{-10,-335,-654,-944,92,-1147,294,-1774,-847,58,-809,156,-5,-243,-1980,984},{-8,-333,-652,-942,94,-1145,296,-1772,-845,60,-807,158,-3,-241,-1978,986},{-8,-333,-652,-942,94,-1145,296,-1772,-845,60,-807,158,-3,-241,-1978,986},{7,-318,-637,-927,109,-1130,311,-1757,-830,75,-792,173,12,-226,-1963,1001},{27,-298,-617,-907,129,-1110,331,-1737,-810,95,-772,193,32,-206,-1943,1021},{46,-279,-598,-888,148,-1091,350,-1718,-791,114,-753,212,51,-187,-1924,1040},{58,-267,-586,-876,160,-1079,362,-1706,-779,126,-741,224,63,-175,-1912,1052},{74,-251,-570,-860,176,-1063,378,-1690,-763,142,-725,240,79,-159,-1896,1068},{86,-239,-558,-848,188,-1051,390,-1678,-751,154,-713,252,91,-147,-1884,1080},{96,-229,-548,-838,198,-1041,400,-1668,-741,164,-703,262,101,-137,-1874,1090},{111,-214,-533,-823,213,-1026,415,-1653,-726,179,-688,277,116,-122,-1859,1105},{142,-183,-502,-792,244,-995,446,-1622,-695,210,-657,308,147,-91,-1828,1136},{190,-135,-454,-744,292,-947,494,-1574,-647,258,-609,356,195,-43,-1780,1184},{232,-93,-412,-702,334,-905,536,-1532,-605,300,-567,398,237,-1,-1738,1226},{254,-71,-390,-680,356,-883,558,-1510,-583,322,-545,420,259,21,-1716,1248},{252,-73,-392,-682,354,-885,556,-1512,-585,320,-547,418,257,19,-1718,1246},{243,-82,-401,-691,345,-894,547,-1521,-594,311,-556,409,248,10,-1727,1237},{255,-70,-389,-679,357,-882,559,-1509,-582,323,-544,421,260,22,-1715,1249},{272,-53,-372,-662,374,-865,576,-1492,-565,340,-527,438,277,39,-1698,1266}}},
{{{70,-255,-574,-864,172,-1067,374,-1694,-767,138,-729,236,75,-163,-1900,1064},{71,-254,-573,-863,173,-1066,375,-1693,-766,139,-728,237,76,-162,-1899,1065},{61,-264,-583,-873,163,-1076,365,-1703,-776,129,-738,227,66,-172,-1909,1055},{42,-283,-602,-892,144,-1095,346,-1722,-795,110,-757,208,47,-191,-1928,1036},{18,-307,-626,-916,120,-1119,322,-1746,-819,86,-781,184,23,-215,-1952,1012},{7,-318,-637,-927,109,-1130,311,-1757,-830,75,-792,173,12,-226,-1963,1001},{4,-321,-640,-930,106,-1133,308,-1760,-833,72,-795,170,9,-229,-1966,998},{-4,-329,-648,-938,98,-1141,300,-1768,-841,64,-803,162,1,-237,-1974,990},{-16,-341,-660,-950,86,-1153,288,-1780,-853,52,-815,150,-11,-249,-1986,978},{-25,-350,-669,-959,77,-1162,279,-1789,-862,43,-824,141,-20,-258,-1995,969},{-11,-336,-655,-945,91,-1148,293,-1775,-848,57,-810,155,-6,-244,-1981,983},{12,-313,-632,-922,114,-1125,316,-1752,-825,80,-787,178,17,-221,-1958,1006},{36,-289,-608,-898,138,-1101,340,-1728,-801,104,-763,202,41,-197,-1934,1030},{29,-296,-615,-905,131,-1108,333,-1735,-808,97,-770,195,34,-204,-1941,1023},{16,-309,-628,-918,118,-1121,320,-1748,-821,84,-783,182,21,-217,-1954,1010},{-6,-331,-650,-940,96,-1143,298,-1770,-843,62,-805,160,-1,-239,-1976,988},{-7,-332,-651,-941,95,-1144,297,-1771,-844,61,-806,159,-2,-240,-1977,987},{-2,-327,-646,-936,100,-1139,302,-1766,-839,66,-801,164,3,-235,-1972,992},{4,-321,-640,-930,106,-1133,308,-1760,-833,72,-795,170,9,-229,-1966,998},{4,-321,-640,-930,106,-1133,308,-1760,-833,72,-795,170,9,-229,-1966,998},{-10,-335,-654,-944,92,-1147,294,-1774,-847,58,-809,156,-5,-243,-1980,984},{-12,-337,-656,-946,90,-1149,292,-1776,-849,56,-811,154,-7,-245,-1982,982},{-18,-343,-662,-952,84,-1155,286,-1782,-855,50,-817,148,-13,-251,-1988,976},{-19,-344,-663,-953,83,-1156,285,-1783,-856,49,-818,147,-14,-252,-1989,975},{-26,-351,-670,-960,76,-1163,278,-1790,-863,42,-825,140,-21,-259,-1996,968},{-38,-363,-682,-972,64,-1175,266,-1802,-875,30,-837,128,-33,-271,-2008,956},{-37,-362,-681,-971,65,-1174,267,-1801,-874,31,-836,129,-32,-270,-2007,957},{-26,-351,-670,-960,76,-1163,278,-1790,-863,42,-825,140,-21,-259,-1996,968},{-10,-335,-654,-944,92,-1147,294,-1774,-847,58,-809,156,-5,-243,-1980,984},{-8,-333,-652,-942,94,-1145,296,-1772,-845,60,-807,158,-3,-241,-1978,986},{-8,-333,-652,-942,94,-1145,296,-1772,-845,60,-807,158,-3,-241,-1978,986},{7,-318,-637,-927,109,-1130,311,-1757,-830,75,-792,173,12,-226,-1963,1001},{27,-298,-617,-907,129,-1110,331,-1737,-810,95,-772,193,32,-206,-1943,1021},{46,-279,-598,-888,148,-1091,350,-1718,-791,114,-753,212,51,-187,-1924,1040},{58,-267,-586,-876,160,-1079,362,-1706,-779,126,-741,224,63,-175,-1912,1052},{74,-251,-570,-860,176,-1063,378,-1690,-763,142,-725,240,79,-159,-1896,1068},{86,-239,-558,-848,188,-1051,390,-1678,-751,154,-713,252,91,-147,-1884,1080},{96,-229,-548,-838,198,-1041,400,-1668,-741,164,-703,262,101,-137,-1874,1090},{111,-214,-533,-823,213,-1026,415,-1653,-726,179,-688,277,116,-122,-1859,1105},{142,-183,-502,-792,244,-995,446,-1622,-695,210,-657,308,147,-91,-1828,1136},{190,-135,-454,-744,292,-947,494,-1574,-647,258,-609,356,195,-43,-1780,1184},{232,-93,-412,-702,334,-905,536,-1532,-605,300,-567,398,237,-1,-1738,1226},{254,-71,-390,-680,356,-883,558,-1510,-583,322,-545,420,259,21,-1716,1248},{252,-73,-392,-682,354,-885,556,-1512,-585,320,-547,418,257,19,-1718,1246},{243,-82,-401,-691,345,-894,547,-1521,-594,311,-556,409,248,10,-1727,1237},{255,-70,-389,-679,357,-882,559,-1509,-582,323,-544,421,260,22,-1715,1249},{272,-53,-372,-662,374,-865,576,-1492,-565,340,-527,438,277,39,-1698,1266},{299,-26,-345,-635,401,-838,603,-1465,-538,367,-500,465,304,66,-1671,1293}}},
{{{71,-254,-573,-863,173,-1066,375,-1693,-766,139,-728,237,76,-162,-1899,1065},{61,-264,-583,-873,163,-1076,365,-1703,-776,129,-738,227,66,-172,-1909,1055},{42,-283,-602,-892,144,-1095,346,-1722,-795,110,-757,208,47,-191,-1928,1036},{18,-307,-626,-916,120,-1119,322,-1746,-819,86,-781,184,23,-215,-1952,1012},{7,-318,-637,-927,109,-1130,311,-1757,-830,75,-792,173,12,-226,-1963,1001},{4,-321,-640,-930,106,-1133,308,-1760,-833,72,-795,170,9,-229,-1966,998},{-4,-329,-648,-938,98,-1141,300,-1768,-841,64,-803,162,1,-237,-1974,990},{-16,-341,-660,-950,86,-1153,288,-1780,-853,52,-815,150,-11,-249,-1986,978},{-25,-350,-669,-959,77,-1162,279,-1789,-862,43,-824,141,-20,-258,-1995,969},{-11,-336,-655,-945,91,-1148,293,-1775,-848,57,-810,155,-6,-244,-1981,983},{12,-313,-632,-922,114,-1125,316,-1752,-825,80,-787,178,17,-221,-1958,1006},{36,-289,-608,-898,138,-1101,340,-1728,-801,104,-763,202,41,-197,-1934,1030},{29,-296,-615,-905,131,-1108,333,-1735,-808,97,-770,195,34,-204,-1941,1023},{16,-309,-628,-918,118,-1121,320,-1748,-821,84,-783,182,21,-217,-1954,1010},{-6,-331,-650,-940,96,-1143,298,-1770,-843,62,-805,160,-1,-239,-1976,988},{-7,-332,-651,-941,95,-1144,297,-1771,-844,61,-806,159,-2,-240,-1977,987},{-2,-327,-646,-936,100,-1139,302,-1766,-839,66,-801,164,3,-235,-1972,992},{4,-321,-640,-930,106,-1133,308,-1760,-833,72,-795,170,9,-229,-1966,998},{4,-321,-640,-930,106,-1133,308,-1760,-833,72,-795,170,9,-229,-1966,998},{-10,-335,-654,-944,92,-1147,294,-1774,-847,58,-809,156,-5,-243,-1980,984},{-12,-337,-656,-946,90,-1149,292,-1776,-849,56,-811,154,-7,-245,-1982,982},{-18,-343,-662,-952,84,-1155,286,-1782,-855,50,-817,148,-13,-251,-1988,976},{-19,-344,-663,-953,83,-1156,285,-1783,-856,49,-818,147,-14,-252,-1989,975},{-26,-351,-670,-960,76,-1163,278,-1790,-863,42,-825,140,-21,-259,-1996,968},{-38,-363,-682,-972,64,-1175,266,-1802,-875,30,-837,128,-33,-271,-2008,956},{-37,-362,-681,-971,65,-1174,267,-1801,-874,31,-836,129,-32,-270,-2007,957},{-26,-351,-670,-960,76,-1163,278,-1790,-863,42,-825,140,-21,-259,-1996,968},{-10,-335,-654,-944,92,-1147,294,-1774,-847,58,-809,156,-5,-243,-1980,984},{-8,-333,-652,-942,94,-1145,296,-1772,-845,60,-807,158,-3,-241,-1978,986},{-8,-333,-652,-942,94,-1145,296,-1772,-845,60,-807,158,-3,-241,-1978,986},{7,-318,-637,-927,109,-1130,311,-1757,-830,75,-792,173,12,-226,-1963,1001},{27,-298,-617,-907,129,-1110,331,-1737,-810,95,-772,193,32,-206,-1943,1021},{46,-279,-598,-888,148,-1091,350,-1718,-791,114,-753,212,51,-187,-1924,1040},{58,-267,-586,-876,160,-1079,362,-1706,-779,126,-741,224,63,-175,-1912,1052},{74,-251,-570,-860,176,-1063,378,-1690,-763,142,-725,240,79,-159,-1896,1068},{86,-239,-558,-848,188,-1051,390,-1678,-751,154,-713,252,91,-147,-1884,1080},{96,-229,-548,-838,198,-1041,400,-1668,-741,164,-703,262,101,-137,-1874,1090},{111,-214,-533,-823,213,-1026,415,-1653,-726,179,-688,277,116,-122,-1859,1105},{142,-183,-502,-792,244,-995,446,-1622,-695,210,-657,308,147,-91,-1828,1136},{190,-135,-454,-744,292,-947,494,-1574,-647,258,-609,356,195,-43,-1780,1184},{232,-93,-412,-702,334,-905,536,-1532,-605,300,-567,398,237,-1,-1738,1226},{254,-71,-390,-680,356,-883,558,-1510,-583,322,-545,420,259,21,-1716,1248},{252,-73,-392,-682,354,-885,556,-1512,-585,320,-547,418,257,19,-1718,1246},{243,-82,-401,-691,345,-894,547,-1521,-594,311,-556,409,248,10,-1727,1237},{255,-70,-389,-679,357,-882,559,-1509,-582,323,-544,421,260,22,-1715,1249},{272,-53,-372,-662,374,-865,576,-1492,-565,340,-527,438,277,39,-1698,1266},{299,-26,-345,-635,401,-838,603,-1465,-538,367,-500,465,304,66,-1671,1293},{301,-24,-343,-633,403,-836,605,-1463,-536,369,-498,467,306,68,-1669,1295}}},
{{{61,-264,-583,-873,163,-1076,365,-1703,-776,129,-738,227,66,-172,-1909,1055},{42,-283,-602,-892,144,-1095,346,-1722,-795,110,-757,208,47,-191,-1928,1036},{18,-307,-626,-916,120,-1119,322,-1746,-819,86,-781,184,23,-215,-1952,1012},{7,-318,-637,-927,109,-1130,311,-1757,-830,75,-792,173,12,-226,-1963,1001},{4,-321,-640,-930,106,-1133,308,-1760,-833,72,-795,170,9,-229,-1966,998},{-4,-329,-648,-938,98,-1141,300,-1768,-841,64,-803,162,1,-237,-1974,990},{-16,-341,-660,-950,86,-1153,288,-1780,-853,52,-815,150,-11,-249,-1986,978},{-25,-350,-669,-959,77,-1162,279,-1789,-862,43,-824,141,-20,-258,-1995,969},{-11,-336,-655,-945,91,-1148,293,-1775,-848,57,-810,155,-6,-244,-1981,983},{12,-313,-632,-922,114,-1125,316,-1752,-825,80,-787,178,17,-221,-1958,1006},{36,-289,-608,-898,138,-1101,340,-1728,-801,104,-763,202,41,-197,-1934,1030},{29,-296,-615,-905,131,-1108,333,-1735,-808,97,-770,195,34,-204,-1941,1023},{16,-309,-628,-918,118,-1121,320,-1748,-821,84,-783,182,21,-217,-1954,1010},{-6,-331,-650,-940,96,-1143,298,-1770,-843,62,-805,160,-1,-239,-1976,988},{-7,-332,-651,-941,95,-1144,297,-1771,-844,61,-806,159,-2,-240,-1977,987},{-2,-327,-646,-936,100,-1139,302,-1766,-839,66,-801,164,3,-235,-1972,992},{4,-321,-640,-930,106,-1133,308,-1760,-833,72,-795,170,9,-229,-1966,998},{4,-321,-640,-930,106,-1133,308,-1760,-833,72,-795,170,9,-229,-1966,998},{-10,-335,-654,-944,92,-1147,294,-1774,-847,58,-809,156,-5,-243,-1980,984},{-12,-337,-656,-946,90,-1149,292,-1776,-849,56,-811,154,-7,-245,-1982,982},{-18,-343,-662,-952,84,-1155,286,-1782,-855,50,-817,148,-13,-251,-1988,976},{-19,-344,-663,-953,83,-1156,285,-1783,-856,49,-818,147,-14,-252,-1989,975},{-26,-351,-670,-960,76,-1163,278,-1790,-863,42,-825,140,-21,-259,-1996,968},{-38,-363,-682,-972,64,-1175,266,-1802,-875,30,-837,128,-33,-271,-2008,956},{-37,-362,-681,-971,65,-1174,267,-1801,-874,31,-836,129,-32,-270,-2007,957},{-26,-351,-670,-960,76,-1163,278,-1790,-863,42,-825,140,-21,-259,-1996,968},{-10,-335,-654,-944,92,-1147,294,-1774,-847,58,-809,156,-5,-243,-1980,984},{-8,-333,-652,-942,94,-1145,296,-1772,-845,60,-807,158,-3,-241,-1978,986},{-8,-333,-652,-942,94,-1145,296,-1772,-845,60,-807,158,-3,-241,-1978,986},{7,-318,-637,-927,109,-1130,311,-1757,-830,75,-792,173,12,-226,-1963,1001},{27,-298,-617,-907,129,-1110,331,-1737,-810,95,-772,193,32,-206,-1943,1021},{46,-279,-598,-888,148,-1091,350,-1718,-791,114,-753,212,51,-187,-1924,1040},{58,-267,-586,-876,160,-1079,362,-1706,-779,126,-741,224,63,-175,-1912,1052},{74,-251,-570,-860,176,-1063,378,-1690,-763,142,-725,240,79,-159,-1896,1068},{86,-239,-558,-848,188,-1051,390,-1678,-751,154,-713,252,91,-147,-1884,1080},{96,-229,-548,-838,198,-1041,400,-1668,-741,164,-703,262,101,-137,-1874,1090},{111,-214,-533,-823,213,-1026,415,-1653,-726,179,-688,277,116,-122,-1859,1105},{142,-183,-502,-792,244,-995,446,-1622,-695,210,-657,308,147,-91,-1828,1136},{190,-135,-454,-744,292,-947,494,-1574,-647,258,-609,356,195,-43,-1780,1184},{232,-93,-412,-702,334,-905,536,-1532,-605,300,-567,398,237,-1,-1738,1226},{254,-71,-390,-680,356,-883,558,-1510,-583,322,-545,420,259,21,-1716,1248},{252,-73,-392,-682,354,-885,556,-1512,-585,320,-547,418,257,19,-1718,1246},{243,-82,-401,-691,345,-894,547,-1521,-594,311,-556,409,248,10,-1727,1237},{255,-70,-389,-679,357,-882,559,-1509,-582,323,-544,421,260,22,-1715,1249},{272,-53,-372,-662,374,-865,576,-1492,-565,340,-527,438,277,39,-1698,1266},{299,-26,-345,-635,401,-838,603,-1465,-538,367,-500,465,304,66,-1671,1293},{301,-24,-343,-633,403,-836,605,-1463,-536,369,-498,467,306,68,-1669,1295},{300,-25,-344,-634,402,-837,604,-1464,-537,368,-499,466,305,67,-1670,1294}}},
{{{42,-283,-602,-892,144,-1095,346,-1722,-795,110,-757,208,47,-191,-1928,1036},{18,-307,-626,-916,120,-1119,322,-1746,-819,86,-781,184,23,-215,-1952,1012},{7,-318,-637,-927,109,-1130,311,-1757,-830,75,-792,173,12,-226,-1963,1001},{4,-321,-640,-930,106,-1133,308,-1760,-833,72,-795,170,9,-229,-1966,998},{-4,-329,-648,-938,98,-1141,300,-1768,-841,64,-803,162,1,-237,-1974,990},{-16,-341,-660,-950,86,-1153,288,-1780,-853,52,-815,150,-11,-249,-1986,978},{-25,-350,-669,-959,77,-1162,279,-1789,-862,43,-824,141,-20,-258,-1995,969},{-11,-336,-655,-945,91,-1148,293,-1775,-848,57,-810,155,-6,-244,-1981,983},{12,-313,-632,-922,114,-1125,316,-1752,-825,80,-787,178,17,-221,-1958,1006},{36,-289,-608,-898,138,-1101,340,-1728,-801,104,-763,202,41,-197,-1934,1030},{29,-296,-615,-905,131,-1108,333,-1735,-808,97,-770,195,34,-204,-1941,1023},{16,-309,-628,-918,118,-1121,320,-1748,-821,84,-783,182,21,-217,-1954,1010},{-6,-331,-650,-940,96,-1143,298,-1770,-843,62,-805,160,-1,-239,-1976,988},{-7,-332,-651,-941,95,-1144,297,-1771,-844,61,-806,159,-2,-240,-1977,987},{-2,-327,-646,-936,100,-1139,302,-1766,-839,66,-801,164,3,-235,-1972,992},{4,-321,-640,-930,106,-1133,308,-1760,-833,72,-795,170,9,-229,-1966,998},{4,-321,-640,-930,106,-1133,308,-1760,-833,72,-795,170,9,-229,-1966,998},{-10,-335,-654,-944,92,-1147,294,-1774,-847,58,-809,156,-5,-243,-1980,984},{-12,-337,-656,-946,90,-1149,292,-1776,-849,56,-811,154,-7,-245,-1982,982},{-18,-343,-662,-952,84,-1155,286,-1782,-855,50,-817,148,-13,-251,-1988,976},{-19,-344,-663,-953,83,-1156,285,-1783,-856,49,-818,147,-14,-252,-1989,975},{-26,-351,-670,-960,76,-1163,278,-1790,-863,42,-825,140,-21,-259,-1996,968},{-38,-363,-682,-972,64,-1175,266,-1802,-875,30,-837,128,-33,-271,-2008,956},{-37,-362,-681,-971,65,-1174,267,-1801,-874,31,-836,129,-32,-270,-2007,957},{-26,-351,-670,-960,76,-1163,278,-1790,-863,42,-825,140,-21,-259,-1996,968},{-10,-335,-654,-944,92,-1147,294,-1774,-847,58,-809,156,-5,-243,-1980,984},{-8,-333,-652,-942,94,-1145,296,-1772,-845,60,-807,158,-3,-241,-1978,986},{-8,-333,-652,-942,94,-1145,296,-1772,-845,60,-807,158,-3,-241,-1978,986},{7,-318,-637,-927,109,-1130,311,-1757,-830,75,-792,173,12,-226,-1963,1001},{27,-298,-617,-907,129,-1110,331,-1737,-810,95,-772,193,32,-206,-1943,1021},{46,-279,-598,-888,148,-1091,350,-1718,-791,114,-753,212,51,-187,-1924,1040},{58,-267,-586,-876,160,-1079,362,-1706,-779,126,-741,224,63,-175,-1912,1052},{74,-251,-570,-860,176,-1063,378,-1690,-763,142,-725,240,79,-159,-1896,1068},{86,-239,-558,-848,188,-1051,390,-1678,-751,154,-713,252,91,-147,-1884,1080},{96,-229,-548,-838,198,-1041,400,-1668,-741,164,-703,262,101,-137,-1874,1090},{111,-214,-533,-823,213,-1026,415,-1653,-726,179,-688,277,116,-122,-1859,1105},{142,-183,-502,-792,244,-995,446,-1622,-695,210,-657,308,147,-91,-1828,1136},{190,-135,-454,-744,292,-947,494,-1574,-647,258,-609,356,195,-43,-1780,1184},{232,-93,-412,-702,334,-905,536,-1532,-605,300,-567,398,237,-1,-1738,1226},{254,-71,-390,-680,356,-883,558,-1510,-583,322,-545,420,259,21,-1716,1248},{252,-73,-392,-682,354,-885,556,-1512,-585,320,-547,418,257,19,-1718,1246},{243,-82,-401,-691,345,-894,547,-1521,-594,311,-556,409,248,10,-1727,1237},{255,-70,-389,-679,357,-882,559,-1509,-582,323,-544,421,260,22,-1715,1249},{272,-53,-372,-662,374,-865,576,-1492,-565,340,-527,438,277,39,-1698,1266},{299,-26,-345,-635,401,-838,603,-1465,-538,367,-500,465,304,66,-1671,1293},{301,-24,-343,-633,403,-836,605,-1463,-536,369,-498,467,306,68,-1669,1295},{300,-25,-344,-634,402,-837,604,-1464,-537,368,-499,466,305,67,-1670,1294},{304,-21,-340,-630,406,-833,608,-1460,-533,372,-495,470,309,71,-1666,1298}}},
{{{18,-307,-626,-916,120,-1119,322,-1746,-819,86,-781,184,23,-215,-1952,1012},{7,-318,-637,-927,109,-1130,311,-1757,-830,75,-792,173,12,-226,-1963,1001},{4,-321,-640,-930,106,-1133,308,-1760,-833,72,-795,170,9,-229,-1966,998},{-4,-329,-648,-938,98,-1141,300,-1768,-841,64,-803,162,1,-237,-1974,990},{-16,-341,-660,-950,86,-1153,288,-1780,-853,52,-815,150,-11,-249,-1986,978},{-25,-350,-669,-959,77,-1162,279,-1789,-862,43,-824,141,-20,-258,-1995,969},{-11,-336,-655,-945,91,-1148,293,-1775,-848,57,-810,155,-6,-244,-1981,983},{12,-313,-632,-922,114,-1125,316,-1752,-825,80,-787,178,17,-221,-1958,1006},{36,-289,-608,-898,138,-1101,340,-1728,-801,104,-763,202,41,-197,-1934,1030},{29,-296,-615,-905,131,-1108,333,-1735,-808,97,-770,195,34,-204,-1941,1023},{16,-309,-628,-918,118,-1121,320,-1748,-821,84,-783,182,21,-217,-1954,1010},{-6,-331,-650,-940,96,-1143,298,-1770,-843,62,-805,160,-1,-239,-1976,988},{-7,-332,-651,-941,95,-1144,297,-1771,-844,61,-806,159,-2,-240,-1977,987},{-2,-327,-646,-936,100,-1139,302,-1766,-839,66,-801,164,3,-235,-1972,992},{4,-321,-640,-930,106,-1133,308,-1760,-833,72,-795,170,9,-229,-1966,998},{4,-321,-640,-930,106,-1133,308,-1760,-833,72,-795,170,9,-229,-1966,998},{-10,-335,-654,-944,92,-1147,294,-1774,-847,58,-809,156,-5,-243,-1980,984},{-12,-337,-656,-946,90,-1149,292,-1776,-849,56,-811,154,-7,-245,-1982,982},{-18,-343,-662,-952,84,-1155,286,-1782,-855,50,-817,148,-13,-251,-1988,976},{-19,-344,-663,-953,83,-1156,285,-1783,-856,49,-818,147,-14,-252,-1989,975},{-26,-351,-670,-960,76,-1163,278,-1790,-863,42,-825,140,-21,-259,-1996,968},{-38,-363,-682,-972,64,-1175,266,-1802,-875,30,-837,128,-33,-271,-2008,956},{-37,-362,-681,-971,65,-1174,267,-1801,-874,31,-836,129,-32,-270,-2007,957},{-26,-351,-670,-960,76,-1163,278,-1790,-863,42,-825,140,-21,-259,-1996,968},{-10,-335,-654,-944,92,-1147,294,-1774,-847,58,-809,156,-5,-243,-1980,984},{-8,-333,-652,-942,94,-1145,296,-1772,-845,60,-807,158,-3,-241,-1978,986},{-8,-333,-652,-942,94,-1145,296,-1772,-845,60,-807,158,-3,-241,-1978,986},{7,-318,-637,-927,109,-1130,311,-1757,-830,75,-792,173,12,-226,-1963,1001},{27,-298,-617,-907,129,-1110,331,-1737,-810,95,-772,193,32,-206,-1943,1021},{46,-279,-598,-888,148,-1091,350,-1718,-791,114,-753,212,51,-187,-1924,1040},{58,-267,-586,-876,160,-1079,362,-1706,-779,126,-741,224,63,-175,-1912,1052},{74,-251,-570,-860,176,-1063,378,-1690,-763,142,-725,240,79,-159,-1896,1068},{86,-239,-558,-848,188,-1051,390,-1678,-751,154,-713,252,91,-147,-1884,1080},{96,-229,-548,-838,198,-1041,400,-1668,-741,164,-703,262,101,-137,-1874,1090},{111,-214,-533,-823,213,-1026,415,-1653,-726,179,-688,277,116,-122,-1859,1105},{142,-183,-502,-792,244,-995,446,-1622,-695,210,-657,308,147,-91,-1828,1136},{190,-135,-454,-744,292,-947,494,-1574,-647,258,-609,356,195,-43,-1780,1184},{232,-93,-412,-702,334,-905,536,-1532,-605,300,-567,398,237,-1,-1738,1226},{254,-71,-390,-680,356,-883,558,-1510,-583,322,-545,420,259,21,-1716,1248},{252,-73,-392,-682,354,-885,556,-1512,-585,320,-547,418,257,19,-1718,1246},{243,-82,-401,-691,345,-894,547,-1521,-594,311,-556,409,248,10,-1727,1237},{255,-70,-389,-679,357,-882,559,-1509,-582,323,-544,421,260,22,-1715,1249},{272,-53,-372,-662,374,-865,576,-1492,-565,340,-527,438,277,39,-1698,1266},{299,-26,-345,-635,401,-838,603,-1465,-538,367,-500,465,304,66,-1671,1293},{301,-24,-343,-633,403,-836,605,-1463,-536,369,-498,467,306,68,-1669,1295},{300,-25,-344,-634,402,-837,604,-1464,-537,368,-499,466,305,67,-1670,1294},{304,-21,-340,-630,406,-833,608,-1460,-533,372,-495,470,309,71,-1666,1298},{331,6,-313,-603,433,-806,635,-1433,-506,399,-468,497,336,98,-1639,1325}}},
{{{7,-318,-637,-927,109,-1130,311,-1757,-830,75,-792,173,12,-226,-1963,1001},{4,-321,-640,-930,106,-1133,308,-1760,-833,72,-795,170,9,-229,-1966,998},{-4,-329,-648,-938,98,-1141,300,-1768,-841,64,-803,162,1,-237,-1974,990},{-16,-341,-660,-950,86,-1153,288,-1780,-853,52,-815,150,-11,-249,-1986,978},{-25,-350,-669,-959,77,-1162,279,-1789,-862,43,-824,141,-20,-258,-1995,969},{-11,-336,-655,-945,91,-1148,293,-1775,-848,57,-810,155,-6,-244,-1981,983},{12,-313,-632,-922,114,-1125,316,-1752,-825,80,-787,178,17,-221,-1958,1006},{36,-289,-608,-898,138,-1101,340,-1728,-801,104,-763,202,41,-197,-1934,1030},{29,-296,-615,-905,131,-1108,333,-1735,-808,97,-770,195,34,-204,-1941,1023},{16,-309,-628,-918,118,-1121,320,-1748,-821,84,-783,182,21,-217,-1954,1010},{-6,-331,-650,-940,96,-1143,298,-1770,-843,62,-805,160,-1,-239,-1976,988},{-7,-332,-651,-941,95,-1144,297,-1771,-844,61,-806,159,-2,-240,-1977,987},{-2,-327,-646,-936,100,-1139,302,-1766,-839,66,-801,164,3,-235,-1972,992},{4,-321,-640,-930,106,-1133,308,-1760,-833,72,-795,170,9,-229,-1966,998},{4,-321,-640,-930,106,-1133,308,-1760,-833,72,-795,170,9,-229,-1966,998},{-10,-335,-654,-944,92,-1147,294,-1774,-847,58,-809,156,-5,-243,-1980,984},{-12,-337,-656,-946,90,-1149,292,-1776,-849,56,-811,154,-7,-245,-1982,982},{-18,-343,-662,-952,84,-1155,286,-1782,-855,50,-817,148,-13,-251,-1988,976},{-19,-344,-663,-953,83,-1156,285,-1783,-856,49,-818,147,-14,-252,-1989,975},{-26,-351,-670,-960,76,-1163,278,-1790,-863,42,-825,140,-21,-259,-1996,968},{-38,-363,-682,-972,64,-1175,266,-1802,-875,30,-837,128,-33,-271,-2008,956},{-37,-362,-681,-971,65,-1174,267,-1801,-874,31,-836,129,-32,-270,-2007,957},{-26,-351,-670,-960,76,-1163,278,-1790,-863,42,-825,140,-21,-259,-1996,968},{-10,-335,-654,-944,92,-1147,294,-1774,-847,58,-809,156,-5,-243,-1980,984},{-8,-333,-652,-942,94,-1145,296,-1772,-845,60,-807,158,-3,-241,-1978,986},{-8,-333,-652,-942,94,-1145,296,-1772,-845,60,-807,158,-3,-241,-1978,986},{7,-318,-637,-927,109,-1130,311,-1757,-830,75,-792,173,12,-226,-1963,1001},{27,-298,-617,-907,129,-1110,331,-1737,-810,95,-772,193,32,-206,-1943,1021},{46,-279,-598,-888,148,-1091,350,-1718,-791,114,-753,212,51,-187,-1924,1040},{58,-267,-586,-876,160,-1079,362,-1706,-779,126,-741,224,63,-175,-1912,1052},{74,-251,-570,-860,176,-1063,378,-1690,-763,142,-725,240,79,-159,-1896,1068},{86,-239,-558,-848,188,-1051,390,-1678,-751,154,-713,252,91,-147,-1884,1080},{96,-229,-548,-838,198,-1041,400,-1668,-741,164,-703,262,101,-137,-1874,1090},{111,-214,-533,-823,213,-1026,415,-1653,-726,179,-688,277,116,-122,-1859,1105},{142,-183,-502,-792,244,-995,446,-1622,-695,210,-657,308,147,-91,-1828,1136},{190,-135,-454,-744,292,-947,494,-1574,-647,258,-609,356,195,-43,-1780,1184},{232,-93,-412,-702,334,-905,536,-1532,-605,300,-567,398,237,-1,-1738,1226},{254,-71,-390,-680,356,-883,558,-1510,-583,322,-545,420,259,21,-1716,1248},{252,-73,-392,-682,354,-885,556,-1512,-585,320,-547,418,257,19,-1718,1246},{243,-82,-401,-691,345,-894,547,-1521,-594,311,-556,409,248,10,-1727,1237},{255,-70,-389,-679,357,-882,559,-1509,-582,323,-544,421,260,22,-1715,1249},{272,-53,-372,-662,374,-865,576,-1492,-565,340,-527,438,277,39,-1698,1266},{299,-26,-345,-635,401,-838,603,-1465,-538,367,-500,465,304,66,-1671,1293},{301,-24,-343,-633,403,-836,605,-1463,-536,369,-498,467,306,68,-1669,1295},{300,-25,-344,-634,402,-837,604,-1464,-537,368,-499,466,305,67,-1670,1294},{304,-21,-340,-630,406,-833,608,-1460,-533,372,-495,470,309,71,-1666,1298},{331,6,-313,-603,433,-806,635,-1433,-506,399,-468,497,336,98,-1639,1325},{368,43,-276,-566,470,-769,672,-1396,-469,436,-431,534,373,135,-1602,1362}}},
