//2022-03-06 11:47:52.768902
#ifndef QPAIRNET_MC2CONV1D_PARAMS_H
#define QPAIRNET_MC2CONV1D_PARAMS_H

#include <stdint.h>
#include <stdbool.h>

#define GESN 5
#define LEN_LABLE 2
struct Conv1d_Params {
	int batch_size;
	int input_width;
	int in_channels;
	int out_channels;
	int kernel_size;
	int stride_size;
	int padding_front;
	int padding_back;
	int output_width;
	double out_scale;
	};
#define TRUE_LABEL "4 3 "
const double downScalar_1 = 0.015848150243710342;
const elem_t z3_1 = -2;
const elem_t z4_1 = -2;
const elem_t QConv_BN_1[18][16]=
{{-21,25,8,-15,-10,12,27,-86,-29,0,8,17,1,-15,-61,-13},{-41,-33,-21,-5,-16,31,25,15,-35,35,12,-3,16,-40,69,53},{24,-6,-62,0,29,-47,-16,-8,47,12,-9,4,-26,1,-92,-10},{24,39,-9,7,-14,-29,13,-65,-50,45,12,20,16,-10,-29,59},{-34,44,62,-23,-17,-55,-3,22,56,-31,-18,-10,11,27,-65,-69},{26,-43,-42,-2,40,-59,27,26,-30,22,7,-14,-6,0,-43,47},{37,49,60,23,26,55,36,-76,47,17,18,-9,4,22,-6,74},{9,24,20,0,-29,28,17,-43,-78,30,19,-14,-11,27,24,17},{-11,47,-74,-11,-15,64,30,-65,32,-22,-19,15,29,20,68,115},{-9,36,-65,-22,20,-54,-12,-20,-68,25,-28,-24,25,-29,-16,83},{45,-43,-61,-20,22,63,30,-26,-49,2,-23,25,0,-6,61,-17},{-19,-42,30,-23,48,-44,-6,-23,43,-4,-10,18,-26,1,-19,-83},{-16,-20,27,-7,31,-25,0,23,-13,-1,3,-4,-14,14,-35,30},{1,42,51,2,29,45,-29,-70,-23,-14,-21,23,18,16,-35,-58},{-20,-8,82,20,-3,-33,-4,-63,-53,-21,8,-13,27,-19,-3,66},{-28,4,37,-15,-41,63,26,33,-15,36,16,6,19,-20,-31,-43},{41,-34,33,-14,7,-13,22,-40,-17,45,-16,31,26,32,-27,68},{-17,21,-88,16,24,0,-22,7,-61,38,4,24,0,-8,-21,90}};
const acc_t QConv_BN_bias_1[142][48][16] = 

{{{391,-38,-244,-457,357,-747,529,-923,-162,243,-374,458,282,139,-1318,973},{415,-14,-220,-433,381,-723,553,-899,-138,267,-350,482,306,163,-1294,997},{401,-28,-234,-447,367,-737,539,-913,-152,253,-364,468,292,149,-1308,983},{363,-66,-272,-485,329,-775,501,-951,-190,215,-402,430,254,111,-1346,945},{324,-105,-311,-524,290,-814,462,-990,-229,176,-441,391,215,72,-1385,906},{301,-128,-334,-547,267,-837,439,-1013,-252,153,-464,368,192,49,-1408,883},{297,-132,-338,-551,263,-841,435,-1017,-256,149,-468,364,188,45,-1412,879},{305,-124,-330,-543,271,-833,443,-1009,-248,157,-460,372,196,53,-1404,887},{306,-123,-329,-542,272,-832,444,-1008,-247,158,-459,373,197,54,-1403,888},{304,-125,-331,-544,270,-834,442,-1010,-249,156,-461,371,195,52,-1405,886},{288,-141,-347,-560,254,-850,426,-1026,-265,140,-477,355,179,36,-1421,870},{263,-166,-372,-585,229,-875,401,-1051,-290,115,-502,330,154,11,-1446,845},{239,-190,-396,-609,205,-899,377,-1075,-314,91,-526,306,130,-13,-1470,821},{217,-212,-418,-631,183,-921,355,-1097,-336,69,-548,284,108,-35,-1492,799},{200,-229,-435,-648,166,-938,338,-1114,-353,52,-565,267,91,-52,-1509,782},{174,-255,-461,-674,140,-964,312,-1140,-379,26,-591,241,65,-78,-1535,756},{153,-276,-482,-695,119,-985,291,-1161,-400,5,-612,220,44,-99,-1556,735},{130,-299,-505,-718,96,-1008,268,-1184,-423,-18,-635,197,21,-122,-1579,712},{103,-326,-532,-745,69,-1035,241,-1211,-450,-45,-662,170,-6,-149,-1606,685},{80,-349,-555,-768,46,-1058,218,-1234,-473,-68,-685,147,-29,-172,-1629,662},{63,-366,-572,-785,29,-1075,201,-1251,-490,-85,-702,130,-46,-189,-1646,645},{46,-383,-589,-802,12,-1092,184,-1268,-507,-102,-719,113,-63,-206,-1663,628},{23,-406,-612,-825,-11,-1115,161,-1291,-530,-125,-742,90,-86,-229,-1686,605},{7,-422,-628,-841,-27,-1131,145,-1307,-546,-141,-758,74,-102,-245,-1702,589},{8,-421,-627,-840,-26,-1130,146,-1306,-545,-140,-757,75,-101,-244,-1701,590},{12,-417,-623,-836,-22,-1126,150,-1302,-541,-136,-753,79,-97,-240,-1697,594},{10,-419,-625,-838,-24,-1128,148,-1304,-543,-138,-755,77,-99,-242,-1699,592},{16,-413,-619,-832,-18,-1122,154,-1298,-537,-132,-749,83,-93,-236,-1693,598},{25,-404,-610,-823,-9,-1113,163,-1289,-528,-123,-740,92,-84,-227,-1684,607},{27,-402,-608,-821,-7,-1111,165,-1287,-526,-121,-738,94,-82,-225,-1682,609},{0,-429,-635,-848,-34,-1138,138,-1314,-553,-148,-765,67,-109,-252,-1709,582},{-28,-457,-663,-876,-62,-1166,110,-1342,-581,-176,-793,39,-137,-280,-1737,554},{-38,-467,-673,-886,-72,-1176,100,-1352,-591,-186,-803,29,-147,-290,-1747,544},{-22,-451,-657,-870,-56,-1160,116,-1336,-575,-170,-787,45,-131,-274,-1731,560},{-5,-434,-640,-853,-39,-1143,133,-1319,-558,-153,-770,62,-114,-257,-1714,577},{3,-426,-632,-845,-31,-1135,141,-1311,-550,-145,-762,70,-106,-249,-1706,585},{4,-425,-631,-844,-30,-1134,142,-1310,-549,-144,-761,71,-105,-248,-1705,586},{6,-423,-629,-842,-28,-1132,144,-1308,-547,-142,-759,73,-103,-246,-1703,588},{10,-419,-625,-838,-24,-1128,148,-1304,-543,-138,-755,77,-99,-242,-1699,592},{3,-426,-632,-845,-31,-1135,141,-1311,-550,-145,-762,70,-106,-249,-1706,585},{-4,-433,-639,-852,-38,-1142,134,-1318,-557,-152,-769,63,-113,-256,-1713,578},{-7,-436,-642,-855,-41,-1145,131,-1321,-560,-155,-772,60,-116,-259,-1716,575},{-16,-445,-651,-864,-50,-1154,122,-1330,-569,-164,-781,51,-125,-268,-1725,566},{-40,-469,-675,-888,-74,-1178,98,-1354,-593,-188,-805,27,-149,-292,-1749,542},{-57,-486,-692,-905,-91,-1195,81,-1371,-610,-205,-822,10,-166,-309,-1766,525},{-40,-469,-675,-888,-74,-1178,98,-1354,-593,-188,-805,27,-149,-292,-1749,542},{-4,-433,-639,-852,-38,-1142,134,-1318,-557,-152,-769,63,-113,-256,-1713,578},{13,-416,-622,-835,-21,-1125,151,-1301,-540,-135,-752,80,-96,-239,-1696,595}},
{{415,-14,-220,-433,381,-723,553,-899,-138,267,-350,482,306,163,-1294,997},{401,-28,-234,-447,367,-737,539,-913,-152,253,-364,468,292,149,-1308,983},{363,-66,-272,-485,329,-775,501,-951,-190,215,-402,430,254,111,-1346,945},{324,-105,-311,-524,290,-814,462,-990,-229,176,-441,391,215,72,-1385,906},{301,-128,-334,-547,267,-837,439,-1013,-252,153,-464,368,192,49,-1408,883},{297,-132,-338,-551,263,-841,435,-1017,-256,149,-468,364,188,45,-1412,879},{305,-124,-330,-543,271,-833,443,-1009,-248,157,-460,372,196,53,-1404,887},{306,-123,-329,-542,272,-832,444,-1008,-247,158,-459,373,197,54,-1403,888},{304,-125,-331,-544,270,-834,442,-1010,-249,156,-461,371,195,52,-1405,886},{288,-141,-347,-560,254,-850,426,-1026,-265,140,-477,355,179,36,-1421,870},{263,-166,-372,-585,229,-875,401,-1051,-290,115,-502,330,154,11,-1446,845},{239,-190,-396,-609,205,-899,377,-1075,-314,91,-526,306,130,-13,-1470,821},{217,-212,-418,-631,183,-921,355,-1097,-336,69,-548,284,108,-35,-1492,799},{200,-229,-435,-648,166,-938,338,-1114,-353,52,-565,267,91,-52,-1509,782},{174,-255,-461,-674,140,-964,312,-1140,-379,26,-591,241,65,-78,-1535,756},{153,-276,-482,-695,119,-985,291,-1161,-400,5,-612,220,44,-99,-1556,735},{130,-299,-505,-718,96,-1008,268,-1184,-423,-18,-635,197,21,-122,-1579,712},{103,-326,-532,-745,69,-1035,241,-1211,-450,-45,-662,170,-6,-149,-1606,685},{80,-349,-555,-768,46,-1058,218,-1234,-473,-68,-685,147,-29,-172,-1629,662},{63,-366,-572,-785,29,-1075,201,-1251,-490,-85,-702,130,-46,-189,-1646,645},{46,-383,-589,-802,12,-1092,184,-1268,-507,-102,-719,113,-63,-206,-1663,628},{23,-406,-612,-825,-11,-1115,161,-1291,-530,-125,-742,90,-86,-229,-1686,605},{7,-422,-628,-841,-27,-1131,145,-1307,-546,-141,-758,74,-102,-245,-1702,589},{8,-421,-627,-840,-26,-1130,146,-1306,-545,-140,-757,75,-101,-244,-1701,590},{12,-417,-623,-836,-22,-1126,150,-1302,-541,-136,-753,79,-97,-240,-1697,594},{10,-419,-625,-838,-24,-1128,148,-1304,-543,-138,-755,77,-99,-242,-1699,592},{16,-413,-619,-832,-18,-1122,154,-1298,-537,-132,-749,83,-93,-236,-1693,598},{25,-404,-610,-823,-9,-1113,163,-1289,-528,-123,-740,92,-84,-227,-1684,607},{27,-402,-608,-821,-7,-1111,165,-1287,-526,-121,-738,94,-82,-225,-1682,609},{0,-429,-635,-848,-34,-1138,138,-1314,-553,-148,-765,67,-109,-252,-1709,582},{-28,-457,-663,-876,-62,-1166,110,-1342,-581,-176,-793,39,-137,-280,-1737,554},{-38,-467,-673,-886,-72,-1176,100,-1352,-591,-186,-803,29,-147,-290,-1747,544},{-22,-451,-657,-870,-56,-1160,116,-1336,-575,-170,-787,45,-131,-274,-1731,560},{-5,-434,-640,-853,-39,-1143,133,-1319,-558,-153,-770,62,-114,-257,-1714,577},{3,-426,-632,-845,-31,-1135,141,-1311,-550,-145,-762,70,-106,-249,-1706,585},{4,-425,-631,-844,-30,-1134,142,-1310,-549,-144,-761,71,-105,-248,-1705,586},{6,-423,-629,-842,-28,-1132,144,-1308,-547,-142,-759,73,-103,-246,-1703,588},{10,-419,-625,-838,-24,-1128,148,-1304,-543,-138,-755,77,-99,-242,-1699,592},{3,-426,-632,-845,-31,-1135,141,-1311,-550,-145,-762,70,-106,-249,-1706,585},{-4,-433,-639,-852,-38,-1142,134,-1318,-557,-152,-769,63,-113,-256,-1713,578},{-7,-436,-642,-855,-41,-1145,131,-1321,-560,-155,-772,60,-116,-259,-1716,575},{-16,-445,-651,-864,-50,-1154,122,-1330,-569,-164,-781,51,-125,-268,-1725,566},{-40,-469,-675,-888,-74,-1178,98,-1354,-593,-188,-805,27,-149,-292,-1749,542},{-57,-486,-692,-905,-91,-1195,81,-1371,-610,-205,-822,10,-166,-309,-1766,525},{-40,-469,-675,-888,-74,-1178,98,-1354,-593,-188,-805,27,-149,-292,-1749,542},{-4,-433,-639,-852,-38,-1142,134,-1318,-557,-152,-769,63,-113,-256,-1713,578},{13,-416,-622,-835,-21,-1125,151,-1301,-540,-135,-752,80,-96,-239,-1696,595},{5,-424,-630,-843,-29,-1133,143,-1309,-548,-143,-760,72,-104,-247,-1704,587}},
{{401,-28,-234,-447,367,-737,539,-913,-152,253,-364,468,292,149,-1308,983},{363,-66,-272,-485,329,-775,501,-951,-190,215,-402,430,254,111,-1346,945},{324,-105,-311,-524,290,-814,462,-990,-229,176,-441,391,215,72,-1385,906},{301,-128,-334,-547,267,-837,439,-1013,-252,153,-464,368,192,49,-1408,883},{297,-132,-338,-551,263,-841,435,-1017,-256,149,-468,364,188,45,-1412,879},{305,-124,-330,-543,271,-833,443,-1009,-248,157,-460,372,196,53,-1404,887},{306,-123,-329,-542,272,-832,444,-1008,-247,158,-459,373,197,54,-1403,888},{304,-125,-331,-544,270,-834,442,-1010,-249,156,-461,371,195,52,-1405,886},{288,-141,-347,-560,254,-850,426,-1026,-265,140,-477,355,179,36,-1421,870},{263,-166,-372,-585,229,-875,401,-1051,-290,115,-502,330,154,11,-1446,845},{239,-190,-396,-609,205,-899,377,-1075,-314,91,-526,306,130,-13,-1470,821},{217,-212,-418,-631,183,-921,355,-1097,-336,69,-548,284,108,-35,-1492,799},{200,-229,-435,-648,166,-938,338,-1114,-353,52,-565,267,91,-52,-1509,782},{174,-255,-461,-674,140,-964,312,-1140,-379,26,-591,241,65,-78,-1535,756},{153,-276,-482,-695,119,-985,291,-1161,-400,5,-612,220,44,-99,-1556,735},{130,-299,-505,-718,96,-1008,268,-1184,-423,-18,-635,197,21,-122,-1579,712},{103,-326,-532,-745,69,-1035,241,-1211,-450,-45,-662,170,-6,-149,-1606,685},{80,-349,-555,-768,46,-1058,218,-1234,-473,-68,-685,147,-29,-172,-1629,662},{63,-366,-572,-785,29,-1075,201,-1251,-490,-85,-702,130,-46,-189,-1646,645},{46,-383,-589,-802,12,-1092,184,-1268,-507,-102,-719,113,-63,-206,-1663,628},{23,-406,-612,-825,-11,-1115,161,-1291,-530,-125,-742,90,-86,-229,-1686,605},{7,-422,-628,-841,-27,-1131,145,-1307,-546,-141,-758,74,-102,-245,-1702,589},{8,-421,-627,-840,-26,-1130,146,-1306,-545,-140,-757,75,-101,-244,-1701,590},{12,-417,-623,-836,-22,-1126,150,-1302,-541,-136,-753,79,-97,-240,-1697,594},{10,-419,-625,-838,-24,-1128,148,-1304,-543,-138,-755,77,-99,-242,-1699,592},{16,-413,-619,-832,-18,-1122,154,-1298,-537,-132,-749,83,-93,-236,-1693,598},{25,-404,-610,-823,-9,-1113,163,-1289,-528,-123,-740,92,-84,-227,-1684,607},{27,-402,-608,-821,-7,-1111,165,-1287,-526,-121,-738,94,-82,-225,-1682,609},{0,-429,-635,-848,-34,-1138,138,-1314,-553,-148,-765,67,-109,-252,-1709,582},{-28,-457,-663,-876,-62,-1166,110,-1342,-581,-176,-793,39,-137,-280,-1737,554},{-38,-467,-673,-886,-72,-1176,100,-1352,-591,-186,-803,29,-147,-290,-1747,544},{-22,-451,-657,-870,-56,-1160,116,-1336,-575,-170,-787,45,-131,-274,-1731,560},{-5,-434,-640,-853,-39,-1143,133,-1319,-558,-153,-770,62,-114,-257,-1714,577},{3,-426,-632,-845,-31,-1135,141,-1311,-550,-145,-762,70,-106,-249,-1706,585},{4,-425,-631,-844,-30,-1134,142,-1310,-549,-144,-761,71,-105,-248,-1705,586},{6,-423,-629,-842,-28,-1132,144,-1308,-547,-142,-759,73,-103,-246,-1703,588},{10,-419,-625,-838,-24,-1128,148,-1304,-543,-138,-755,77,-99,-242,-1699,592},{3,-426,-632,-845,-31,-1135,141,-1311,-550,-145,-762,70,-106,-249,-1706,585},{-4,-433,-639,-852,-38,-1142,134,-1318,-557,-152,-769,63,-113,-256,-1713,578},{-7,-436,-642,-855,-41,-1145,131,-1321,-560,-155,-772,60,-116,-259,-1716,575},{-16,-445,-651,-864,-50,-1154,122,-1330,-569,-164,-781,51,-125,-268,-1725,566},{-40,-469,-675,-888,-74,-1178,98,-1354,-593,-188,-805,27,-149,-292,-1749,542},{-57,-486,-692,-905,-91,-1195,81,-1371,-610,-205,-822,10,-166,-309,-1766,525},{-40,-469,-675,-888,-74,-1178,98,-1354,-593,-188,-805,27,-149,-292,-1749,542},{-4,-433,-639,-852,-38,-1142,134,-1318,-557,-152,-769,63,-113,-256,-1713,578},{13,-416,-622,-835,-21,-1125,151,-1301,-540,-135,-752,80,-96,-239,-1696,595},{5,-424,-630,-843,-29,-1133,143,-1309,-548,-143,-760,72,-104,-247,-1704,587},{-16,-445,-651,-864,-50,-1154,122,-1330,-569,-164,-781,51,-125,-268,-1725,566}},
{{363,-66,-272,-485,329,-775,501,-951,-190,215,-402,430,254,111,-1346,945},{324,-105,-311,-524,290,-814,462,-990,-229,176,-441,391,215,72,-1385,906},{301,-128,-334,-547,267,-837,439,-1013,-252,153,-464,368,192,49,-1408,883},{297,-132,-338,-551,263,-841,435,-1017,-256,149,-468,364,188,45,-1412,879},{305,-124,-330,-543,271,-833,443,-1009,-248,157,-460,372,196,53,-1404,887},{306,-123,-329,-542,272,-832,444,-1008,-247,158,-459,373,197,54,-1403,888},{304,-125,-331,-544,270,-834,442,-1010,-249,156,-461,371,195,52,-1405,886},{288,-141,-347,-560,254,-850,426,-1026,-265,140,-477,355,179,36,-1421,870},{263,-166,-372,-585,229,-875,401,-1051,-290,115,-502,330,154,11,-1446,845},{239,-190,-396,-609,205,-899,377,-1075,-314,91,-526,306,130,-13,-1470,821},{217,-212,-418,-631,183,-921,355,-1097,-336,69,-548,284,108,-35,-1492,799},{200,-229,-435,-648,166,-938,338,-1114,-353,52,-565,267,91,-52,-1509,782},{174,-255,-461,-674,140,-964,312,-1140,-379,26,-591,241,65,-78,-1535,756},{153,-276,-482,-695,119,-985,291,-1161,-400,5,-612,220,44,-99,-1556,735},{130,-299,-505,-718,96,-1008,268,-1184,-423,-18,-635,197,21,-122,-1579,712},{103,-326,-532,-745,69,-1035,241,-1211,-450,-45,-662,170,-6,-149,-1606,685},{80,-349,-555,-768,46,-1058,218,-1234,-473,-68,-685,147,-29,-172,-1629,662},{63,-366,-572,-785,29,-1075,201,-1251,-490,-85,-702,130,-46,-189,-1646,645},{46,-383,-589,-802,12,-1092,184,-1268,-507,-102,-719,113,-63,-206,-1663,628},{23,-406,-612,-825,-11,-1115,161,-1291,-530,-125,-742,90,-86,-229,-1686,605},{7,-422,-628,-841,-27,-1131,145,-1307,-546,-141,-758,74,-102,-245,-1702,589},{8,-421,-627,-840,-26,-1130,146,-1306,-545,-140,-757,75,-101,-244,-1701,590},{12,-417,-623,-836,-22,-1126,150,-1302,-541,-136,-753,79,-97,-240,-1697,594},{10,-419,-625,-838,-24,-1128,148,-1304,-543,-138,-755,77,-99,-242,-1699,592},{16,-413,-619,-832,-18,-1122,154,-1298,-537,-132,-749,83,-93,-236,-1693,598},{25,-404,-610,-823,-9,-1113,163,-1289,-528,-123,-740,92,-84,-227,-1684,607},{27,-402,-608,-821,-7,-1111,165,-1287,-526,-121,-738,94,-82,-225,-1682,609},{0,-429,-635,-848,-34,-1138,138,-1314,-553,-148,-765,67,-109,-252,-1709,582},{-28,-457,-663,-876,-62,-1166,110,-1342,-581,-176,-793,39,-137,-280,-1737,554},{-38,-467,-673,-886,-72,-1176,100,-1352,-591,-186,-803,29,-147,-290,-1747,544},{-22,-451,-657,-870,-56,-1160,116,-1336,-575,-170,-787,45,-131,-274,-1731,560},{-5,-434,-640,-853,-39,-1143,133,-1319,-558,-153,-770,62,-114,-257,-1714,577},{3,-426,-632,-845,-31,-1135,141,-1311,-550,-145,-762,70,-106,-249,-1706,585},{4,-425,-631,-844,-30,-1134,142,-1310,-549,-144,-761,71,-105,-248,-1705,586},{6,-423,-629,-842,-28,-1132,144,-1308,-547,-142,-759,73,-103,-246,-1703,588},{10,-419,-625,-838,-24,-1128,148,-1304,-543,-138,-755,77,-99,-242,-1699,592},{3,-426,-632,-845,-31,-1135,141,-1311,-550,-145,-762,70,-106,-249,-1706,585},{-4,-433,-639,-852,-38,-1142,134,-1318,-557,-152,-769,63,-113,-256,-1713,578},{-7,-436,-642,-855,-41,-1145,131,-1321,-560,-155,-772,60,-116,-259,-1716,575},{-16,-445,-651,-864,-50,-1154,122,-1330,-569,-164,-781,51,-125,-268,-1725,566},{-40,-469,-675,-888,-74,-1178,98,-1354,-593,-188,-805,27,-149,-292,-1749,542},{-57,-486,-692,-905,-91,-1195,81,-1371,-610,-205,-822,10,-166,-309,-1766,525},{-40,-469,-675,-888,-74,-1178,98,-1354,-593,-188,-805,27,-149,-292,-1749,542},{-4,-433,-639,-852,-38,-1142,134,-1318,-557,-152,-769,63,-113,-256,-1713,578},{13,-416,-622,-835,-21,-1125,151,-1301,-540,-135,-752,80,-96,-239,-1696,595},{5,-424,-630,-843,-29,-1133,143,-1309,-548,-143,-760,72,-104,-247,-1704,587},{-16,-445,-651,-864,-50,-1154,122,-1330,-569,-164,-781,51,-125,-268,-1725,566},{-38,-467,-673,-886,-72,-1176,100,-1352,-591,-186,-803,29,-147,-290,-1747,544}},
{{324,-105,-311,-524,290,-814,462,-990,-229,176,-441,391,215,72,-1385,906},{301,-128,-334,-547,267,-837,439,-1013,-252,153,-464,368,192,49,-1408,883},{297,-132,-338,-551,263,-841,435,-1017,-256,149,-468,364,188,45,-1412,879},{305,-124,-330,-543,271,-833,443,-1009,-248,157,-460,372,196,53,-1404,887},{306,-123,-329,-542,272,-832,444,-1008,-247,158,-459,373,197,54,-1403,888},{304,-125,-331,-544,270,-834,442,-1010,-249,156,-461,371,195,52,-1405,886},{288,-141,-347,-560,254,-850,426,-1026,-265,140,-477,355,179,36,-1421,870},{263,-166,-372,-585,229,-875,401,-1051,-290,115,-502,330,154,11,-1446,845},{239,-190,-396,-609,205,-899,377,-1075,-314,91,-526,306,130,-13,-1470,821},{217,-212,-418,-631,183,-921,355,-1097,-336,69,-548,284,108,-35,-1492,799},{200,-229,-435,-648,166,-938,338,-1114,-353,52,-565,267,91,-52,-1509,782},{174,-255,-461,-674,140,-964,312,-1140,-379,26,-591,241,65,-78,-1535,756},{153,-276,-482,-695,119,-985,291,-1161,-400,5,-612,220,44,-99,-1556,735},{130,-299,-505,-718,96,-1008,268,-1184,-423,-18,-635,197,21,-122,-1579,712},{103,-326,-532,-745,69,-1035,241,-1211,-450,-45,-662,170,-6,-149,-1606,685},{80,-349,-555,-768,46,-1058,218,-1234,-473,-68,-685,147,-29,-172,-1629,662},{63,-366,-572,-785,29,-1075,201,-1251,-490,-85,-702,130,-46,-189,-1646,645},{46,-383,-589,-802,12,-1092,184,-1268,-507,-102,-719,113,-63,-206,-1663,628},{23,-406,-612,-825,-11,-1115,161,-1291,-530,-125,-742,90,-86,-229,-1686,605},{7,-422,-628,-841,-27,-1131,145,-1307,-546,-141,-758,74,-102,-245,-1702,589},{8,-421,-627,-840,-26,-1130,146,-1306,-545,-140,-757,75,-101,-244,-1701,590},{12,-417,-623,-836,-22,-1126,150,-1302,-541,-136,-753,79,-97,-240,-1697,594},{10,-419,-625,-838,-24,-1128,148,-1304,-543,-138,-755,77,-99,-242,-1699,592},{16,-413,-619,-832,-18,-1122,154,-1298,-537,-132,-749,83,-93,-236,-1693,598},{25,-404,-610,-823,-9,-1113,163,-1289,-528,-123,-740,92,-84,-227,-1684,607},{27,-402,-608,-821,-7,-1111,165,-1287,-526,-121,-738,94,-82,-225,-1682,609},{0,-429,-635,-848,-34,-1138,138,-1314,-553,-148,-765,67,-109,-252,-1709,582},{-28,-457,-663,-876,-62,-1166,110,-1342,-581,-176,-793,39,-137,-280,-1737,554},{-38,-467,-673,-886,-72,-1176,100,-1352,-591,-186,-803,29,-147,-290,-1747,544},{-22,-451,-657,-870,-56,-1160,116,-1336,-575,-170,-787,45,-131,-274,-1731,560},{-5,-434,-640,-853,-39,-1143,133,-1319,-558,-153,-770,62,-114,-257,-1714,577},{3,-426,-632,-845,-31,-1135,141,-1311,-550,-145,-762,70,-106,-249,-1706,585},{4,-425,-631,-844,-30,-1134,142,-1310,-549,-144,-761,71,-105,-248,-1705,586},{6,-423,-629,-842,-28,-1132,144,-1308,-547,-142,-759,73,-103,-246,-1703,588},{10,-419,-625,-838,-24,-1128,148,-1304,-543,-138,-755,77,-99,-242,-1699,592},{3,-426,-632,-845,-31,-1135,141,-1311,-550,-145,-762,70,-106,-249,-1706,585},{-4,-433,-639,-852,-38,-1142,134,-1318,-557,-152,-769,63,-113,-256,-1713,578},{-7,-436,-642,-855,-41,-1145,131,-1321,-560,-155,-772,60,-116,-259,-1716,575},{-16,-445,-651,-864,-50,-1154,122,-1330,-569,-164,-781,51,-125,-268,-1725,566},{-40,-469,-675,-888,-74,-1178,98,-1354,-593,-188,-805,27,-149,-292,-1749,542},{-57,-486,-692,-905,-91,-1195,81,-1371,-610,-205,-822,10,-166,-309,-1766,525},{-40,-469,-675,-888,-74,-1178,98,-1354,-593,-188,-805,27,-149,-292,-1749,542},{-4,-433,-639,-852,-38,-1142,134,-1318,-557,-152,-769,63,-113,-256,-1713,578},{13,-416,-622,-835,-21,-1125,151,-1301,-540,-135,-752,80,-96,-239,-1696,595},{5,-424,-630,-843,-29,-1133,143,-1309,-548,-143,-760,72,-104,-247,-1704,587},{-16,-445,-651,-864,-50,-1154,122,-1330,-569,-164,-781,51,-125,-268,-1725,566},{-38,-467,-673,-886,-72,-1176,100,-1352,-591,-186,-803,29,-147,-290,-1747,544},{-43,-472,-678,-891,-77,-1181,95,-1357,-596,-191,-808,24,-152,-295,-1752,539}},
{{301,-128,-334,-547,267,-837,439,-1013,-252,153,-464,368,192,49,-1408,883},{297,-132,-338,-551,263,-841,435,-1017,-256,149,-468,364,188,45,-1412,879},{305,-124,-330,-543,271,-833,443,-1009,-248,157,-460,372,196,53,-1404,887},{306,-123,-329,-542,272,-832,444,-1008,-247,158,-459,373,197,54,-1403,888},{304,-125,-331,-544,270,-834,442,-1010,-249,156,-461,371,195,52,-1405,886},{288,-141,-347,-560,254,-850,426,-1026,-265,140,-477,355,179,36,-1421,870},{263,-166,-372,-585,229,-875,401,-1051,-290,115,-502,330,154,11,-1446,845},{239,-190,-396,-609,205,-899,377,-1075,-314,91,-526,306,130,-13,-1470,821},{217,-212,-418,-631,183,-921,355,-1097,-336,69,-548,284,108,-35,-1492,799},{200,-229,-435,-648,166,-938,338,-1114,-353,52,-565,267,91,-52,-1509,782},{174,-255,-461,-674,140,-964,312,-1140,-379,26,-591,241,65,-78,-1535,756},{153,-276,-482,-695,119,-985,291,-1161,-400,5,-612,220,44,-99,-1556,735},{130,-299,-505,-718,96,-1008,268,-1184,-423,-18,-635,197,21,-122,-1579,712},{103,-326,-532,-745,69,-1035,241,-1211,-450,-45,-662,170,-6,-149,-1606,685},{80,-349,-555,-768,46,-1058,218,-1234,-473,-68,-685,147,-29,-172,-1629,662},{63,-366,-572,-785,29,-1075,201,-1251,-490,-85,-702,130,-46,-189,-1646,645},{46,-383,-589,-802,12,-1092,184,-1268,-507,-102,-719,113,-63,-206,-1663,628},{23,-406,-612,-825,-11,-1115,161,-1291,-530,-125,-742,90,-86,-229,-1686,605},{7,-422,-628,-841,-27,-1131,145,-1307,-546,-141,-758,74,-102,-245,-1702,589},{8,-421,-627,-840,-26,-1130,146,-1306,-545,-140,-757,75,-101,-244,-1701,590},{12,-417,-623,-836,-22,-1126,150,-1302,-541,-136,-753,79,-97,-240,-1697,594},{10,-419,-625,-838,-24,-1128,148,-1304,-543,-138,-755,77,-99,-242,-1699,592},{16,-413,-619,-832,-18,-1122,154,-1298,-537,-132,-749,83,-93,-236,-1693,598},{25,-404,-610,-823,-9,-1113,163,-1289,-528,-123,-740,92,-84,-227,-1684,607},{27,-402,-608,-821,-7,-1111,165,-1287,-526,-121,-738,94,-82,-225,-1682,609},{0,-429,-635,-848,-34,-1138,138,-1314,-553,-148,-765,67,-109,-252,-1709,582},{-28,-457,-663,-876,-62,-1166,110,-1342,-581,-176,-793,39,-137,-280,-1737,554},{-38,-467,-673,-886,-72,-1176,100,-1352,-591,-186,-803,29,-147,-290,-1747,544},{-22,-451,-657,-870,-56,-1160,116,-1336,-575,-170,-787,45,-131,-274,-1731,560},{-5,-434,-640,-853,-39,-1143,133,-1319,-558,-153,-770,62,-114,-257,-1714,577},{3,-426,-632,-845,-31,-1135,141,-1311,-550,-145,-762,70,-106,-249,-1706,585},{4,-425,-631,-844,-30,-1134,142,-1310,-549,-144,-761,71,-105,-248,-1705,586},{6,-423,-629,-842,-28,-1132,144,-1308,-547,-142,-759,73,-103,-246,-1703,588},{10,-419,-625,-838,-24,-1128,148,-1304,-543,-138,-755,77,-99,-242,-1699,592},{3,-426,-632,-845,-31,-1135,141,-1311,-550,-145,-762,70,-106,-249,-1706,585},{-4,-433,-639,-852,-38,-1142,134,-1318,-557,-152,-769,63,-113,-256,-1713,578},{-7,-436,-642,-855,-41,-1145,131,-1321,-560,-155,-772,60,-116,-259,-1716,575},{-16,-445,-651,-864,-50,-1154,122,-1330,-569,-164,-781,51,-125,-268,-1725,566},{-40,-469,-675,-888,-74,-1178,98,-1354,-593,-188,-805,27,-149,-292,-1749,542},{-57,-486,-692,-905,-91,-1195,81,-1371,-610,-205,-822,10,-166,-309,-1766,525},{-40,-469,-675,-888,-74,-1178,98,-1354,-593,-188,-805,27,-149,-292,-1749,542},{-4,-433,-639,-852,-38,-1142,134,-1318,-557,-152,-769,63,-113,-256,-1713,578},{13,-416,-622,-835,-21,-1125,151,-1301,-540,-135,-752,80,-96,-239,-1696,595},{5,-424,-630,-843,-29,-1133,143,-1309,-548,-143,-760,72,-104,-247,-1704,587},{-16,-445,-651,-864,-50,-1154,122,-1330,-569,-164,-781,51,-125,-268,-1725,566},{-38,-467,-673,-886,-72,-1176,100,-1352,-591,-186,-803,29,-147,-290,-1747,544},{-43,-472,-678,-891,-77,-1181,95,-1357,-596,-191,-808,24,-152,-295,-1752,539},{-28,-457,-663,-876,-62,-1166,110,-1342,-581,-176,-793,39,-137,-280,-1737,554}},
{{297,-132,-338,-551,263,-841,435,-1017,-256,149,-468,364,188,45,-1412,879},{305,-124,-330,-543,271,-833,443,-1009,-248,157,-460,372,196,53,-1404,887},{306,-123,-329,-542,272,-832,444,-1008,-247,158,-459,373,197,54,-1403,888},{304,-125,-331,-544,270,-834,442,-1010,-249,156,-461,371,195,52,-1405,886},{288,-141,-347,-560,254,-850,426,-1026,-265,140,-477,355,179,36,-1421,870},{263,-166,-372,-585,229,-875,401,-1051,-290,115,-502,330,154,11,-1446,845},{239,-190,-396,-609,205,-899,377,-1075,-314,91,-526,306,130,-13,-1470,821},{217,-212,-418,-631,183,-921,355,-1097,-336,69,-548,284,108,-35,-1492,799},{200,-229,-435,-648,166,-938,338,-1114,-353,52,-565,267,91,-52,-1509,782},{174,-255,-461,-674,140,-964,312,-1140,-379,26,-591,241,65,-78,-1535,756},{153,-276,-482,-695,119,-985,291,-1161,-400,5,-612,220,44,-99,-1556,735},{130,-299,-505,-718,96,-1008,268,-1184,-423,-18,-635,197,21,-122,-1579,712},{103,-326,-532,-745,69,-1035,241,-1211,-450,-45,-662,170,-6,-149,-1606,685},{80,-349,-555,-768,46,-1058,218,-1234,-473,-68,-685,147,-29,-172,-1629,662},{63,-366,-572,-785,29,-1075,201,-1251,-490,-85,-702,130,-46,-189,-1646,645},{46,-383,-589,-802,12,-1092,184,-1268,-507,-102,-719,113,-63,-206,-1663,628},{23,-406,-612,-825,-11,-1115,161,-1291,-530,-125,-742,90,-86,-229,-1686,605},{7,-422,-628,-841,-27,-1131,145,-1307,-546,-141,-758,74,-102,-245,-1702,589},{8,-421,-627,-840,-26,-1130,146,-1306,-545,-140,-757,75,-101,-244,-1701,590},{12,-417,-623,-836,-22,-1126,150,-1302,-541,-136,-753,79,-97,-240,-1697,594},{10,-419,-625,-838,-24,-1128,148,-1304,-543,-138,-755,77,-99,-242,-1699,592},{16,-413,-619,-832,-18,-1122,154,-1298,-537,-132,-749,83,-93,-236,-1693,598},{25,-404,-610,-823,-9,-1113,163,-1289,-528,-123,-740,92,-84,-227,-1684,607},{27,-402,-608,-821,-7,-1111,165,-1287,-526,-121,-738,94,-82,-225,-1682,609},{0,-429,-635,-848,-34,-1138,138,-1314,-553,-148,-765,67,-109,-252,-1709,582},{-28,-457,-663,-876,-62,-1166,110,-1342,-581,-176,-793,39,-137,-280,-1737,554},{-38,-467,-673,-886,-72,-1176,100,-1352,-591,-186,-803,29,-147,-290,-1747,544},{-22,-451,-657,-870,-56,-1160,116,-1336,-575,-170,-787,45,-131,-274,-1731,560},{-5,-434,-640,-853,-39,-1143,133,-1319,-558,-153,-770,62,-114,-257,-1714,577},{3,-426,-632,-845,-31,-1135,141,-1311,-550,-145,-762,70,-106,-249,-1706,585},{4,-425,-631,-844,-30,-1134,142,-1310,-549,-144,-761,71,-105,-248,-1705,586},{6,-423,-629,-842,-28,-1132,144,-1308,-547,-142,-759,73,-103,-246,-1703,588},{10,-419,-625,-838,-24,-1128,148,-1304,-543,-138,-755,77,-99,-242,-1699,592},{3,-426,-632,-845,-31,-1135,141,-1311,-550,-145,-762,70,-106,-249,-1706,585},{-4,-433,-639,-852,-38,-1142,134,-1318,-557,-152,-769,63,-113,-256,-1713,578},{-7,-436,-642,-855,-41,-1145,131,-1321,-560,-155,-772,60,-116,-259,-1716,575},{-16,-445,-651,-864,-50,-1154,122,-1330,-569,-164,-781,51,-125,-268,-1725,566},{-40,-469,-675,-888,-74,-1178,98,-1354,-593,-188,-805,27,-149,-292,-1749,542},{-57,-486,-692,-905,-91,-1195,81,-1371,-610,-205,-822,10,-166,-309,-1766,525},{-40,-469,-675,-888,-74,-1178,98,-1354,-593,-188,-805,27,-149,-292,-1749,542},{-4,-433,-639,-852,-38,-1142,134,-1318,-557,-152,-769,63,-113,-256,-1713,578},{13,-416,-622,-835,-21,-1125,151,-1301,-540,-135,-752,80,-96,-239,-1696,595},{5,-424,-630,-843,-29,-1133,143,-1309,-548,-143,-760,72,-104,-247,-1704,587},{-16,-445,-651,-864,-50,-1154,122,-1330,-569,-164,-781,51,-125,-268,-1725,566},{-38,-467,-673,-886,-72,-1176,100,-1352,-591,-186,-803,29,-147,-290,-1747,544},{-43,-472,-678,-891,-77,-1181,95,-1357,-596,-191,-808,24,-152,-295,-1752,539},{-28,-457,-663,-876,-62,-1166,110,-1342,-581,-176,-793,39,-137,-280,-1737,554},{25,-404,-610,-823,-9,-1113,163,-1289,-528,-123,-740,92,-84,-227,-1684,607}},
{{305,-124,-330,-543,271,-833,443,-1009,-248,157,-460,372,196,53,-1404,887},{306,-123,-329,-542,272,-832,444,-1008,-247,158,-459,373,197,54,-1403,888},{304,-125,-331,-544,270,-834,442,-1010,-249,156,-461,371,195,52,-1405,886},{288,-141,-347,-560,254,-850,426,-1026,-265,140,-477,355,179,36,-1421,870},{263,-166,-372,-585,229,-875,401,-1051,-290,115,-502,330,154,11,-1446,845},{239,-190,-396,-609,205,-899,377,-1075,-314,91,-526,306,130,-13,-1470,821},{217,-212,-418,-631,183,-921,355,-1097,-336,69,-548,284,108,-35,-1492,799},{200,-229,-435,-648,166,-938,338,-1114,-353,52,-565,267,91,-52,-1509,782},{174,-255,-461,-674,140,-964,312,-1140,-379,26,-591,241,65,-78,-1535,756},{153,-276,-482,-695,119,-985,291,-1161,-400,5,-612,220,44,-99,-1556,735},{130,-299,-505,-718,96,-1008,268,-1184,-423,-18,-635,197,21,-122,-1579,712},{103,-326,-532,-745,69,-1035,241,-1211,-450,-45,-662,170,-6,-149,-1606,685},{80,-349,-555,-768,46,-1058,218,-1234,-473,-68,-685,147,-29,-172,-1629,662},{63,-366,-572,-785,29,-1075,201,-1251,-490,-85,-702,130,-46,-189,-1646,645},{46,-383,-589,-802,12,-1092,184,-1268,-507,-102,-719,113,-63,-206,-1663,628},{23,-406,-612,-825,-11,-1115,161,-1291,-530,-125,-742,90,-86,-229,-1686,605},{7,-422,-628,-841,-27,-1131,145,-1307,-546,-141,-758,74,-102,-245,-1702,589},{8,-421,-627,-840,-26,-1130,146,-1306,-545,-140,-757,75,-101,-244,-1701,590},{12,-417,-623,-836,-22,-1126,150,-1302,-541,-136,-753,79,-97,-240,-1697,594},{10,-419,-625,-838,-24,-1128,148,-1304,-543,-138,-755,77,-99,-242,-1699,592},{16,-413,-619,-832,-18,-1122,154,-1298,-537,-132,-749,83,-93,-236,-1693,598},{25,-404,-610,-823,-9,-1113,163,-1289,-528,-123,-740,92,-84,-227,-1684,607},{27,-402,-608,-821,-7,-1111,165,-1287,-526,-121,-738,94,-82,-225,-1682,609},{0,-429,-635,-848,-34,-1138,138,-1314,-553,-148,-765,67,-109,-252,-1709,582},{-28,-457,-663,-876,-62,-1166,110,-1342,-581,-176,-793,39,-137,-280,-1737,554},{-38,-467,-673,-886,-72,-1176,100,-1352,-591,-186,-803,29,-147,-290,-1747,544},{-22,-451,-657,-870,-56,-1160,116,-1336,-575,-170,-787,45,-131,-274,-1731,560},{-5,-434,-640,-853,-39,-1143,133,-1319,-558,-153,-770,62,-114,-257,-1714,577},{3,-426,-632,-845,-31,-1135,141,-1311,-550,-145,-762,70,-106,-249,-1706,585},{4,-425,-631,-844,-30,-1134,142,-1310,-549,-144,-761,71,-105,-248,-1705,586},{6,-423,-629,-842,-28,-1132,144,-1308,-547,-142,-759,73,-103,-246,-1703,588},{10,-419,-625,-838,-24,-1128,148,-1304,-543,-138,-755,77,-99,-242,-1699,592},{3,-426,-632,-845,-31,-1135,141,-1311,-550,-145,-762,70,-106,-249,-1706,585},{-4,-433,-639,-852,-38,-1142,134,-1318,-557,-152,-769,63,-113,-256,-1713,578},{-7,-436,-642,-855,-41,-1145,131,-1321,-560,-155,-772,60,-116,-259,-1716,575},{-16,-445,-651,-864,-50,-1154,122,-1330,-569,-164,-781,51,-125,-268,-1725,566},{-40,-469,-675,-888,-74,-1178,98,-1354,-593,-188,-805,27,-149,-292,-1749,542},{-57,-486,-692,-905,-91,-1195,81,-1371,-610,-205,-822,10,-166,-309,-1766,525},{-40,-469,-675,-888,-74,-1178,98,-1354,-593,-188,-805,27,-149,-292,-1749,542},{-4,-433,-639,-852,-38,-1142,134,-1318,-557,-152,-769,63,-113,-256,-1713,578},{13,-416,-622,-835,-21,-1125,151,-1301,-540,-135,-752,80,-96,-239,-1696,595},{5,-424,-630,-843,-29,-1133,143,-1309,-548,-143,-760,72,-104,-247,-1704,587},{-16,-445,-651,-864,-50,-1154,122,-1330,-569,-164,-781,51,-125,-268,-1725,566},{-38,-467,-673,-886,-72,-1176,100,-1352,-591,-186,-803,29,-147,-290,-1747,544},{-43,-472,-678,-891,-77,-1181,95,-1357,-596,-191,-808,24,-152,-295,-1752,539},{-28,-457,-663,-876,-62,-1166,110,-1342,-581,-176,-793,39,-137,-280,-1737,554},{25,-404,-610,-823,-9,-1113,163,-1289,-528,-123,-740,92,-84,-227,-1684,607},{87,-342,-548,-761,53,-1051,225,-1227,-466,-61,-678,154,-22,-165,-1622,669}},
{{306,-123,-329,-542,272,-832,444,-1008,-247,158,-459,373,197,54,-1403,888},{304,-125,-331,-544,270,-834,442,-1010,-249,156,-461,371,195,52,-1405,886},{288,-141,-347,-560,254,-850,426,-1026,-265,140,-477,355,179,36,-1421,870},{263,-166,-372,-585,229,-875,401,-1051,-290,115,-502,330,154,11,-1446,845},{239,-190,-396,-609,205,-899,377,-1075,-314,91,-526,306,130,-13,-1470,821},{217,-212,-418,-631,183,-921,355,-1097,-336,69,-548,284,108,-35,-1492,799},{200,-229,-435,-648,166,-938,338,-1114,-353,52,-565,267,91,-52,-1509,782},{174,-255,-461,-674,140,-964,312,-1140,-379,26,-591,241,65,-78,-1535,756},{153,-276,-482,-695,119,-985,291,-1161,-400,5,-612,220,44,-99,-1556,735},{130,-299,-505,-718,96,-1008,268,-1184,-423,-18,-635,197,21,-122,-1579,712},{103,-326,-532,-745,69,-1035,241,-1211,-450,-45,-662,170,-6,-149,-1606,685},{80,-349,-555,-768,46,-1058,218,-1234,-473,-68,-685,147,-29,-172,-1629,662},{63,-366,-572,-785,29,-1075,201,-1251,-490,-85,-702,130,-46,-189,-1646,645},{46,-383,-589,-802,12,-1092,184,-1268,-507,-102,-719,113,-63,-206,-1663,628},{23,-406,-612,-825,-11,-1115,161,-1291,-530,-125,-742,90,-86,-229,-1686,605},{7,-422,-628,-841,-27,-1131,145,-1307,-546,-141,-758,74,-102,-245,-1702,589},{8,-421,-627,-840,-26,-1130,146,-1306,-545,-140,-757,75,-101,-244,-1701,590},{12,-417,-623,-836,-22,-1126,150,-1302,-541,-136,-753,79,-97,-240,-1697,594},{10,-419,-625,-838,-24,-1128,148,-1304,-543,-138,-755,77,-99,-242,-1699,592},{16,-413,-619,-832,-18,-1122,154,-1298,-537,-132,-749,83,-93,-236,-1693,598},{25,-404,-610,-823,-9,-1113,163,-1289,-528,-123,-740,92,-84,-227,-1684,607},{27,-402,-608,-821,-7,-1111,165,-1287,-526,-121,-738,94,-82,-225,-1682,609},{0,-429,-635,-848,-34,-1138,138,-1314,-553,-148,-765,67,-109,-252,-1709,582},{-28,-457,-663,-876,-62,-1166,110,-1342,-581,-176,-793,39,-137,-280,-1737,554},{-38,-467,-673,-886,-72,-1176,100,-1352,-591,-186,-803,29,-147,-290,-1747,544},{-22,-451,-657,-870,-56,-1160,116,-1336,-575,-170,-787,45,-131,-274,-1731,560},{-5,-434,-640,-853,-39,-1143,133,-1319,-558,-153,-770,62,-114,-257,-1714,577},{3,-426,-632,-845,-31,-1135,141,-1311,-550,-145,-762,70,-106,-249,-1706,585},{4,-425,-631,-844,-30,-1134,142,-1310,-549,-144,-761,71,-105,-248,-1705,586},{6,-423,-629,-842,-28,-1132,144,-1308,-547,-142,-759,73,-103,-246,-1703,588},{10,-419,-625,-838,-24,-1128,148,-1304,-543,-138,-755,77,-99,-242,-1699,592},{3,-426,-632,-845,-31,-1135,141,-1311,-550,-145,-762,70,-106,-249,-1706,585},{-4,-433,-639,-852,-38,-1142,134,-1318,-557,-152,-769,63,-113,-256,-1713,578},{-7,-436,-642,-855,-41,-1145,131,-1321,-560,-155,-772,60,-116,-259,-1716,575},{-16,-445,-651,-864,-50,-1154,122,-1330,-569,-164,-781,51,-125,-268,-1725,566},{-40,-469,-675,-888,-74,-1178,98,-1354,-593,-188,-805,27,-149,-292,-1749,542},{-57,-486,-692,-905,-91,-1195,81,-1371,-610,-205,-822,10,-166,-309,-1766,525},{-40,-469,-675,-888,-74,-1178,98,-1354,-593,-188,-805,27,-149,-292,-1749,542},{-4,-433,-639,-852,-38,-1142,134,-1318,-557,-152,-769,63,-113,-256,-1713,578},{13,-416,-622,-835,-21,-1125,151,-1301,-540,-135,-752,80,-96,-239,-1696,595},{5,-424,-630,-843,-29,-1133,143,-1309,-548,-143,-760,72,-104,-247,-1704,587},{-16,-445,-651,-864,-50,-1154,122,-1330,-569,-164,-781,51,-125,-268,-1725,566},{-38,-467,-673,-886,-72,-1176,100,-1352,-591,-186,-803,29,-147,-290,-1747,544},{-43,-472,-678,-891,-77,-1181,95,-1357,-596,-191,-808,24,-152,-295,-1752,539},{-28,-457,-663,-876,-62,-1166,110,-1342,-581,-176,-793,39,-137,-280,-1737,554},{25,-404,-610,-823,-9,-1113,163,-1289,-528,-123,-740,92,-84,-227,-1684,607},{87,-342,-548,-761,53,-1051,225,-1227,-466,-61,-678,154,-22,-165,-1622,669},{131,-298,-504,-717,97,-1007,269,-1183,-422,-17,-634,198,22,-121,-1578,713}},
{{304,-125,-331,-544,270,-834,442,-1010,-249,156,-461,371,195,52,-1405,886},{288,-141,-347,-560,254,-850,426,-1026,-265,140,-477,355,179,36,-1421,870},{263,-166,-372,-585,229,-875,401,-1051,-290,115,-502,330,154,11,-1446,845},{239,-190,-396,-609,205,-899,377,-1075,-314,91,-526,306,130,-13,-1470,821},{217,-212,-418,-631,183,-921,355,-1097,-336,69,-548,284,108,-35,-1492,799},{200,-229,-435,-648,166,-938,338,-1114,-353,52,-565,267,91,-52,-1509,782},{174,-255,-461,-674,140,-964,312,-1140,-379,26,-591,241,65,-78,-1535,756},{153,-276,-482,-695,119,-985,291,-1161,-400,5,-612,220,44,-99,-1556,735},{130,-299,-505,-718,96,-1008,268,-1184,-423,-18,-635,197,21,-122,-1579,712},{103,-326,-532,-745,69,-1035,241,-1211,-450,-45,-662,170,-6,-149,-1606,685},{80,-349,-555,-768,46,-1058,218,-1234,-473,-68,-685,147,-29,-172,-1629,662},{63,-366,-572,-785,29,-1075,201,-1251,-490,-85,-702,130,-46,-189,-1646,645},{46,-383,-589,-802,12,-1092,184,-1268,-507,-102,-719,113,-63,-206,-1663,628},{23,-406,-612,-825,-11,-1115,161,-1291,-530,-125,-742,90,-86,-229,-1686,605},{7,-422,-628,-841,-27,-1131,145,-1307,-546,-141,-758,74,-102,-245,-1702,589},{8,-421,-627,-840,-26,-1130,146,-1306,-545,-140,-757,75,-101,-244,-1701,590},{12,-417,-623,-836,-22,-1126,150,-1302,-541,-136,-753,79,-97,-240,-1697,594},{10,-419,-625,-838,-24,-1128,148,-1304,-543,-138,-755,77,-99,-242,-1699,592},{16,-413,-619,-832,-18,-1122,154,-1298,-537,-132,-749,83,-93,-236,-1693,598},{25,-404,-610,-823,-9,-1113,163,-1289,-528,-123,-740,92,-84,-227,-1684,607},{27,-402,-608,-821,-7,-1111,165,-1287,-526,-121,-738,94,-82,-225,-1682,609},{0,-429,-635,-848,-34,-1138,138,-1314,-553,-148,-765,67,-109,-252,-1709,582},{-28,-457,-663,-876,-62,-1166,110,-1342,-581,-176,-793,39,-137,-280,-1737,554},{-38,-467,-673,-886,-72,-1176,100,-1352,-591,-186,-803,29,-147,-290,-1747,544},{-22,-451,-657,-870,-56,-1160,116,-1336,-575,-170,-787,45,-131,-274,-1731,560},{-5,-434,-640,-853,-39,-1143,133,-1319,-558,-153,-770,62,-114,-257,-1714,577},{3,-426,-632,-845,-31,-1135,141,-1311,-550,-145,-762,70,-106,-249,-1706,585},{4,-425,-631,-844,-30,-1134,142,-1310,-549,-144,-761,71,-105,-248,-1705,586},{6,-423,-629,-842,-28,-1132,144,-1308,-547,-142,-759,73,-103,-246,-1703,588},{10,-419,-625,-838,-24,-1128,148,-1304,-543,-138,-755,77,-99,-242,-1699,592},{3,-426,-632,-845,-31,-1135,141,-1311,-550,-145,-762,70,-106,-249,-1706,585},{-4,-433,-639,-852,-38,-1142,134,-1318,-557,-152,-769,63,-113,-256,-1713,578},{-7,-436,-642,-855,-41,-1145,131,-1321,-560,-155,-772,60,-116,-259,-1716,575},{-16,-445,-651,-864,-50,-1154,122,-1330,-569,-164,-781,51,-125,-268,-1725,566},{-40,-469,-675,-888,-74,-1178,98,-1354,-593,-188,-805,27,-149,-292,-1749,542},{-57,-486,-692,-905,-91,-1195,81,-1371,-610,-205,-822,10,-166,-309,-1766,525},{-40,-469,-675,-888,-74,-1178,98,-1354,-593,-188,-805,27,-149,-292,-1749,542},{-4,-433,-639,-852,-38,-1142,134,-1318,-557,-152,-769,63,-113,-256,-1713,578},{13,-416,-622,-835,-21,-1125,151,-1301,-540,-135,-752,80,-96,-239,-1696,595},{5,-424,-630,-843,-29,-1133,143,-1309,-548,-143,-760,72,-104,-247,-1704,587},{-16,-445,-651,-864,-50,-1154,122,-1330,-569,-164,-781,51,-125,-268,-1725,566},{-38,-467,-673,-886,-72,-1176,100,-1352,-591,-186,-803,29,-147,-290,-1747,544},{-43,-472,-678,-891,-77,-1181,95,-1357,-596,-191,-808,24,-152,-295,-1752,539},{-28,-457,-663,-876,-62,-1166,110,-1342,-581,-176,-793,39,-137,-280,-1737,554},{25,-404,-610,-823,-9,-1113,163,-1289,-528,-123,-740,92,-84,-227,-1684,607},{87,-342,-548,-761,53,-1051,225,-1227,-466,-61,-678,154,-22,-165,-1622,669},{131,-298,-504,-717,97,-1007,269,-1183,-422,-17,-634,198,22,-121,-1578,713},{149,-280,-486,-699,115,-989,287,-1165,-404,1,-616,216,40,-103,-1560,731}},
{{288,-141,-347,-560,254,-850,426,-1026,-265,140,-477,355,179,36,-1421,870},{263,-166,-372,-585,229,-875,401,-1051,-290,115,-502,330,154,11,-1446,845},{239,-190,-396,-609,205,-899,377,-1075,-314,91,-526,306,130,-13,-1470,821},{217,-212,-418,-631,183,-921,355,-1097,-336,69,-548,284,108,-35,-1492,799},{200,-229,-435,-648,166,-938,338,-1114,-353,52,-565,267,91,-52,-1509,782},{174,-255,-461,-674,140,-964,312,-1140,-379,26,-591,241,65,-78,-1535,756},{153,-276,-482,-695,119,-985,291,-1161,-400,5,-612,220,44,-99,-1556,735},{130,-299,-505,-718,96,-1008,268,-1184,-423,-18,-635,197,21,-122,-1579,712},{103,-326,-532,-745,69,-1035,241,-1211,-450,-45,-662,170,-6,-149,-1606,685},{80,-349,-555,-768,46,-1058,218,-1234,-473,-68,-685,147,-29,-172,-1629,662},{63,-366,-572,-785,29,-1075,201,-1251,-490,-85,-702,130,-46,-189,-1646,645},{46,-383,-589,-802,12,-1092,184,-1268,-507,-102,-719,113,-63,-206,-1663,628},{23,-406,-612,-825,-11,-1115,161,-1291,-530,-125,-742,90,-86,-229,-1686,605},{7,-422,-628,-841,-27,-1131,145,-1307,-546,-141,-758,74,-102,-245,-1702,589},{8,-421,-627,-840,-26,-1130,146,-1306,-545,-140,-757,75,-101,-244,-1701,590},{12,-417,-623,-836,-22,-1126,150,-1302,-541,-136,-753,79,-97,-240,-1697,594},{10,-419,-625,-838,-24,-1128,148,-1304,-543,-138,-755,77,-99,-242,-1699,592},{16,-413,-619,-832,-18,-1122,154,-1298,-537,-132,-749,83,-93,-236,-1693,598},{25,-404,-610,-823,-9,-1113,163,-1289,-528,-123,-740,92,-84,-227,-1684,607},{27,-402,-608,-821,-7,-1111,165,-1287,-526,-121,-738,94,-82,-225,-1682,609},{0,-429,-635,-848,-34,-1138,138,-1314,-553,-148,-765,67,-109,-252,-1709,582},{-28,-457,-663,-876,-62,-1166,110,-1342,-581,-176,-793,39,-137,-280,-1737,554},{-38,-467,-673,-886,-72,-1176,100,-1352,-591,-186,-803,29,-147,-290,-1747,544},{-22,-451,-657,-870,-56,-1160,116,-1336,-575,-170,-787,45,-131,-274,-1731,560},{-5,-434,-640,-853,-39,-1143,133,-1319,-558,-153,-770,62,-114,-257,-1714,577},{3,-426,-632,-845,-31,-1135,141,-1311,-550,-145,-762,70,-106,-249,-1706,585},{4,-425,-631,-844,-30,-1134,142,-1310,-549,-144,-761,71,-105,-248,-1705,586},{6,-423,-629,-842,-28,-1132,144,-1308,-547,-142,-759,73,-103,-246,-1703,588},{10,-419,-625,-838,-24,-1128,148,-1304,-543,-138,-755,77,-99,-242,-1699,592},{3,-426,-632,-845,-31,-1135,141,-1311,-550,-145,-762,70,-106,-249,-1706,585},{-4,-433,-639,-852,-38,-1142,134,-1318,-557,-152,-769,63,-113,-256,-1713,578},{-7,-436,-642,-855,-41,-1145,131,-1321,-560,-155,-772,60,-116,-259,-1716,575},{-16,-445,-651,-864,-50,-1154,122,-1330,-569,-164,-781,51,-125,-268,-1725,566},{-40,-469,-675,-888,-74,-1178,98,-1354,-593,-188,-805,27,-149,-292,-1749,542},{-57,-486,-692,-905,-91,-1195,81,-1371,-610,-205,-822,10,-166,-309,-1766,525},{-40,-469,-675,-888,-74,-1178,98,-1354,-593,-188,-805,27,-149,-292,-1749,542},{-4,-433,-639,-852,-38,-1142,134,-1318,-557,-152,-769,63,-113,-256,-1713,578},{13,-416,-622,-835,-21,-1125,151,-1301,-540,-135,-752,80,-96,-239,-1696,595},{5,-424,-630,-843,-29,-1133,143,-1309,-548,-143,-760,72,-104,-247,-1704,587},{-16,-445,-651,-864,-50,-1154,122,-1330,-569,-164,-781,51,-125,-268,-1725,566},{-38,-467,-673,-886,-72,-1176,100,-1352,-591,-186,-803,29,-147,-290,-1747,544},{-43,-472,-678,-891,-77,-1181,95,-1357,-596,-191,-808,24,-152,-295,-1752,539},{-28,-457,-663,-876,-62,-1166,110,-1342,-581,-176,-793,39,-137,-280,-1737,554},{25,-404,-610,-823,-9,-1113,163,-1289,-528,-123,-740,92,-84,-227,-1684,607},{87,-342,-548,-761,53,-1051,225,-1227,-466,-61,-678,154,-22,-165,-1622,669},{131,-298,-504,-717,97,-1007,269,-1183,-422,-17,-634,198,22,-121,-1578,713},{149,-280,-486,-699,115,-989,287,-1165,-404,1,-616,216,40,-103,-1560,731},{171,-258,-464,-677,137,-967,309,-1143,-382,23,-594,238,62,-81,-1538,753}},
{{263,-166,-372,-585,229,-875,401,-1051,-290,115,-502,330,154,11,-1446,845},{239,-190,-396,-609,205,-899,377,-1075,-314,91,-526,306,130,-13,-1470,821},{217,-212,-418,-631,183,-921,355,-1097,-336,69,-548,284,108,-35,-1492,799},{200,-229,-435,-648,166,-938,338,-1114,-353,52,-565,267,91,-52,-1509,782},{174,-255,-461,-674,140,-964,312,-1140,-379,26,-591,241,65,-78,-1535,756},{153,-276,-482,-695,119,-985,291,-1161,-400,5,-612,220,44,-99,-1556,735},{130,-299,-505,-718,96,-1008,268,-1184,-423,-18,-635,197,21,-122,-1579,712},{103,-326,-532,-745,69,-1035,241,-1211,-450,-45,-662,170,-6,-149,-1606,685},{80,-349,-555,-768,46,-1058,218,-1234,-473,-68,-685,147,-29,-172,-1629,662},{63,-366,-572,-785,29,-1075,201,-1251,-490,-85,-702,130,-46,-189,-1646,645},{46,-383,-589,-802,12,-1092,184,-1268,-507,-102,-719,113,-63,-206,-1663,628},{23,-406,-612,-825,-11,-1115,161,-1291,-530,-125,-742,90,-86,-229,-1686,605},{7,-422,-628,-841,-27,-1131,145,-1307,-546,-141,-758,74,-102,-245,-1702,589},{8,-421,-627,-840,-26,-1130,146,-1306,-545,-140,-757,75,-101,-244,-1701,590},{12,-417,-623,-836,-22,-1126,150,-1302,-541,-136,-753,79,-97,-240,-1697,594},{10,-419,-625,-838,-24,-1128,148,-1304,-543,-138,-755,77,-99,-242,-1699,592},{16,-413,-619,-832,-18,-1122,154,-1298,-537,-132,-749,83,-93,-236,-1693,598},{25,-404,-610,-823,-9,-1113,163,-1289,-528,-123,-740,92,-84,-227,-1684,607},{27,-402,-608,-821,-7,-1111,165,-1287,-526,-121,-738,94,-82,-225,-1682,609},{0,-429,-635,-848,-34,-1138,138,-1314,-553,-148,-765,67,-109,-252,-1709,582},{-28,-457,-663,-876,-62,-1166,110,-1342,-581,-176,-793,39,-137,-280,-1737,554},{-38,-467,-673,-886,-72,-1176,100,-1352,-591,-186,-803,29,-147,-290,-1747,544},{-22,-451,-657,-870,-56,-1160,116,-1336,-575,-170,-787,45,-131,-274,-1731,560},{-5,-434,-640,-853,-39,-1143,133,-1319,-558,-153,-770,62,-114,-257,-1714,577},{3,-426,-632,-845,-31,-1135,141,-1311,-550,-145,-762,70,-106,-249,-1706,585},{4,-425,-631,-844,-30,-1134,142,-1310,-549,-144,-761,71,-105,-248,-1705,586},{6,-423,-629,-842,-28,-1132,144,-1308,-547,-142,-759,73,-103,-246,-1703,588},{10,-419,-625,-838,-24,-1128,148,-1304,-543,-138,-755,77,-99,-242,-1699,592},{3,-426,-632,-845,-31,-1135,141,-1311,-550,-145,-762,70,-106,-249,-1706,585},{-4,-433,-639,-852,-38,-1142,134,-1318,-557,-152,-769,63,-113,-256,-1713,578},{-7,-436,-642,-855,-41,-1145,131,-1321,-560,-155,-772,60,-116,-259,-1716,575},{-16,-445,-651,-864,-50,-1154,122,-1330,-569,-164,-781,51,-125,-268,-1725,566},{-40,-469,-675,-888,-74,-1178,98,-1354,-593,-188,-805,27,-149,-292,-1749,542},{-57,-486,-692,-905,-91,-1195,81,-1371,-610,-205,-822,10,-166,-309,-1766,525},{-40,-469,-675,-888,-74,-1178,98,-1354,-593,-188,-805,27,-149,-292,-1749,542},{-4,-433,-639,-852,-38,-1142,134,-1318,-557,-152,-769,63,-113,-256,-1713,578},{13,-416,-622,-835,-21,-1125,151,-1301,-540,-135,-752,80,-96,-239,-1696,595},{5,-424,-630,-843,-29,-1133,143,-1309,-548,-143,-760,72,-104,-247,-1704,587},{-16,-445,-651,-864,-50,-1154,122,-1330,-569,-164,-781,51,-125,-268,-1725,566},{-38,-467,-673,-886,-72,-1176,100,-1352,-591,-186,-803,29,-147,-290,-1747,544},{-43,-472,-678,-891,-77,-1181,95,-1357,-596,-191,-808,24,-152,-295,-1752,539},{-28,-457,-663,-876,-62,-1166,110,-1342,-581,-176,-793,39,-137,-280,-1737,554},{25,-404,-610,-823,-9,-1113,163,-1289,-528,-123,-740,92,-84,-227,-1684,607},{87,-342,-548,-761,53,-1051,225,-1227,-466,-61,-678,154,-22,-165,-1622,669},{131,-298,-504,-717,97,-1007,269,-1183,-422,-17,-634,198,22,-121,-1578,713},{149,-280,-486,-699,115,-989,287,-1165,-404,1,-616,216,40,-103,-1560,731},{171,-258,-464,-677,137,-967,309,-1143,-382,23,-594,238,62,-81,-1538,753},{197,-232,-438,-651,163,-941,335,-1117,-356,49,-568,264,88,-55,-1512,779}},
{{239,-190,-396,-609,205,-899,377,-1075,-314,91,-526,306,130,-13,-1470,821},{217,-212,-418,-631,183,-921,355,-1097,-336,69,-548,284,108,-35,-1492,799},{200,-229,-435,-648,166,-938,338,-1114,-353,52,-565,267,91,-52,-1509,782},{174,-255,-461,-674,140,-964,312,-1140,-379,26,-591,241,65,-78,-1535,756},{153,-276,-482,-695,119,-985,291,-1161,-400,5,-612,220,44,-99,-1556,735},{130,-299,-505,-718,96,-1008,268,-1184,-423,-18,-635,197,21,-122,-1579,712},{103,-326,-532,-745,69,-1035,241,-1211,-450,-45,-662,170,-6,-149,-1606,685},{80,-349,-555,-768,46,-1058,218,-1234,-473,-68,-685,147,-29,-172,-1629,662},{63,-366,-572,-785,29,-1075,201,-1251,-490,-85,-702,130,-46,-189,-1646,645},{46,-383,-589,-802,12,-1092,184,-1268,-507,-102,-719,113,-63,-206,-1663,628},{23,-406,-612,-825,-11,-1115,161,-1291,-530,-125,-742,90,-86,-229,-1686,605},{7,-422,-628,-841,-27,-1131,145,-1307,-546,-141,-758,74,-102,-245,-1702,589},{8,-421,-627,-840,-26,-1130,146,-1306,-545,-140,-757,75,-101,-244,-1701,590},{12,-417,-623,-836,-22,-1126,150,-1302,-541,-136,-753,79,-97,-240,-1697,594},{10,-419,-625,-838,-24,-1128,148,-1304,-543,-138,-755,77,-99,-242,-1699,592},{16,-413,-619,-832,-18,-1122,154,-1298,-537,-132,-749,83,-93,-236,-1693,598},{25,-404,-610,-823,-9,-1113,163,-1289,-528,-123,-740,92,-84,-227,-1684,607},{27,-402,-608,-821,-7,-1111,165,-1287,-526,-121,-738,94,-82,-225,-1682,609},{0,-429,-635,-848,-34,-1138,138,-1314,-553,-148,-765,67,-109,-252,-1709,582},{-28,-457,-663,-876,-62,-1166,110,-1342,-581,-176,-793,39,-137,-280,-1737,554},{-38,-467,-673,-886,-72,-1176,100,-1352,-591,-186,-803,29,-147,-290,-1747,544},{-22,-451,-657,-870,-56,-1160,116,-1336,-575,-170,-787,45,-131,-274,-1731,560},{-5,-434,-640,-853,-39,-1143,133,-1319,-558,-153,-770,62,-114,-257,-1714,577},{3,-426,-632,-845,-31,-1135,141,-1311,-550,-145,-762,70,-106,-249,-1706,585},{4,-425,-631,-844,-30,-1134,142,-1310,-549,-144,-761,71,-105,-248,-1705,586},{6,-423,-629,-842,-28,-1132,144,-1308,-547,-142,-759,73,-103,-246,-1703,588},{10,-419,-625,-838,-24,-1128,148,-1304,-543,-138,-755,77,-99,-242,-1699,592},{3,-426,-632,-845,-31,-1135,141,-1311,-550,-145,-762,70,-106,-249,-1706,585},{-4,-433,-639,-852,-38,-1142,134,-1318,-557,-152,-769,63,-113,-256,-1713,578},{-7,-436,-642,-855,-41,-1145,131,-1321,-560,-155,-772,60,-116,-259,-1716,575},{-16,-445,-651,-864,-50,-1154,122,-1330,-569,-164,-781,51,-125,-268,-1725,566},{-40,-469,-675,-888,-74,-1178,98,-1354,-593,-188,-805,27,-149,-292,-1749,542},{-57,-486,-692,-905,-91,-1195,81,-1371,-610,-205,-822,10,-166,-309,-1766,525},{-40,-469,-675,-888,-74,-1178,98,-1354,-593,-188,-805,27,-149,-292,-1749,542},{-4,-433,-639,-852,-38,-1142,134,-1318,-557,-152,-769,63,-113,-256,-1713,578},{13,-416,-622,-835,-21,-1125,151,-1301,-540,-135,-752,80,-96,-239,-1696,595},{5,-424,-630,-843,-29,-1133,143,-1309,-548,-143,-760,72,-104,-247,-1704,587},{-16,-445,-651,-864,-50,-1154,122,-1330,-569,-164,-781,51,-125,-268,-1725,566},{-38,-467,-673,-886,-72,-1176,100,-1352,-591,-186,-803,29,-147,-290,-1747,544},{-43,-472,-678,-891,-77,-1181,95,-1357,-596,-191,-808,24,-152,-295,-1752,539},{-28,-457,-663,-876,-62,-1166,110,-1342,-581,-176,-793,39,-137,-280,-1737,554},{25,-404,-610,-823,-9,-1113,163,-1289,-528,-123,-740,92,-84,-227,-1684,607},{87,-342,-548,-761,53,-1051,225,-1227,-466,-61,-678,154,-22,-165,-1622,669},{131,-298,-504,-717,97,-1007,269,-1183,-422,-17,-634,198,22,-121,-1578,713},{149,-280,-486,-699,115,-989,287,-1165,-404,1,-616,216,40,-103,-1560,731},{171,-258,-464,-677,137,-967,309,-1143,-382,23,-594,238,62,-81,-1538,753},{197,-232,-438,-651,163,-941,335,-1117,-356,49,-568,264,88,-55,-1512,779},{221,-208,-414,-627,187,-917,359,-1093,-332,73,-544,288,112,-31,-1488,803}},
{{217,-212,-418,-631,183,-921,355,-1097,-336,69,-548,284,108,-35,-1492,799},{200,-229,-435,-648,166,-938,338,-1114,-353,52,-565,267,91,-52,-1509,782},{174,-255,-461,-674,140,-964,312,-1140,-379,26,-591,241,65,-78,-1535,756},{153,-276,-482,-695,119,-985,291,-1161,-400,5,-612,220,44,-99,-1556,735},{130,-299,-505,-718,96,-1008,268,-1184,-423,-18,-635,197,21,-122,-1579,712},{103,-326,-532,-745,69,-1035,241,-1211,-450,-45,-662,170,-6,-149,-1606,685},{80,-349,-555,-768,46,-1058,218,-1234,-473,-68,-685,147,-29,-172,-1629,662},{63,-366,-572,-785,29,-1075,201,-1251,-490,-85,-702,130,-46,-189,-1646,645},{46,-383,-589,-802,12,-1092,184,-1268,-507,-102,-719,113,-63,-206,-1663,628},{23,-406,-612,-825,-11,-1115,161,-1291,-530,-125,-742,90,-86,-229,-1686,605},{7,-422,-628,-841,-27,-1131,145,-1307,-546,-141,-758,74,-102,-245,-1702,589},{8,-421,-627,-840,-26,-1130,146,-1306,-545,-140,-757,75,-101,-244,-1701,590},{12,-417,-623,-836,-22,-1126,150,-1302,-541,-136,-753,79,-97,-240,-1697,594},{10,-419,-625,-838,-24,-1128,148,-1304,-543,-138,-755,77,-99,-242,-1699,592},{16,-413,-619,-832,-18,-1122,154,-1298,-537,-132,-749,83,-93,-236,-1693,598},{25,-404,-610,-823,-9,-1113,163,-1289,-528,-123,-740,92,-84,-227,-1684,607},{27,-402,-608,-821,-7,-1111,165,-1287,-526,-121,-738,94,-82,-225,-1682,609},{0,-429,-635,-848,-34,-1138,138,-1314,-553,-148,-765,67,-109,-252,-1709,582},{-28,-457,-663,-876,-62,-1166,110,-1342,-581,-176,-793,39,-137,-280,-1737,554},{-38,-467,-673,-886,-72,-1176,100,-1352,-591,-186,-803,29,-147,-290,-1747,544},{-22,-451,-657,-870,-56,-1160,116,-1336,-575,-170,-787,45,-131,-274,-1731,560},{-5,-434,-640,-853,-39,-1143,133,-1319,-558,-153,-770,62,-114,-257,-1714,577},{3,-426,-632,-845,-31,-1135,141,-1311,-550,-145,-762,70,-106,-249,-1706,585},{4,-425,-631,-844,-30,-1134,142,-1310,-549,-144,-761,71,-105,-248,-1705,586},{6,-423,-629,-842,-28,-1132,144,-1308,-547,-142,-759,73,-103,-246,-1703,588},{10,-419,-625,-838,-24,-1128,148,-1304,-543,-138,-755,77,-99,-242,-1699,592},{3,-426,-632,-845,-31,-1135,141,-1311,-550,-145,-762,70,-106,-249,-1706,585},{-4,-433,-639,-852,-38,-1142,134,-1318,-557,-152,-769,63,-113,-256,-1713,578},{-7,-436,-642,-855,-41,-1145,131,-1321,-560,-155,-772,60,-116,-259,-1716,575},{-16,-445,-651,-864,-50,-1154,122,-1330,-569,-164,-781,51,-125,-268,-1725,566},{-40,-469,-675,-888,-74,-1178,98,-1354,-593,-188,-805,27,-149,-292,-1749,542},{-57,-486,-692,-905,-91,-1195,81,-1371,-610,-205,-822,10,-166,-309,-1766,525},{-40,-469,-675,-888,-74,-1178,98,-1354,-593,-188,-805,27,-149,-292,-1749,542},{-4,-433,-639,-852,-38,-1142,134,-1318,-557,-152,-769,63,-113,-256,-1713,578},{13,-416,-622,-835,-21,-1125,151,-1301,-540,-135,-752,80,-96,-239,-1696,595},{5,-424,-630,-843,-29,-1133,143,-1309,-548,-143,-760,72,-104,-247,-1704,587},{-16,-445,-651,-864,-50,-1154,122,-1330,-569,-164,-781,51,-125,-268,-1725,566},{-38,-467,-673,-886,-72,-1176,100,-1352,-591,-186,-803,29,-147,-290,-1747,544},{-43,-472,-678,-891,-77,-1181,95,-1357,-596,-191,-808,24,-152,-295,-1752,539},{-28,-457,-663,-876,-62,-1166,110,-1342,-581,-176,-793,39,-137,-280,-1737,554},{25,-404,-610,-823,-9,-1113,163,-1289,-528,-123,-740,92,-84,-227,-1684,607},{87,-342,-548,-761,53,-1051,225,-1227,-466,-61,-678,154,-22,-165,-1622,669},{131,-298,-504,-717,97,-1007,269,-1183,-422,-17,-634,198,22,-121,-1578,713},{149,-280,-486,-699,115,-989,287,-1165,-404,1,-616,216,40,-103,-1560,731},{171,-258,-464,-677,137,-967,309,-1143,-382,23,-594,238,62,-81,-1538,753},{197,-232,-438,-651,163,-941,335,-1117,-356,49,-568,264,88,-55,-1512,779},{221,-208,-414,-627,187,-917,359,-1093,-332,73,-544,288,112,-31,-1488,803},{237,-192,-398,-611,203,-901,375,-1077,-316,89,-528,304,128,-15,-1472,819}},
{{200,-229,-435,-648,166,-938,338,-1114,-353,52,-565,267,91,-52,-1509,782},{174,-255,-461,-674,140,-964,312,-1140,-379,26,-591,241,65,-78,-1535,756},{153,-276,-482,-695,119,-985,291,-1161,-400,5,-612,220,44,-99,-1556,735},{130,-299,-505,-718,96,-1008,268,-1184,-423,-18,-635,197,21,-122,-1579,712},{103,-326,-532,-745,69,-1035,241,-1211,-450,-45,-662,170,-6,-149,-1606,685},{80,-349,-555,-768,46,-1058,218,-1234,-473,-68,-685,147,-29,-172,-1629,662},{63,-366,-572,-785,29,-1075,201,-1251,-490,-85,-702,130,-46,-189,-1646,645},{46,-383,-589,-802,12,-1092,184,-1268,-507,-102,-719,113,-63,-206,-1663,628},{23,-406,-612,-825,-11,-1115,161,-1291,-530,-125,-742,90,-86,-229,-1686,605},{7,-422,-628,-841,-27,-1131,145,-1307,-546,-141,-758,74,-102,-245,-1702,589},{8,-421,-627,-840,-26,-1130,146,-1306,-545,-140,-757,75,-101,-244,-1701,590},{12,-417,-623,-836,-22,-1126,150,-1302,-541,-136,-753,79,-97,-240,-1697,594},{10,-419,-625,-838,-24,-1128,148,-1304,-543,-138,-755,77,-99,-242,-1699,592},{16,-413,-619,-832,-18,-1122,154,-1298,-537,-132,-749,83,-93,-236,-1693,598},{25,-404,-610,-823,-9,-1113,163,-1289,-528,-123,-740,92,-84,-227,-1684,607},{27,-402,-608,-821,-7,-1111,165,-1287,-526,-121,-738,94,-82,-225,-1682,609},{0,-429,-635,-848,-34,-1138,138,-1314,-553,-148,-765,67,-109,-252,-1709,582},{-28,-457,-663,-876,-62,-1166,110,-1342,-581,-176,-793,39,-137,-280,-1737,554},{-38,-467,-673,-886,-72,-1176,100,-1352,-591,-186,-803,29,-147,-290,-1747,544},{-22,-451,-657,-870,-56,-1160,116,-1336,-575,-170,-787,45,-131,-274,-1731,560},{-5,-434,-640,-853,-39,-1143,133,-1319,-558,-153,-770,62,-114,-257,-1714,577},{3,-426,-632,-845,-31,-1135,141,-1311,-550,-145,-762,70,-106,-249,-1706,585},{4,-425,-631,-844,-30,-1134,142,-1310,-549,-144,-761,71,-105,-248,-1705,586},{6,-423,-629,-842,-28,-1132,144,-1308,-547,-142,-759,73,-103,-246,-1703,588},{10,-419,-625,-838,-24,-1128,148,-1304,-543,-138,-755,77,-99,-242,-1699,592},{3,-426,-632,-845,-31,-1135,141,-1311,-550,-145,-762,70,-106,-249,-1706,585},{-4,-433,-639,-852,-38,-1142,134,-1318,-557,-152,-769,63,-113,-256,-1713,578},{-7,-436,-642,-855,-41,-1145,131,-1321,-560,-155,-772,60,-116,-259,-1716,575},{-16,-445,-651,-864,-50,-1154,122,-1330,-569,-164,-781,51,-125,-268,-1725,566},{-40,-469,-675,-888,-74,-1178,98,-1354,-593,-188,-805,27,-149,-292,-1749,542},{-57,-486,-692,-905,-91,-1195,81,-1371,-610,-205,-822,10,-166,-309,-1766,525},{-40,-469,-675,-888,-74,-1178,98,-1354,-593,-188,-805,27,-149,-292,-1749,542},{-4,-433,-639,-852,-38,-1142,134,-1318,-557,-152,-769,63,-113,-256,-1713,578},{13,-416,-622,-835,-21,-1125,151,-1301,-540,-135,-752,80,-96,-239,-1696,595},{5,-424,-630,-843,-29,-1133,143,-1309,-548,-143,-760,72,-104,-247,-1704,587},{-16,-445,-651,-864,-50,-1154,122,-1330,-569,-164,-781,51,-125,-268,-1725,566},{-38,-467,-673,-886,-72,-1176,100,-1352,-591,-186,-803,29,-147,-290,-1747,544},{-43,-472,-678,-891,-77,-1181,95,-1357,-596,-191,-808,24,-152,-295,-1752,539},{-28,-457,-663,-876,-62,-1166,110,-1342,-581,-176,-793,39,-137,-280,-1737,554},{25,-404,-610,-823,-9,-1113,163,-1289,-528,-123,-740,92,-84,-227,-1684,607},{87,-342,-548,-761,53,-1051,225,-1227,-466,-61,-678,154,-22,-165,-1622,669},{131,-298,-504,-717,97,-1007,269,-1183,-422,-17,-634,198,22,-121,-1578,713},{149,-280,-486,-699,115,-989,287,-1165,-404,1,-616,216,40,-103,-1560,731},{171,-258,-464,-677,137,-967,309,-1143,-382,23,-594,238,62,-81,-1538,753},{197,-232,-438,-651,163,-941,335,-1117,-356,49,-568,264,88,-55,-1512,779},{221,-208,-414,-627,187,-917,359,-1093,-332,73,-544,288,112,-31,-1488,803},{237,-192,-398,-611,203,-901,375,-1077,-316,89,-528,304,128,-15,-1472,819},{263,-166,-372,-585,229,-875,401,-1051,-290,115,-502,330,154,11,-1446,845}},
{{174,-255,-461,-674,140,-964,312,-1140,-379,26,-591,241,65,-78,-1535,756},{153,-276,-482,-695,119,-985,291,-1161,-400,5,-612,220,44,-99,-1556,735},{130,-299,-505,-718,96,-1008,268,-1184,-423,-18,-635,197,21,-122,-1579,712},{103,-326,-532,-745,69,-1035,241,-1211,-450,-45,-662,170,-6,-149,-1606,685},{80,-349,-555,-768,46,-1058,218,-1234,-473,-68,-685,147,-29,-172,-1629,662},{63,-366,-572,-785,29,-1075,201,-1251,-490,-85,-702,130,-46,-189,-1646,645},{46,-383,-589,-802,12,-1092,184,-1268,-507,-102,-719,113,-63,-206,-1663,628},{23,-406,-612,-825,-11,-1115,161,-1291,-530,-125,-742,90,-86,-229,-1686,605},{7,-422,-628,-841,-27,-1131,145,-1307,-546,-141,-758,74,-102,-245,-1702,589},{8,-421,-627,-840,-26,-1130,146,-1306,-545,-140,-757,75,-101,-244,-1701,590},{12,-417,-623,-836,-22,-1126,150,-1302,-541,-136,-753,79,-97,-240,-1697,594},{10,-419,-625,-838,-24,-1128,148,-1304,-543,-138,-755,77,-99,-242,-1699,592},{16,-413,-619,-832,-18,-1122,154,-1298,-537,-132,-749,83,-93,-236,-1693,598},{25,-404,-610,-823,-9,-1113,163,-1289,-528,-123,-740,92,-84,-227,-1684,607},{27,-402,-608,-821,-7,-1111,165,-1287,-526,-121,-738,94,-82,-225,-1682,609},{0,-429,-635,-848,-34,-1138,138,-1314,-553,-148,-765,67,-109,-252,-1709,582},{-28,-457,-663,-876,-62,-1166,110,-1342,-581,-176,-793,39,-137,-280,-1737,554},{-38,-467,-673,-886,-72,-1176,100,-1352,-591,-186,-803,29,-147,-290,-1747,544},{-22,-451,-657,-870,-56,-1160,116,-1336,-575,-170,-787,45,-131,-274,-1731,560},{-5,-434,-640,-853,-39,-1143,133,-1319,-558,-153,-770,62,-114,-257,-1714,577},{3,-426,-632,-845,-31,-1135,141,-1311,-550,-145,-762,70,-106,-249,-1706,585},{4,-425,-631,-844,-30,-1134,142,-1310,-549,-144,-761,71,-105,-248,-1705,586},{6,-423,-629,-842,-28,-1132,144,-1308,-547,-142,-759,73,-103,-246,-1703,588},{10,-419,-625,-838,-24,-1128,148,-1304,-543,-138,-755,77,-99,-242,-1699,592},{3,-426,-632,-845,-31,-1135,141,-1311,-550,-145,-762,70,-106,-249,-1706,585},{-4,-433,-639,-852,-38,-1142,134,-1318,-557,-152,-769,63,-113,-256,-1713,578},{-7,-436,-642,-855,-41,-1145,131,-1321,-560,-155,-772,60,-116,-259,-1716,575},{-16,-445,-651,-864,-50,-1154,122,-1330,-569,-164,-781,51,-125,-268,-1725,566},{-40,-469,-675,-888,-74,-1178,98,-1354,-593,-188,-805,27,-149,-292,-1749,542},{-57,-486,-692,-905,-91,-1195,81,-1371,-610,-205,-822,10,-166,-309,-1766,525},{-40,-469,-675,-888,-74,-1178,98,-1354,-593,-188,-805,27,-149,-292,-1749,542},{-4,-433,-639,-852,-38,-1142,134,-1318,-557,-152,-769,63,-113,-256,-1713,578},{13,-416,-622,-835,-21,-1125,151,-1301,-540,-135,-752,80,-96,-239,-1696,595},{5,-424,-630,-843,-29,-1133,143,-1309,-548,-143,-760,72,-104,-247,-1704,587},{-16,-445,-651,-864,-50,-1154,122,-1330,-569,-164,-781,51,-125,-268,-1725,566},{-38,-467,-673,-886,-72,-1176,100,-1352,-591,-186,-803,29,-147,-290,-1747,544},{-43,-472,-678,-891,-77,-1181,95,-1357,-596,-191,-808,24,-152,-295,-1752,539},{-28,-457,-663,-876,-62,-1166,110,-1342,-581,-176,-793,39,-137,-280,-1737,554},{25,-404,-610,-823,-9,-1113,163,-1289,-528,-123,-740,92,-84,-227,-1684,607},{87,-342,-548,-761,53,-1051,225,-1227,-466,-61,-678,154,-22,-165,-1622,669},{131,-298,-504,-717,97,-1007,269,-1183,-422,-17,-634,198,22,-121,-1578,713},{149,-280,-486,-699,115,-989,287,-1165,-404,1,-616,216,40,-103,-1560,731},{171,-258,-464,-677,137,-967,309,-1143,-382,23,-594,238,62,-81,-1538,753},{197,-232,-438,-651,163,-941,335,-1117,-356,49,-568,264,88,-55,-1512,779},{221,-208,-414,-627,187,-917,359,-1093,-332,73,-544,288,112,-31,-1488,803},{237,-192,-398,-611,203,-901,375,-1077,-316,89,-528,304,128,-15,-1472,819},{263,-166,-372,-585,229,-875,401,-1051,-290,115,-502,330,154,11,-1446,845},{289,-140,-346,-559,255,-849,427,-1025,-264,141,-476,356,180,37,-1420,871}},
{{153,-276,-482,-695,119,-985,291,-1161,-400,5,-612,220,44,-99,-1556,735},{130,-299,-505,-718,96,-1008,268,-1184,-423,-18,-635,197,21,-122,-1579,712},{103,-326,-532,-745,69,-1035,241,-1211,-450,-45,-662,170,-6,-149,-1606,685},{80,-349,-555,-768,46,-1058,218,-1234,-473,-68,-685,147,-29,-172,-1629,662},{63,-366,-572,-785,29,-1075,201,-1251,-490,-85,-702,130,-46,-189,-1646,645},{46,-383,-589,-802,12,-1092,184,-1268,-507,-102,-719,113,-63,-206,-1663,628},{23,-406,-612,-825,-11,-1115,161,-1291,-530,-125,-742,90,-86,-229,-1686,605},{7,-422,-628,-841,-27,-1131,145,-1307,-546,-141,-758,74,-102,-245,-1702,589},{8,-421,-627,-840,-26,-1130,146,-1306,-545,-140,-757,75,-101,-244,-1701,590},{12,-417,-623,-836,-22,-1126,150,-1302,-541,-136,-753,79,-97,-240,-1697,594},{10,-419,-625,-838,-24,-1128,148,-1304,-543,-138,-755,77,-99,-242,-1699,592},{16,-413,-619,-832,-18,-1122,154,-1298,-537,-132,-749,83,-93,-236,-1693,598},{25,-404,-610,-823,-9,-1113,163,-1289,-528,-123,-740,92,-84,-227,-1684,607},{27,-402,-608,-821,-7,-1111,165,-1287,-526,-121,-738,94,-82,-225,-1682,609},{0,-429,-635,-848,-34,-1138,138,-1314,-553,-148,-765,67,-109,-252,-1709,582},{-28,-457,-663,-876,-62,-1166,110,-1342,-581,-176,-793,39,-137,-280,-1737,554},{-38,-467,-673,-886,-72,-1176,100,-1352,-591,-186,-803,29,-147,-290,-1747,544},{-22,-451,-657,-870,-56,-1160,116,-1336,-575,-170,-787,45,-131,-274,-1731,560},{-5,-434,-640,-853,-39,-1143,133,-1319,-558,-153,-770,62,-114,-257,-1714,577},{3,-426,-632,-845,-31,-1135,141,-1311,-550,-145,-762,70,-106,-249,-1706,585},{4,-425,-631,-844,-30,-1134,142,-1310,-549,-144,-761,71,-105,-248,-1705,586},{6,-423,-629,-842,-28,-1132,144,-1308,-547,-142,-759,73,-103,-246,-1703,588},{10,-419,-625,-838,-24,-1128,148,-1304,-543,-138,-755,77,-99,-242,-1699,592},{3,-426,-632,-845,-31,-1135,141,-1311,-550,-145,-762,70,-106,-249,-1706,585},{-4,-433,-639,-852,-38,-1142,134,-1318,-557,-152,-769,63,-113,-256,-1713,578},{-7,-436,-642,-855,-41,-1145,131,-1321,-560,-155,-772,60,-116,-259,-1716,575},{-16,-445,-651,-864,-50,-1154,122,-1330,-569,-164,-781,51,-125,-268,-1725,566},{-40,-469,-675,-888,-74,-1178,98,-1354,-593,-188,-805,27,-149,-292,-1749,542},{-57,-486,-692,-905,-91,-1195,81,-1371,-610,-205,-822,10,-166,-309,-1766,525},{-40,-469,-675,-888,-74,-1178,98,-1354,-593,-188,-805,27,-149,-292,-1749,542},{-4,-433,-639,-852,-38,-1142,134,-1318,-557,-152,-769,63,-113,-256,-1713,578},{13,-416,-622,-835,-21,-1125,151,-1301,-540,-135,-752,80,-96,-239,-1696,595},{5,-424,-630,-843,-29,-1133,143,-1309,-548,-143,-760,72,-104,-247,-1704,587},{-16,-445,-651,-864,-50,-1154,122,-1330,-569,-164,-781,51,-125,-268,-1725,566},{-38,-467,-673,-886,-72,-1176,100,-1352,-591,-186,-803,29,-147,-290,-1747,544},{-43,-472,-678,-891,-77,-1181,95,-1357,-596,-191,-808,24,-152,-295,-1752,539},{-28,-457,-663,-876,-62,-1166,110,-1342,-581,-176,-793,39,-137,-280,-1737,554},{25,-404,-610,-823,-9,-1113,163,-1289,-528,-123,-740,92,-84,-227,-1684,607},{87,-342,-548,-761,53,-1051,225,-1227,-466,-61,-678,154,-22,-165,-1622,669},{131,-298,-504,-717,97,-1007,269,-1183,-422,-17,-634,198,22,-121,-1578,713},{149,-280,-486,-699,115,-989,287,-1165,-404,1,-616,216,40,-103,-1560,731},{171,-258,-464,-677,137,-967,309,-1143,-382,23,-594,238,62,-81,-1538,753},{197,-232,-438,-651,163,-941,335,-1117,-356,49,-568,264,88,-55,-1512,779},{221,-208,-414,-627,187,-917,359,-1093,-332,73,-544,288,112,-31,-1488,803},{237,-192,-398,-611,203,-901,375,-1077,-316,89,-528,304,128,-15,-1472,819},{263,-166,-372,-585,229,-875,401,-1051,-290,115,-502,330,154,11,-1446,845},{289,-140,-346,-559,255,-849,427,-1025,-264,141,-476,356,180,37,-1420,871},{307,-122,-328,-541,273,-831,445,-1007,-246,159,-458,374,198,55,-1402,889}},
{{130,-299,-505,-718,96,-1008,268,-1184,-423,-18,-635,197,21,-122,-1579,712},{103,-326,-532,-745,69,-1035,241,-1211,-450,-45,-662,170,-6,-149,-1606,685},{80,-349,-555,-768,46,-1058,218,-1234,-473,-68,-685,147,-29,-172,-1629,662},{63,-366,-572,-785,29,-1075,201,-1251,-490,-85,-702,130,-46,-189,-1646,645},{46,-383,-589,-802,12,-1092,184,-1268,-507,-102,-719,113,-63,-206,-1663,628},{23,-406,-612,-825,-11,-1115,161,-1291,-530,-125,-742,90,-86,-229,-1686,605},{7,-422,-628,-841,-27,-1131,145,-1307,-546,-141,-758,74,-102,-245,-1702,589},{8,-421,-627,-840,-26,-1130,146,-1306,-545,-140,-757,75,-101,-244,-1701,590},{12,-417,-623,-836,-22,-1126,150,-1302,-541,-136,-753,79,-97,-240,-1697,594},{10,-419,-625,-838,-24,-1128,148,-1304,-543,-138,-755,77,-99,-242,-1699,592},{16,-413,-619,-832,-18,-1122,154,-1298,-537,-132,-749,83,-93,-236,-1693,598},{25,-404,-610,-823,-9,-1113,163,-1289,-528,-123,-740,92,-84,-227,-1684,607},{27,-402,-608,-821,-7,-1111,165,-1287,-526,-121,-738,94,-82,-225,-1682,609},{0,-429,-635,-848,-34,-1138,138,-1314,-553,-148,-765,67,-109,-252,-1709,582},{-28,-457,-663,-876,-62,-1166,110,-1342,-581,-176,-793,39,-137,-280,-1737,554},{-38,-467,-673,-886,-72,-1176,100,-1352,-591,-186,-803,29,-147,-290,-1747,544},{-22,-451,-657,-870,-56,-1160,116,-1336,-575,-170,-787,45,-131,-274,-1731,560},{-5,-434,-640,-853,-39,-1143,133,-1319,-558,-153,-770,62,-114,-257,-1714,577},{3,-426,-632,-845,-31,-1135,141,-1311,-550,-145,-762,70,-106,-249,-1706,585},{4,-425,-631,-844,-30,-1134,142,-1310,-549,-144,-761,71,-105,-248,-1705,586},{6,-423,-629,-842,-28,-1132,144,-1308,-547,-142,-759,73,-103,-246,-1703,588},{10,-419,-625,-838,-24,-1128,148,-1304,-543,-138,-755,77,-99,-242,-1699,592},{3,-426,-632,-845,-31,-1135,141,-1311,-550,-145,-762,70,-106,-249,-1706,585},{-4,-433,-639,-852,-38,-1142,134,-1318,-557,-152,-769,63,-113,-256,-1713,578},{-7,-436,-642,-855,-41,-1145,131,-1321,-560,-155,-772,60,-116,-259,-1716,575},{-16,-445,-651,-864,-50,-1154,122,-1330,-569,-164,-781,51,-125,-268,-1725,566},{-40,-469,-675,-888,-74,-1178,98,-1354,-593,-188,-805,27,-149,-292,-1749,542},{-57,-486,-692,-905,-91,-1195,81,-1371,-610,-205,-822,10,-166,-309,-1766,525},{-40,-469,-675,-888,-74,-1178,98,-1354,-593,-188,-805,27,-149,-292,-1749,542},{-4,-433,-639,-852,-38,-1142,134,-1318,-557,-152,-769,63,-113,-256,-1713,578},{13,-416,-622,-835,-21,-1125,151,-1301,-540,-135,-752,80,-96,-239,-1696,595},{5,-424,-630,-843,-29,-1133,143,-1309,-548,-143,-760,72,-104,-247,-1704,587},{-16,-445,-651,-864,-50,-1154,122,-1330,-569,-164,-781,51,-125,-268,-1725,566},{-38,-467,-673,-886,-72,-1176,100,-1352,-591,-186,-803,29,-147,-290,-1747,544},{-43,-472,-678,-891,-77,-1181,95,-1357,-596,-191,-808,24,-152,-295,-1752,539},{-28,-457,-663,-876,-62,-1166,110,-1342,-581,-176,-793,39,-137,-280,-1737,554},{25,-404,-610,-823,-9,-1113,163,-1289,-528,-123,-740,92,-84,-227,-1684,607},{87,-342,-548,-761,53,-1051,225,-1227,-466,-61,-678,154,-22,-165,-1622,669},{131,-298,-504,-717,97,-1007,269,-1183,-422,-17,-634,198,22,-121,-1578,713},{149,-280,-486,-699,115,-989,287,-1165,-404,1,-616,216,40,-103,-1560,731},{171,-258,-464,-677,137,-967,309,-1143,-382,23,-594,238,62,-81,-1538,753},{197,-232,-438,-651,163,-941,335,-1117,-356,49,-568,264,88,-55,-1512,779},{221,-208,-414,-627,187,-917,359,-1093,-332,73,-544,288,112,-31,-1488,803},{237,-192,-398,-611,203,-901,375,-1077,-316,89,-528,304,128,-15,-1472,819},{263,-166,-372,-585,229,-875,401,-1051,-290,115,-502,330,154,11,-1446,845},{289,-140,-346,-559,255,-849,427,-1025,-264,141,-476,356,180,37,-1420,871},{307,-122,-328,-541,273,-831,445,-1007,-246,159,-458,374,198,55,-1402,889},{324,-105,-311,-524,290,-814,462,-990,-229,176,-441,391,215,72,-1385,906}},
{{103,-326,-532,-745,69,-1035,241,-1211,-450,-45,-662,170,-6,-149,-1606,685},{80,-349,-555,-768,46,-1058,218,-1234,-473,-68,-685,147,-29,-172,-1629,662},{63,-366,-572,-785,29,-1075,201,-1251,-490,-85,-702,130,-46,-189,-1646,645},{46,-383,-589,-802,12,-1092,184,-1268,-507,-102,-719,113,-63,-206,-1663,628},{23,-406,-612,-825,-11,-1115,161,-1291,-530,-125,-742,90,-86,-229,-1686,605},{7,-422,-628,-841,-27,-1131,145,-1307,-546,-141,-758,74,-102,-245,-1702,589},{8,-421,-627,-840,-26,-1130,146,-1306,-545,-140,-757,75,-101,-244,-1701,590},{12,-417,-623,-836,-22,-1126,150,-1302,-541,-136,-753,79,-97,-240,-1697,594},{10,-419,-625,-838,-24,-1128,148,-1304,-543,-138,-755,77,-99,-242,-1699,592},{16,-413,-619,-832,-18,-1122,154,-1298,-537,-132,-749,83,-93,-236,-1693,598},{25,-404,-610,-823,-9,-1113,163,-1289,-528,-123,-740,92,-84,-227,-1684,607},{27,-402,-608,-821,-7,-1111,165,-1287,-526,-121,-738,94,-82,-225,-1682,609},{0,-429,-635,-848,-34,-1138,138,-1314,-553,-148,-765,67,-109,-252,-1709,582},{-28,-457,-663,-876,-62,-1166,110,-1342,-581,-176,-793,39,-137,-280,-1737,554},{-38,-467,-673,-886,-72,-1176,100,-1352,-591,-186,-803,29,-147,-290,-1747,544},{-22,-451,-657,-870,-56,-1160,116,-1336,-575,-170,-787,45,-131,-274,-1731,560},{-5,-434,-640,-853,-39,-1143,133,-1319,-558,-153,-770,62,-114,-257,-1714,577},{3,-426,-632,-845,-31,-1135,141,-1311,-550,-145,-762,70,-106,-249,-1706,585},{4,-425,-631,-844,-30,-1134,142,-1310,-549,-144,-761,71,-105,-248,-1705,586},{6,-423,-629,-842,-28,-1132,144,-1308,-547,-142,-759,73,-103,-246,-1703,588},{10,-419,-625,-838,-24,-1128,148,-1304,-543,-138,-755,77,-99,-242,-1699,592},{3,-426,-632,-845,-31,-1135,141,-1311,-550,-145,-762,70,-106,-249,-1706,585},{-4,-433,-639,-852,-38,-1142,134,-1318,-557,-152,-769,63,-113,-256,-1713,578},{-7,-436,-642,-855,-41,-1145,131,-1321,-560,-155,-772,60,-116,-259,-1716,575},{-16,-445,-651,-864,-50,-1154,122,-1330,-569,-164,-781,51,-125,-268,-1725,566},{-40,-469,-675,-888,-74,-1178,98,-1354,-593,-188,-805,27,-149,-292,-1749,542},{-57,-486,-692,-905,-91,-1195,81,-1371,-610,-205,-822,10,-166,-309,-1766,525},{-40,-469,-675,-888,-74,-1178,98,-1354,-593,-188,-805,27,-149,-292,-1749,542},{-4,-433,-639,-852,-38,-1142,134,-1318,-557,-152,-769,63,-113,-256,-1713,578},{13,-416,-622,-835,-21,-1125,151,-1301,-540,-135,-752,80,-96,-239,-1696,595},{5,-424,-630,-843,-29,-1133,143,-1309,-548,-143,-760,72,-104,-247,-1704,587},{-16,-445,-651,-864,-50,-1154,122,-1330,-569,-164,-781,51,-125,-268,-1725,566},{-38,-467,-673,-886,-72,-1176,100,-1352,-591,-186,-803,29,-147,-290,-1747,544},{-43,-472,-678,-891,-77,-1181,95,-1357,-596,-191,-808,24,-152,-295,-1752,539},{-28,-457,-663,-876,-62,-1166,110,-1342,-581,-176,-793,39,-137,-280,-1737,554},{25,-404,-610,-823,-9,-1113,163,-1289,-528,-123,-740,92,-84,-227,-1684,607},{87,-342,-548,-761,53,-1051,225,-1227,-466,-61,-678,154,-22,-165,-1622,669},{131,-298,-504,-717,97,-1007,269,-1183,-422,-17,-634,198,22,-121,-1578,713},{149,-280,-486,-699,115,-989,287,-1165,-404,1,-616,216,40,-103,-1560,731},{171,-258,-464,-677,137,-967,309,-1143,-382,23,-594,238,62,-81,-1538,753},{197,-232,-438,-651,163,-941,335,-1117,-356,49,-568,264,88,-55,-1512,779},{221,-208,-414,-627,187,-917,359,-1093,-332,73,-544,288,112,-31,-1488,803},{237,-192,-398,-611,203,-901,375,-1077,-316,89,-528,304,128,-15,-1472,819},{263,-166,-372,-585,229,-875,401,-1051,-290,115,-502,330,154,11,-1446,845},{289,-140,-346,-559,255,-849,427,-1025,-264,141,-476,356,180,37,-1420,871},{307,-122,-328,-541,273,-831,445,-1007,-246,159,-458,374,198,55,-1402,889},{324,-105,-311,-524,290,-814,462,-990,-229,176,-441,391,215,72,-1385,906},{347,-82,-288,-501,313,-791,485,-967,-206,199,-418,414,238,95,-1362,929}},
{{80,-349,-555,-768,46,-1058,218,-1234,-473,-68,-685,147,-29,-172,-1629,662},{63,-366,-572,-785,29,-1075,201,-1251,-490,-85,-702,130,-46,-189,-1646,645},{46,-383,-589,-802,12,-1092,184,-1268,-507,-102,-719,113,-63,-206,-1663,628},{23,-406,-612,-825,-11,-1115,161,-1291,-530,-125,-742,90,-86,-229,-1686,605},{7,-422,-628,-841,-27,-1131,145,-1307,-546,-141,-758,74,-102,-245,-1702,589},{8,-421,-627,-840,-26,-1130,146,-1306,-545,-140,-757,75,-101,-244,-1701,590},{12,-417,-623,-836,-22,-1126,150,-1302,-541,-136,-753,79,-97,-240,-1697,594},{10,-419,-625,-838,-24,-1128,148,-1304,-543,-138,-755,77,-99,-242,-1699,592},{16,-413,-619,-832,-18,-1122,154,-1298,-537,-132,-749,83,-93,-236,-1693,598},{25,-404,-610,-823,-9,-1113,163,-1289,-528,-123,-740,92,-84,-227,-1684,607},{27,-402,-608,-821,-7,-1111,165,-1287,-526,-121,-738,94,-82,-225,-1682,609},{0,-429,-635,-848,-34,-1138,138,-1314,-553,-148,-765,67,-109,-252,-1709,582},{-28,-457,-663,-876,-62,-1166,110,-1342,-581,-176,-793,39,-137,-280,-1737,554},{-38,-467,-673,-886,-72,-1176,100,-1352,-591,-186,-803,29,-147,-290,-1747,544},{-22,-451,-657,-870,-56,-1160,116,-1336,-575,-170,-787,45,-131,-274,-1731,560},{-5,-434,-640,-853,-39,-1143,133,-1319,-558,-153,-770,62,-114,-257,-1714,577},{3,-426,-632,-845,-31,-1135,141,-1311,-550,-145,-762,70,-106,-249,-1706,585},{4,-425,-631,-844,-30,-1134,142,-1310,-549,-144,-761,71,-105,-248,-1705,586},{6,-423,-629,-842,-28,-1132,144,-1308,-547,-142,-759,73,-103,-246,-1703,588},{10,-419,-625,-838,-24,-1128,148,-1304,-543,-138,-755,77,-99,-242,-1699,592},{3,-426,-632,-845,-31,-1135,141,-1311,-550,-145,-762,70,-106,-249,-1706,585},{-4,-433,-639,-852,-38,-1142,134,-1318,-557,-152,-769,63,-113,-256,-1713,578},{-7,-436,-642,-855,-41,-1145,131,-1321,-560,-155,-772,60,-116,-259,-1716,575},{-16,-445,-651,-864,-50,-1154,122,-1330,-569,-164,-781,51,-125,-268,-1725,566},{-40,-469,-675,-888,-74,-1178,98,-1354,-593,-188,-805,27,-149,-292,-1749,542},{-57,-486,-692,-905,-91,-1195,81,-1371,-610,-205,-822,10,-166,-309,-1766,525},{-40,-469,-675,-888,-74,-1178,98,-1354,-593,-188,-805,27,-149,-292,-1749,542},{-4,-433,-639,-852,-38,-1142,134,-1318,-557,-152,-769,63,-113,-256,-1713,578},{13,-416,-622,-835,-21,-1125,151,-1301,-540,-135,-752,80,-96,-239,-1696,595},{5,-424,-630,-843,-29,-1133,143,-1309,-548,-143,-760,72,-104,-247,-1704,587},{-16,-445,-651,-864,-50,-1154,122,-1330,-569,-164,-781,51,-125,-268,-1725,566},{-38,-467,-673,-886,-72,-1176,100,-1352,-591,-186,-803,29,-147,-290,-1747,544},{-43,-472,-678,-891,-77,-1181,95,-1357,-596,-191,-808,24,-152,-295,-1752,539},{-28,-457,-663,-876,-62,-1166,110,-1342,-581,-176,-793,39,-137,-280,-1737,554},{25,-404,-610,-823,-9,-1113,163,-1289,-528,-123,-740,92,-84,-227,-1684,607},{87,-342,-548,-761,53,-1051,225,-1227,-466,-61,-678,154,-22,-165,-1622,669},{131,-298,-504,-717,97,-1007,269,-1183,-422,-17,-634,198,22,-121,-1578,713},{149,-280,-486,-699,115,-989,287,-1165,-404,1,-616,216,40,-103,-1560,731},{171,-258,-464,-677,137,-967,309,-1143,-382,23,-594,238,62,-81,-1538,753},{197,-232,-438,-651,163,-941,335,-1117,-356,49,-568,264,88,-55,-1512,779},{221,-208,-414,-627,187,-917,359,-1093,-332,73,-544,288,112,-31,-1488,803},{237,-192,-398,-611,203,-901,375,-1077,-316,89,-528,304,128,-15,-1472,819},{263,-166,-372,-585,229,-875,401,-1051,-290,115,-502,330,154,11,-1446,845},{289,-140,-346,-559,255,-849,427,-1025,-264,141,-476,356,180,37,-1420,871},{307,-122,-328,-541,273,-831,445,-1007,-246,159,-458,374,198,55,-1402,889},{324,-105,-311,-524,290,-814,462,-990,-229,176,-441,391,215,72,-1385,906},{347,-82,-288,-501,313,-791,485,-967,-206,199,-418,414,238,95,-1362,929},{377,-52,-258,-471,343,-761,515,-937,-176,229,-388,444,268,125,-1332,959}},
{{63,-366,-572,-785,29,-1075,201,-1251,-490,-85,-702,130,-46,-189,-1646,645},{46,-383,-589,-802,12,-1092,184,-1268,-507,-102,-719,113,-63,-206,-1663,628},{23,-406,-612,-825,-11,-1115,161,-1291,-530,-125,-742,90,-86,-229,-1686,605},{7,-422,-628,-841,-27,-1131,145,-1307,-546,-141,-758,74,-102,-245,-1702,589},{8,-421,-627,-840,-26,-1130,146,-1306,-545,-140,-757,75,-101,-244,-1701,590},{12,-417,-623,-836,-22,-1126,150,-1302,-541,-136,-753,79,-97,-240,-1697,594},{10,-419,-625,-838,-24,-1128,148,-1304,-543,-138,-755,77,-99,-242,-1699,592},{16,-413,-619,-832,-18,-1122,154,-1298,-537,-132,-749,83,-93,-236,-1693,598},{25,-404,-610,-823,-9,-1113,163,-1289,-528,-123,-740,92,-84,-227,-1684,607},{27,-402,-608,-821,-7,-1111,165,-1287,-526,-121,-738,94,-82,-225,-1682,609},{0,-429,-635,-848,-34,-1138,138,-1314,-553,-148,-765,67,-109,-252,-1709,582},{-28,-457,-663,-876,-62,-1166,110,-1342,-581,-176,-793,39,-137,-280,-1737,554},{-38,-467,-673,-886,-72,-1176,100,-1352,-591,-186,-803,29,-147,-290,-1747,544},{-22,-451,-657,-870,-56,-1160,116,-1336,-575,-170,-787,45,-131,-274,-1731,560},{-5,-434,-640,-853,-39,-1143,133,-1319,-558,-153,-770,62,-114,-257,-1714,577},{3,-426,-632,-845,-31,-1135,141,-1311,-550,-145,-762,70,-106,-249,-1706,585},{4,-425,-631,-844,-30,-1134,142,-1310,-549,-144,-761,71,-105,-248,-1705,586},{6,-423,-629,-842,-28,-1132,144,-1308,-547,-142,-759,73,-103,-246,-1703,588},{10,-419,-625,-838,-24,-1128,148,-1304,-543,-138,-755,77,-99,-242,-1699,592},{3,-426,-632,-845,-31,-1135,141,-1311,-550,-145,-762,70,-106,-249,-1706,585},{-4,-433,-639,-852,-38,-1142,134,-1318,-557,-152,-769,63,-113,-256,-1713,578},{-7,-436,-642,-855,-41,-1145,131,-1321,-560,-155,-772,60,-116,-259,-1716,575},{-16,-445,-651,-864,-50,-1154,122,-1330,-569,-164,-781,51,-125,-268,-1725,566},{-40,-469,-675,-888,-74,-1178,98,-1354,-593,-188,-805,27,-149,-292,-1749,542},{-57,-486,-692,-905,-91,-1195,81,-1371,-610,-205,-822,10,-166,-309,-1766,525},{-40,-469,-675,-888,-74,-1178,98,-1354,-593,-188,-805,27,-149,-292,-1749,542},{-4,-433,-639,-852,-38,-1142,134,-1318,-557,-152,-769,63,-113,-256,-1713,578},{13,-416,-622,-835,-21,-1125,151,-1301,-540,-135,-752,80,-96,-239,-1696,595},{5,-424,-630,-843,-29,-1133,143,-1309,-548,-143,-760,72,-104,-247,-1704,587},{-16,-445,-651,-864,-50,-1154,122,-1330,-569,-164,-781,51,-125,-268,-1725,566},{-38,-467,-673,-886,-72,-1176,100,-1352,-591,-186,-803,29,-147,-290,-1747,544},{-43,-472,-678,-891,-77,-1181,95,-1357,-596,-191,-808,24,-152,-295,-1752,539},{-28,-457,-663,-876,-62,-1166,110,-1342,-581,-176,-793,39,-137,-280,-1737,554},{25,-404,-610,-823,-9,-1113,163,-1289,-528,-123,-740,92,-84,-227,-1684,607},{87,-342,-548,-761,53,-1051,225,-1227,-466,-61,-678,154,-22,-165,-1622,669},{131,-298,-504,-717,97,-1007,269,-1183,-422,-17,-634,198,22,-121,-1578,713},{149,-280,-486,-699,115,-989,287,-1165,-404,1,-616,216,40,-103,-1560,731},{171,-258,-464,-677,137,-967,309,-1143,-382,23,-594,238,62,-81,-1538,753},{197,-232,-438,-651,163,-941,335,-1117,-356,49,-568,264,88,-55,-1512,779},{221,-208,-414,-627,187,-917,359,-1093,-332,73,-544,288,112,-31,-1488,803},{237,-192,-398,-611,203,-901,375,-1077,-316,89,-528,304,128,-15,-1472,819},{263,-166,-372,-585,229,-875,401,-1051,-290,115,-502,330,154,11,-1446,845},{289,-140,-346,-559,255,-849,427,-1025,-264,141,-476,356,180,37,-1420,871},{307,-122,-328,-541,273,-831,445,-1007,-246,159,-458,374,198,55,-1402,889},{324,-105,-311,-524,290,-814,462,-990,-229,176,-441,391,215,72,-1385,906},{347,-82,-288,-501,313,-791,485,-967,-206,199,-418,414,238,95,-1362,929},{377,-52,-258,-471,343,-761,515,-937,-176,229,-388,444,268,125,-1332,959},{404,-25,-231,-444,370,-734,542,-910,-149,256,-361,471,295,152,-1305,986}},
{{46,-383,-589,-802,12,-1092,184,-1268,-507,-102,-719,113,-63,-206,-1663,628},{23,-406,-612,-825,-11,-1115,161,-1291,-530,-125,-742,90,-86,-229,-1686,605},{7,-422,-628,-841,-27,-1131,145,-1307,-546,-141,-758,74,-102,-245,-1702,589},{8,-421,-627,-840,-26,-1130,146,-1306,-545,-140,-757,75,-101,-244,-1701,590},{12,-417,-623,-836,-22,-1126,150,-1302,-541,-136,-753,79,-97,-240,-1697,594},{10,-419,-625,-838,-24,-1128,148,-1304,-543,-138,-755,77,-99,-242,-1699,592},{16,-413,-619,-832,-18,-1122,154,-1298,-537,-132,-749,83,-93,-236,-1693,598},{25,-404,-610,-823,-9,-1113,163,-1289,-528,-123,-740,92,-84,-227,-1684,607},{27,-402,-608,-821,-7,-1111,165,-1287,-526,-121,-738,94,-82,-225,-1682,609},{0,-429,-635,-848,-34,-1138,138,-1314,-553,-148,-765,67,-109,-252,-1709,582},{-28,-457,-663,-876,-62,-1166,110,-1342,-581,-176,-793,39,-137,-280,-1737,554},{-38,-467,-673,-886,-72,-1176,100,-1352,-591,-186,-803,29,-147,-290,-1747,544},{-22,-451,-657,-870,-56,-1160,116,-1336,-575,-170,-787,45,-131,-274,-1731,560},{-5,-434,-640,-853,-39,-1143,133,-1319,-558,-153,-770,62,-114,-257,-1714,577},{3,-426,-632,-845,-31,-1135,141,-1311,-550,-145,-762,70,-106,-249,-1706,585},{4,-425,-631,-844,-30,-1134,142,-1310,-549,-144,-761,71,-105,-248,-1705,586},{6,-423,-629,-842,-28,-1132,144,-1308,-547,-142,-759,73,-103,-246,-1703,588},{10,-419,-625,-838,-24,-1128,148,-1304,-543,-138,-755,77,-99,-242,-1699,592},{3,-426,-632,-845,-31,-1135,141,-1311,-550,-145,-762,70,-106,-249,-1706,585},{-4,-433,-639,-852,-38,-1142,134,-1318,-557,-152,-769,63,-113,-256,-1713,578},{-7,-436,-642,-855,-41,-1145,131,-1321,-560,-155,-772,60,-116,-259,-1716,575},{-16,-445,-651,-864,-50,-1154,122,-1330,-569,-164,-781,51,-125,-268,-1725,566},{-40,-469,-675,-888,-74,-1178,98,-1354,-593,-188,-805,27,-149,-292,-1749,542},{-57,-486,-692,-905,-91,-1195,81,-1371,-610,-205,-822,10,-166,-309,-1766,525},{-40,-469,-675,-888,-74,-1178,98,-1354,-593,-188,-805,27,-149,-292,-1749,542},{-4,-433,-639,-852,-38,-1142,134,-1318,-557,-152,-769,63,-113,-256,-1713,578},{13,-416,-622,-835,-21,-1125,151,-1301,-540,-135,-752,80,-96,-239,-1696,595},{5,-424,-630,-843,-29,-1133,143,-1309,-548,-143,-760,72,-104,-247,-1704,587},{-16,-445,-651,-864,-50,-1154,122,-1330,-569,-164,-781,51,-125,-268,-1725,566},{-38,-467,-673,-886,-72,-1176,100,-1352,-591,-186,-803,29,-147,-290,-1747,544},{-43,-472,-678,-891,-77,-1181,95,-1357,-596,-191,-808,24,-152,-295,-1752,539},{-28,-457,-663,-876,-62,-1166,110,-1342,-581,-176,-793,39,-137,-280,-1737,554},{25,-404,-610,-823,-9,-1113,163,-1289,-528,-123,-740,92,-84,-227,-1684,607},{87,-342,-548,-761,53,-1051,225,-1227,-466,-61,-678,154,-22,-165,-1622,669},{131,-298,-504,-717,97,-1007,269,-1183,-422,-17,-634,198,22,-121,-1578,713},{149,-280,-486,-699,115,-989,287,-1165,-404,1,-616,216,40,-103,-1560,731},{171,-258,-464,-677,137,-967,309,-1143,-382,23,-594,238,62,-81,-1538,753},{197,-232,-438,-651,163,-941,335,-1117,-356,49,-568,264,88,-55,-1512,779},{221,-208,-414,-627,187,-917,359,-1093,-332,73,-544,288,112,-31,-1488,803},{237,-192,-398,-611,203,-901,375,-1077,-316,89,-528,304,128,-15,-1472,819},{263,-166,-372,-585,229,-875,401,-1051,-290,115,-502,330,154,11,-1446,845},{289,-140,-346,-559,255,-849,427,-1025,-264,141,-476,356,180,37,-1420,871},{307,-122,-328,-541,273,-831,445,-1007,-246,159,-458,374,198,55,-1402,889},{324,-105,-311,-524,290,-814,462,-990,-229,176,-441,391,215,72,-1385,906},{347,-82,-288,-501,313,-791,485,-967,-206,199,-418,414,238,95,-1362,929},{377,-52,-258,-471,343,-761,515,-937,-176,229,-388,444,268,125,-1332,959},{404,-25,-231,-444,370,-734,542,-910,-149,256,-361,471,295,152,-1305,986},{428,-1,-207,-420,394,-710,566,-886,-125,280,-337,495,319,176,-1281,1010}},
{{23,-406,-612,-825,-11,-1115,161,-1291,-530,-125,-742,90,-86,-229,-1686,605},{7,-422,-628,-841,-27,-1131,145,-1307,-546,-141,-758,74,-102,-245,-1702,589},{8,-421,-627,-840,-26,-1130,146,-1306,-545,-140,-757,75,-101,-244,-1701,590},{12,-417,-623,-836,-22,-1126,150,-1302,-541,-136,-753,79,-97,-240,-1697,594},{10,-419,-625,-838,-24,-1128,148,-1304,-543,-138,-755,77,-99,-242,-1699,592},{16,-413,-619,-832,-18,-1122,154,-1298,-537,-132,-749,83,-93,-236,-1693,598},{25,-404,-610,-823,-9,-1113,163,-1289,-528,-123,-740,92,-84,-227,-1684,607},{27,-402,-608,-821,-7,-1111,165,-1287,-526,-121,-738,94,-82,-225,-1682,609},{0,-429,-635,-848,-34,-1138,138,-1314,-553,-148,-765,67,-109,-252,-1709,582},{-28,-457,-663,-876,-62,-1166,110,-1342,-581,-176,-793,39,-137,-280,-1737,554},{-38,-467,-673,-886,-72,-1176,100,-1352,-591,-186,-803,29,-147,-290,-1747,544},{-22,-451,-657,-870,-56,-1160,116,-1336,-575,-170,-787,45,-131,-274,-1731,560},{-5,-434,-640,-853,-39,-1143,133,-1319,-558,-153,-770,62,-114,-257,-1714,577},{3,-426,-632,-845,-31,-1135,141,-1311,-550,-145,-762,70,-106,-249,-1706,585},{4,-425,-631,-844,-30,-1134,142,-1310,-549,-144,-761,71,-105,-248,-1705,586},{6,-423,-629,-842,-28,-1132,144,-1308,-547,-142,-759,73,-103,-246,-1703,588},{10,-419,-625,-838,-24,-1128,148,-1304,-543,-138,-755,77,-99,-242,-1699,592},{3,-426,-632,-845,-31,-1135,141,-1311,-550,-145,-762,70,-106,-249,-1706,585},{-4,-433,-639,-852,-38,-1142,134,-1318,-557,-152,-769,63,-113,-256,-1713,578},{-7,-436,-642,-855,-41,-1145,131,-1321,-560,-155,-772,60,-116,-259,-1716,575},{-16,-445,-651,-864,-50,-1154,122,-1330,-569,-164,-781,51,-125,-268,-1725,566},{-40,-469,-675,-888,-74,-1178,98,-1354,-593,-188,-805,27,-149,-292,-1749,542},{-57,-486,-692,-905,-91,-1195,81,-1371,-610,-205,-822,10,-166,-309,-1766,525},{-40,-469,-675,-888,-74,-1178,98,-1354,-593,-188,-805,27,-149,-292,-1749,542},{-4,-433,-639,-852,-38,-1142,134,-1318,-557,-152,-769,63,-113,-256,-1713,578},{13,-416,-622,-835,-21,-1125,151,-1301,-540,-135,-752,80,-96,-239,-1696,595},{5,-424,-630,-843,-29,-1133,143,-1309,-548,-143,-760,72,-104,-247,-1704,587},{-16,-445,-651,-864,-50,-1154,122,-1330,-569,-164,-781,51,-125,-268,-1725,566},{-38,-467,-673,-886,-72,-1176,100,-1352,-591,-186,-803,29,-147,-290,-1747,544},{-43,-472,-678,-891,-77,-1181,95,-1357,-596,-191,-808,24,-152,-295,-1752,539},{-28,-457,-663,-876,-62,-1166,110,-1342,-581,-176,-793,39,-137,-280,-1737,554},{25,-404,-610,-823,-9,-1113,163,-1289,-528,-123,-740,92,-84,-227,-1684,607},{87,-342,-548,-761,53,-1051,225,-1227,-466,-61,-678,154,-22,-165,-1622,669},{131,-298,-504,-717,97,-1007,269,-1183,-422,-17,-634,198,22,-121,-1578,713},{149,-280,-486,-699,115,-989,287,-1165,-404,1,-616,216,40,-103,-1560,731},{171,-258,-464,-677,137,-967,309,-1143,-382,23,-594,238,62,-81,-1538,753},{197,-232,-438,-651,163,-941,335,-1117,-356,49,-568,264,88,-55,-1512,779},{221,-208,-414,-627,187,-917,359,-1093,-332,73,-544,288,112,-31,-1488,803},{237,-192,-398,-611,203,-901,375,-1077,-316,89,-528,304,128,-15,-1472,819},{263,-166,-372,-585,229,-875,401,-1051,-290,115,-502,330,154,11,-1446,845},{289,-140,-346,-559,255,-849,427,-1025,-264,141,-476,356,180,37,-1420,871},{307,-122,-328,-541,273,-831,445,-1007,-246,159,-458,374,198,55,-1402,889},{324,-105,-311,-524,290,-814,462,-990,-229,176,-441,391,215,72,-1385,906},{347,-82,-288,-501,313,-791,485,-967,-206,199,-418,414,238,95,-1362,929},{377,-52,-258,-471,343,-761,515,-937,-176,229,-388,444,268,125,-1332,959},{404,-25,-231,-444,370,-734,542,-910,-149,256,-361,471,295,152,-1305,986},{428,-1,-207,-420,394,-710,566,-886,-125,280,-337,495,319,176,-1281,1010},{432,3,-203,-416,398,-706,570,-882,-121,284,-333,499,323,180,-1277,1014}},
{{7,-422,-628,-841,-27,-1131,145,-1307,-546,-141,-758,74,-102,-245,-1702,589},{8,-421,-627,-840,-26,-1130,146,-1306,-545,-140,-757,75,-101,-244,-1701,590},{12,-417,-623,-836,-22,-1126,150,-1302,-541,-136,-753,79,-97,-240,-1697,594},{10,-419,-625,-838,-24,-1128,148,-1304,-543,-138,-755,77,-99,-242,-1699,592},{16,-413,-619,-832,-18,-1122,154,-1298,-537,-132,-749,83,-93,-236,-1693,598},{25,-404,-610,-823,-9,-1113,163,-1289,-528,-123,-740,92,-84,-227,-1684,607},{27,-402,-608,-821,-7,-1111,165,-1287,-526,-121,-738,94,-82,-225,-1682,609},{0,-429,-635,-848,-34,-1138,138,-1314,-553,-148,-765,67,-109,-252,-1709,582},{-28,-457,-663,-876,-62,-1166,110,-1342,-581,-176,-793,39,-137,-280,-1737,554},{-38,-467,-673,-886,-72,-1176,100,-1352,-591,-186,-803,29,-147,-290,-1747,544},{-22,-451,-657,-870,-56,-1160,116,-1336,-575,-170,-787,45,-131,-274,-1731,560},{-5,-434,-640,-853,-39,-1143,133,-1319,-558,-153,-770,62,-114,-257,-1714,577},{3,-426,-632,-845,-31,-1135,141,-1311,-550,-145,-762,70,-106,-249,-1706,585},{4,-425,-631,-844,-30,-1134,142,-1310,-549,-144,-761,71,-105,-248,-1705,586},{6,-423,-629,-842,-28,-1132,144,-1308,-547,-142,-759,73,-103,-246,-1703,588},{10,-419,-625,-838,-24,-1128,148,-1304,-543,-138,-755,77,-99,-242,-1699,592},{3,-426,-632,-845,-31,-1135,141,-1311,-550,-145,-762,70,-106,-249,-1706,585},{-4,-433,-639,-852,-38,-1142,134,-1318,-557,-152,-769,63,-113,-256,-1713,578},{-7,-436,-642,-855,-41,-1145,131,-1321,-560,-155,-772,60,-116,-259,-1716,575},{-16,-445,-651,-864,-50,-1154,122,-1330,-569,-164,-781,51,-125,-268,-1725,566},{-40,-469,-675,-888,-74,-1178,98,-1354,-593,-188,-805,27,-149,-292,-1749,542},{-57,-486,-692,-905,-91,-1195,81,-1371,-610,-205,-822,10,-166,-309,-1766,525},{-40,-469,-675,-888,-74,-1178,98,-1354,-593,-188,-805,27,-149,-292,-1749,542},{-4,-433,-639,-852,-38,-1142,134,-1318,-557,-152,-769,63,-113,-256,-1713,578},{13,-416,-622,-835,-21,-1125,151,-1301,-540,-135,-752,80,-96,-239,-1696,595},{5,-424,-630,-843,-29,-1133,143,-1309,-548,-143,-760,72,-104,-247,-1704,587},{-16,-445,-651,-864,-50,-1154,122,-1330,-569,-164,-781,51,-125,-268,-1725,566},{-38,-467,-673,-886,-72,-1176,100,-1352,-591,-186,-803,29,-147,-290,-1747,544},{-43,-472,-678,-891,-77,-1181,95,-1357,-596,-191,-808,24,-152,-295,-1752,539},{-28,-457,-663,-876,-62,-1166,110,-1342,-581,-176,-793,39,-137,-280,-1737,554},{25,-404,-610,-823,-9,-1113,163,-1289,-528,-123,-740,92,-84,-227,-1684,607},{87,-342,-548,-761,53,-1051,225,-1227,-466,-61,-678,154,-22,-165,-1622,669},{131,-298,-504,-717,97,-1007,269,-1183,-422,-17,-634,198,22,-121,-1578,713},{149,-280,-486,-699,115,-989,287,-1165,-404,1,-616,216,40,-103,-1560,731},{171,-258,-464,-677,137,-967,309,-1143,-382,23,-594,238,62,-81,-1538,753},{197,-232,-438,-651,163,-941,335,-1117,-356,49,-568,264,88,-55,-1512,779},{221,-208,-414,-627,187,-917,359,-1093,-332,73,-544,288,112,-31,-1488,803},{237,-192,-398,-611,203,-901,375,-1077,-316,89,-528,304,128,-15,-1472,819},{263,-166,-372,-585,229,-875,401,-1051,-290,115,-502,330,154,11,-1446,845},{289,-140,-346,-559,255,-849,427,-1025,-264,141,-476,356,180,37,-1420,871},{307,-122,-328,-541,273,-831,445,-1007,-246,159,-458,374,198,55,-1402,889},{324,-105,-311,-524,290,-814,462,-990,-229,176,-441,391,215,72,-1385,906},{347,-82,-288,-501,313,-791,485,-967,-206,199,-418,414,238,95,-1362,929},{377,-52,-258,-471,343,-761,515,-937,-176,229,-388,444,268,125,-1332,959},{404,-25,-231,-444,370,-734,542,-910,-149,256,-361,471,295,152,-1305,986},{428,-1,-207,-420,394,-710,566,-886,-125,280,-337,495,319,176,-1281,1010},{432,3,-203,-416,398,-706,570,-882,-121,284,-333,499,323,180,-1277,1014},{434,5,-201,-414,400,-704,572,-880,-119,286,-331,501,325,182,-1275,1016}},
{{8,-421,-627,-840,-26,-1130,146,-1306,-545,-140,-757,75,-101,-244,-1701,590},{12,-417,-623,-836,-22,-1126,150,-1302,-541,-136,-753,79,-97,-240,-1697,594},{10,-419,-625,-838,-24,-1128,148,-1304,-543,-138,-755,77,-99,-242,-1699,592},{16,-413,-619,-832,-18,-1122,154,-1298,-537,-132,-749,83,-93,-236,-1693,598},{25,-404,-610,-823,-9,-1113,163,-1289,-528,-123,-740,92,-84,-227,-1684,607},{27,-402,-608,-821,-7,-1111,165,-1287,-526,-121,-738,94,-82,-225,-1682,609},{0,-429,-635,-848,-34,-1138,138,-1314,-553,-148,-765,67,-109,-252,-1709,582},{-28,-457,-663,-876,-62,-1166,110,-1342,-581,-176,-793,39,-137,-280,-1737,554},{-38,-467,-673,-886,-72,-1176,100,-1352,-591,-186,-803,29,-147,-290,-1747,544},{-22,-451,-657,-870,-56,-1160,116,-1336,-575,-170,-787,45,-131,-274,-1731,560},{-5,-434,-640,-853,-39,-1143,133,-1319,-558,-153,-770,62,-114,-257,-1714,577},{3,-426,-632,-845,-31,-1135,141,-1311,-550,-145,-762,70,-106,-249,-1706,585},{4,-425,-631,-844,-30,-1134,142,-1310,-549,-144,-761,71,-105,-248,-1705,586},{6,-423,-629,-842,-28,-1132,144,-1308,-547,-142,-759,73,-103,-246,-1703,588},{10,-419,-625,-838,-24,-1128,148,-1304,-543,-138,-755,77,-99,-242,-1699,592},{3,-426,-632,-845,-31,-1135,141,-1311,-550,-145,-762,70,-106,-249,-1706,585},{-4,-433,-639,-852,-38,-1142,134,-1318,-557,-152,-769,63,-113,-256,-1713,578},{-7,-436,-642,-855,-41,-1145,131,-1321,-560,-155,-772,60,-116,-259,-1716,575},{-16,-445,-651,-864,-50,-1154,122,-1330,-569,-164,-781,51,-125,-268,-1725,566},{-40,-469,-675,-888,-74,-1178,98,-1354,-593,-188,-805,27,-149,-292,-1749,542},{-57,-486,-692,-905,-91,-1195,81,-1371,-610,-205,-822,10,-166,-309,-1766,525},{-40,-469,-675,-888,-74,-1178,98,-1354,-593,-188,-805,27,-149,-292,-1749,542},{-4,-433,-639,-852,-38,-1142,134,-1318,-557,-152,-769,63,-113,-256,-1713,578},{13,-416,-622,-835,-21,-1125,151,-1301,-540,-135,-752,80,-96,-239,-1696,595},{5,-424,-630,-843,-29,-1133,143,-1309,-548,-143,-760,72,-104,-247,-1704,587},{-16,-445,-651,-864,-50,-1154,122,-1330,-569,-164,-781,51,-125,-268,-1725,566},{-38,-467,-673,-886,-72,-1176,100,-1352,-591,-186,-803,29,-147,-290,-1747,544},{-43,-472,-678,-891,-77,-1181,95,-1357,-596,-191,-808,24,-152,-295,-1752,539},{-28,-457,-663,-876,-62,-1166,110,-1342,-581,-176,-793,39,-137,-280,-1737,554},{25,-404,-610,-823,-9,-1113,163,-1289,-528,-123,-740,92,-84,-227,-1684,607},{87,-342,-548,-761,53,-1051,225,-1227,-466,-61,-678,154,-22,-165,-1622,669},{131,-298,-504,-717,97,-1007,269,-1183,-422,-17,-634,198,22,-121,-1578,713},{149,-280,-486,-699,115,-989,287,-1165,-404,1,-616,216,40,-103,-1560,731},{171,-258,-464,-677,137,-967,309,-1143,-382,23,-594,238,62,-81,-1538,753},{197,-232,-438,-651,163,-941,335,-1117,-356,49,-568,264,88,-55,-1512,779},{221,-208,-414,-627,187,-917,359,-1093,-332,73,-544,288,112,-31,-1488,803},{237,-192,-398,-611,203,-901,375,-1077,-316,89,-528,304,128,-15,-1472,819},{263,-166,-372,-585,229,-875,401,-1051,-290,115,-502,330,154,11,-1446,845},{289,-140,-346,-559,255,-849,427,-1025,-264,141,-476,356,180,37,-1420,871},{307,-122,-328,-541,273,-831,445,-1007,-246,159,-458,374,198,55,-1402,889},{324,-105,-311,-524,290,-814,462,-990,-229,176,-441,391,215,72,-1385,906},{347,-82,-288,-501,313,-791,485,-967,-206,199,-418,414,238,95,-1362,929},{377,-52,-258,-471,343,-761,515,-937,-176,229,-388,444,268,125,-1332,959},{404,-25,-231,-444,370,-734,542,-910,-149,256,-361,471,295,152,-1305,986},{428,-1,-207,-420,394,-710,566,-886,-125,280,-337,495,319,176,-1281,1010},{432,3,-203,-416,398,-706,570,-882,-121,284,-333,499,323,180,-1277,1014},{434,5,-201,-414,400,-704,572,-880,-119,286,-331,501,325,182,-1275,1016},{444,15,-191,-404,410,-694,582,-870,-109,296,-321,511,335,192,-1265,1026}},
{{12,-417,-623,-836,-22,-1126,150,-1302,-541,-136,-753,79,-97,-240,-1697,594},{10,-419,-625,-838,-24,-1128,148,-1304,-543,-138,-755,77,-99,-242,-1699,592},{16,-413,-619,-832,-18,-1122,154,-1298,-537,-132,-749,83,-93,-236,-1693,598},{25,-404,-610,-823,-9,-1113,163,-1289,-528,-123,-740,92,-84,-227,-1684,607},{27,-402,-608,-821,-7,-1111,165,-1287,-526,-121,-738,94,-82,-225,-1682,609},{0,-429,-635,-848,-34,-1138,138,-1314,-553,-148,-765,67,-109,-252,-1709,582},{-28,-457,-663,-876,-62,-1166,110,-1342,-581,-176,-793,39,-137,-280,-1737,554},{-38,-467,-673,-886,-72,-1176,100,-1352,-591,-186,-803,29,-147,-290,-1747,544},{-22,-451,-657,-870,-56,-1160,116,-1336,-575,-170,-787,45,-131,-274,-1731,560},{-5,-434,-640,-853,-39,-1143,133,-1319,-558,-153,-770,62,-114,-257,-1714,577},{3,-426,-632,-845,-31,-1135,141,-1311,-550,-145,-762,70,-106,-249,-1706,585},{4,-425,-631,-844,-30,-1134,142,-1310,-549,-144,-761,71,-105,-248,-1705,586},{6,-423,-629,-842,-28,-1132,144,-1308,-547,-142,-759,73,-103,-246,-1703,588},{10,-419,-625,-838,-24,-1128,148,-1304,-543,-138,-755,77,-99,-242,-1699,592},{3,-426,-632,-845,-31,-1135,141,-1311,-550,-145,-762,70,-106,-249,-1706,585},{-4,-433,-639,-852,-38,-1142,134,-1318,-557,-152,-769,63,-113,-256,-1713,578},{-7,-436,-642,-855,-41,-1145,131,-1321,-560,-155,-772,60,-116,-259,-1716,575},{-16,-445,-651,-864,-50,-1154,122,-1330,-569,-164,-781,51,-125,-268,-1725,566},{-40,-469,-675,-888,-74,-1178,98,-1354,-593,-188,-805,27,-149,-292,-1749,542},{-57,-486,-692,-905,-91,-1195,81,-1371,-610,-205,-822,10,-166,-309,-1766,525},{-40,-469,-675,-888,-74,-1178,98,-1354,-593,-188,-805,27,-149,-292,-1749,542},{-4,-433,-639,-852,-38,-1142,134,-1318,-557,-152,-769,63,-113,-256,-1713,578},{13,-416,-622,-835,-21,-1125,151,-1301,-540,-135,-752,80,-96,-239,-1696,595},{5,-424,-630,-843,-29,-1133,143,-1309,-548,-143,-760,72,-104,-247,-1704,587},{-16,-445,-651,-864,-50,-1154,122,-1330,-569,-164,-781,51,-125,-268,-1725,566},{-38,-467,-673,-886,-72,-1176,100,-1352,-591,-186,-803,29,-147,-290,-1747,544},{-43,-472,-678,-891,-77,-1181,95,-1357,-596,-191,-808,24,-152,-295,-1752,539},{-28,-457,-663,-876,-62,-1166,110,-1342,-581,-176,-793,39,-137,-280,-1737,554},{25,-404,-610,-823,-9,-1113,163,-1289,-528,-123,-740,92,-84,-227,-1684,607},{87,-342,-548,-761,53,-1051,225,-1227,-466,-61,-678,154,-22,-165,-1622,669},{131,-298,-504,-717,97,-1007,269,-1183,-422,-17,-634,198,22,-121,-1578,713},{149,-280,-486,-699,115,-989,287,-1165,-404,1,-616,216,40,-103,-1560,731},{171,-258,-464,-677,137,-967,309,-1143,-382,23,-594,238,62,-81,-1538,753},{197,-232,-438,-651,163,-941,335,-1117,-356,49,-568,264,88,-55,-1512,779},{221,-208,-414,-627,187,-917,359,-1093,-332,73,-544,288,112,-31,-1488,803},{237,-192,-398,-611,203,-901,375,-1077,-316,89,-528,304,128,-15,-1472,819},{263,-166,-372,-585,229,-875,401,-1051,-290,115,-502,330,154,11,-1446,845},{289,-140,-346,-559,255,-849,427,-1025,-264,141,-476,356,180,37,-1420,871},{307,-122,-328,-541,273,-831,445,-1007,-246,159,-458,374,198,55,-1402,889},{324,-105,-311,-524,290,-814,462,-990,-229,176,-441,391,215,72,-1385,906},{347,-82,-288,-501,313,-791,485,-967,-206,199,-418,414,238,95,-1362,929},{377,-52,-258,-471,343,-761,515,-937,-176,229,-388,444,268,125,-1332,959},{404,-25,-231,-444,370,-734,542,-910,-149,256,-361,471,295,152,-1305,986},{428,-1,-207,-420,394,-710,566,-886,-125,280,-337,495,319,176,-1281,1010},{432,3,-203,-416,398,-706,570,-882,-121,284,-333,499,323,180,-1277,1014},{434,5,-201,-414,400,-704,572,-880,-119,286,-331,501,325,182,-1275,1016},{444,15,-191,-404,410,-694,582,-870,-109,296,-321,511,335,192,-1265,1026},{469,40,-166,-379,435,-669,607,-845,-84,321,-296,536,360,217,-1240,1051}},
